svm_type c_svc
kernel_type linear
nr_class 2
total_sv 3634
rho 0.770836
label 1 -1
probA -1.72431
probB -0.0660855
nr_sv 1886 1748
SV
0.2297438291203063 7:1 12:1 23:1 24:1 25:1 26:1 27:1 28:1 29:1 30:1 31:1 32:1 33:1 34:1 35:1 36:1 37:1 38:1 39:1 40:1 41:1 42:1 43:1 44:1 45:1 46:1 47:1 48:1 49:1 50:1 51:1 
0.05473649560744215 31:1 44:1 69:1 85:1 149:1 166:1 175:1 198:1 267:1 268:1 269:1 270:1 271:1 272:1 273:1 274:1 275:1 276:1 277:1 278:1 279:1 280:1 281:1 282:1 283:1 284:1 285:1 286:1 287:1 
0.04412294012362539 2:1 21:1 44:1 52:1 75:1 92:1 98:1 128:1 146:1 242:1 290:1 340:1 354:1 398:1 404:1 434:1 517:1 519:1 522:1 523:1 524:1 525:1 526:1 527:1 528:1 529:1 530:1 531:1 532:1 533:1 534:1 535:1 536:1 537:1 538:1 539:1 540:1 541:1 542:1 543:1 544:1 545:1 
0.1356791618197957 15:1 66:1 69:1 126:1 175:1 196:1 242:1 348:1 476:1 639:1 640:1 641:1 642:1 643:1 644:1 645:1 646:1 647:1 648:1 649:1 650:1 651:1 652:1 
0.2485037230285605 106:1 107:1 136:1 152:1 184:1 197:1 203:1 423:1 511:1 664:1 665:1 666:1 667:1 668:1 669:1 
0.07428496157582247 42:1 128:1 331:1 338:1 361:1 496:1 629:1 636:1 670:1 671:1 672:1 673:1 674:1 675:1 676:1 677:1 678:1 679:1 680:1 681:1 682:1 683:1 684:1 685:1 686:1 687:1 688:1 689:1 690:1 691:1 692:1 693:1 694:1 695:1 696:1 697:1 698:1 699:1 700:1 701:1 702:1 703:1 704:1 705:1 706:1 707:1 
0.02941824632486448 15:1 20:1 66:1 92:1 136:1 169:1 242:1 397:1 474:1 503:1 515:1 561:1 794:1 795:1 796:1 797:1 798:1 
0.0532618729662536 12:1 14:1 42:1 164:1 188:1 395:1 1034:1 1035:1 1036:1 1037:1 1038:1 1039:1 1040:1 1041:1 1042:1 1043:1 1044:1 1045:1 1046:1 1047:1 1048:1 1049:1 1050:1 
2.085349112973528 1106:1 1107:1 1108:1 
0.1048747215462717 7:1 14:1 21:1 44:1 85:1 112:1 129:1 153:1 464:1 477:1 512:1 517:1 528:1 583:1 894:1 960:1 1034:1 1127:1 1181:1 1182:1 1183:1 1184:1 1185:1 1186:1 1187:1 1188:1 1189:1 1190:1 1191:1 1192:1 1193:1 1194:1 1195:1 1196:1 
0.2851609170381418 67:1 163:1 164:1 289:1 318:1 372:1 376:1 427:1 450:1 476:1 589:1 930:1 1349:1 1456:1 1457:1 1458:1 
0.06644044180715278 6:1 8:1 136:1 270:1 297:1 305:1 356:1 700:1 833:1 865:1 1149:1 1190:1 1285:1 1385:1 1429:1 1455:1 1484:1 1516:1 1557:1 1642:1 1643:1 1644:1 1645:1 1646:1 1647:1 1648:1 1649:1 1650:1 1651:1 1652:1 1653:1 1654:1 1655:1 1656:1 
0.1091081085312206 44:1 106:1 135:1 147:1 252:1 404:1 633:1 645:1 1137:1 1144:1 1190:1 1194:1 1338:1 1363:1 1697:1 1698:1 1699:1 1700:1 1701:1 1702:1 1703:1 1704:1 1705:1 1706:1 1707:1 1708:1 1709:1 1710:1 1711:1 1712:1 
0.1354250389659147 14:1 38:1 67:1 69:1 98:1 105:1 106:1 107:1 110:1 126:1 166:1 175:1 186:1 196:1 201:1 224:1 340:1 355:1 473:1 515:1 528:1 562:1 658:1 742:1 747:1 859:1 897:1 1074:1 1192:1 1688:1 1810:1 1890:1 1891:1 1892:1 1893:1 1894:1 1895:1 1896:1 1897:1 1898:1 
0.04017803173304765 7:1 15:1 21:1 44:1 75:1 110:1 288:1 290:1 316:1 338:1 353:1 422:1 502:1 647:1 696:1 741:1 746:1 763:1 885:1 1139:1 1190:1 1255:1 1533:1 1930:1 1931:1 1932:1 1933:1 1934:1 1935:1 1936:1 1937:1 1938:1 1939:1 1940:1 1941:1 1942:1 1943:1 1944:1 1945:1 1946:1 1947:1 1948:1 1949:1 1950:1 
0.1572000175162748 44:1 85:1 92:1 136:1 166:1 290:1 476:1 538:1 714:1 723:1 751:1 806:1 816:1 875:1 896:1 954:1 1062:1 1337:1 1672:1 2060:1 2061:1 2062:1 2063:1 2064:1 2065:1 2066:1 2067:1 
0.003231818355129266 14:1 85:1 297:1 529:1 574:1 652:1 962:1 1149:1 1428:1 1623:1 1627:1 1631:1 1845:1 2233:1 2234:1 2235:1 2236:1 2237:1 2238:1 2239:1 2240:1 2241:1 2242:1 
0.0009941144059521594 14:1 15:1 116:1 246:1 249:1 345:1 484:1 516:1 758:1 995:1 1734:1 1871:1 1873:1 2345:1 2346:1 2347:1 2348:1 2349:1 2350:1 2351:1 2352:1 2353:1 2354:1 2355:1 2356:1 2357:1 2358:1 2359:1 2360:1 2361:1 2362:1 2363:1 2364:1 2365:1 2366:1 
0.03341450339395096 15:1 65:1 105:1 114:1 163:1 334:1 398:1 399:1 418:1 447:1 495:1 574:1 714:1 720:1 724:1 750:1 793:1 1178:1 1253:1 1254:1 1341:1 1387:1 1512:1 1551:1 1557:1 2039:1 2100:1 2445:1 2446:1 2447:1 2448:1 2449:1 2450:1 2451:1 2452:1 2453:1 2454:1 2455:1 2456:1 2457:1 2458:1 2459:1 2460:1 2461:1 2462:1 2463:1 2464:1 2465:1 2466:1 
0.05689614610523091 14:1 61:1 67:1 68:1 78:1 131:1 187:1 297:1 417:1 562:1 659:1 739:1 818:1 894:1 921:1 1119:1 1501:1 1851:1 2502:1 2503:1 2504:1 2505:1 2506:1 2507:1 2508:1 2509:1 2510:1 2511:1 2512:1 2513:1 2514:1 2515:1 
0.1900957287787327 54:1 66:1 67:1 106:1 135:1 136:1 154:1 167:1 175:1 270:1 297:1 363:1 436:1 510:1 538:1 563:1 911:1 2192:1 2193:1 2605:1 2609:1 2610:1 2611:1 2612:1 
0.2085006474090715 66:1 109:1 252:1 270:1 355:1 387:1 388:1 1428:1 2088:1 2304:1 2756:1 2757:1 2758:1 2759:1 2760:1 2761:1 
0.009013998799819314 66:1 67:1 72:1 169:1 289:1 349:1 591:1 729:1 1288:1 2198:1 2762:1 2763:1 2764:1 2765:1 2766:1 2767:1 2768:1 2769:1 2770:1 2771:1 2772:1 
0.02629565634690301 170:1 198:1 289:1 340:1 356:1 390:1 418:1 429:1 441:1 518:1 723:1 1428:1 1446:1 1518:1 2750:1 2761:1 2781:1 2782:1 2783:1 2784:1 2785:1 2786:1 2787:1 2788:1 2789:1 2790:1 2791:1 
0.326577324216126 9:1 16:1 38:1 105:1 242:1 262:1 305:1 474:1 612:1 874:1 894:1 1130:1 2809:1 2810:1 2811:1 2812:1 2813:1 2814:1 2815:1 2816:1 2817:1 
0.3467412409093675 11:1 20:1 44:1 97:1 146:1 262:1 338:1 668:1 752:1 957:1 1025:1 1508:1 1722:1 2892:1 2893:1 
0.0250647500587397 12:1 47:1 66:1 85:1 134:1 158:1 169:1 196:1 264:1 324:1 474:1 564:1 669:1 1109:1 1370:1 1398:1 1810:1 1849:1 1856:1 2564:1 2597:1 3041:1 3042:1 3043:1 3044:1 3045:1 3046:1 3047:1 3048:1 3049:1 
0.01388352190382932 14:1 146:1 149:1 196:1 198:1 219:1 262:1 287:1 335:1 875:1 2226:1 2552:1 2613:1 3162:1 3163:1 3164:1 3165:1 3166:1 3167:1 3168:1 3169:1 3170:1 
0.06635868729627202 30:1 67:1 85:1 136:1 163:1 211:1 249:1 305:1 354:1 363:1 387:1 467:1 552:1 723:1 824:1 1127:1 1296:1 1430:1 1917:1 2255:1 2959:1 3150:1 3171:1 3172:1 3173:1 3174:1 3175:1 3176:1 3177:1 3178:1 3179:1 3180:1 
0.01798954222478242 38:1 85:1 103:1 129:1 160:1 163:1 287:1 465:1 2871:1 3209:1 3210:1 3211:1 3212:1 3213:1 3214:1 
0.04545744381520651 20:1 69:1 71:1 85:1 91:1 93:1 136:1 186:1 340:1 382:1 398:1 474:1 475:1 502:1 551:1 557:1 629:1 652:1 710:1 720:1 723:1 867:1 875:1 1336:1 1451:1 1796:1 1901:1 2948:1 3110:1 3298:1 3299:1 3300:1 3301:1 3302:1 3303:1 3304:1 3305:1 3306:1 3307:1 3308:1 3309:1 3310:1 3311:1 3312:1 3313:1 
0.1923133732167905 16:1 166:1 170:1 227:1 252:1 341:1 344:1 361:1 612:1 709:1 866:1 908:1 1009:1 1499:1 2072:1 2215:1 2548:1 3421:1 3422:1 
0.1648774719008169 21:1 85:1 98:1 196:1 242:1 243:1 435:1 570:1 666:1 882:1 1073:1 1178:1 1211:1 1285:1 1381:1 1521:1 1754:1 1902:1 2067:1 2310:1 2531:1 3432:1 3433:1 3434:1 3435:1 3436:1 3437:1 3438:1 
0.06212811224846814 14:1 54:1 69:1 105:1 175:1 198:1 288:1 319:1 354:1 434:1 476:1 633:1 669:1 700:1 953:1 1008:1 1065:1 1149:1 1588:1 1720:1 1750:1 1751:1 1799:1 2461:1 2522:1 3291:1 3439:1 3440:1 3441:1 3442:1 3443:1 3444:1 3445:1 3446:1 
0.003313073511965591 12:1 21:1 48:1 49:1 50:1 69:1 287:1 397:1 476:1 505:1 528:1 613:1 714:1 835:1 867:1 1132:1 1180:1 1259:1 1387:1 1446:1 1460:1 1461:1 1487:1 1508:1 1733:1 1810:1 2174:1 2310:1 2475:1 2667:1 2793:1 3219:1 3222:1 3447:1 3448:1 3449:1 3450:1 3451:1 
0.005177718493786979 12:1 40:1 115:1 134:1 194:1 392:1 1121:1 1248:1 1249:1 1308:1 1750:1 2051:1 2174:1 2629:1 3462:1 
0.04973034036919678 14:1 44:1 242:1 264:1 388:1 397:1 436:1 474:1 512:1 528:1 885:1 1149:1 1339:1 3344:1 3494:1 3495:1 3496:1 3497:1 3498:1 3499:1 3500:1 3501:1 3502:1 3503:1 3504:1 3505:1 3506:1 
0.01132705764039612 12:1 15:1 40:1 47:1 66:1 129:1 135:1 163:1 323:1 562:1 591:1 909:1 1032:1 1387:1 1521:1 1722:1 1887:1 2039:1 2069:1 2191:1 3559:1 3560:1 3561:1 3562:1 3563:1 3564:1 3565:1 3566:1 3567:1 3568:1 3569:1 3570:1 3571:1 
0.1605874815167364 16:1 29:1 69:1 91:1 111:1 134:1 136:1 166:1 467:1 591:1 608:1 654:1 1192:1 2372:1 3572:1 3573:1 3574:1 
0.1565964355007852 12:1 14:1 29:1 47:1 54:1 67:1 69:1 149:1 186:1 200:1 227:1 284:1 287:1 465:1 523:1 544:1 711:1 723:1 846:1 867:1 885:1 1101:1 1446:1 1733:1 2052:1 2101:1 2563:1 2702:1 2823:1 3166:1 3629:1 3630:1 3631:1 3632:1 3633:1 3634:1 3635:1 3636:1 3637:1 3638:1 3639:1 3640:1 3641:1 3642:1 
0.03902787302996663 427:1 3647:1 3648:1 3649:1 3650:1 3651:1 
0.05632828988034301 12:1 44:1 66:1 114:1 135:1 136:1 146:1 163:1 166:1 196:1 338:1 388:1 516:1 517:1 658:1 668:1 875:1 1517:1 1648:1 2734:1 3743:1 3744:1 3745:1 3746:1 3747:1 3748:1 3749:1 3750:1 3751:1 3752:1 3753:1 3754:1 3755:1 3756:1 
0.3377361717451007 48:1 49:1 50:1 51:1 70:1 146:1 343:1 474:1 712:1 741:1 743:1 919:1 964:1 1870:1 3780:1 3781:1 3782:1 3783:1 3784:1 
0.07827782836475479 69:1 103:1 107:1 351:1 421:1 510:1 712:1 746:1 843:1 1009:1 1020:1 1896:1 3813:1 3814:1 
0.2697938139969203 52:1 168:1 204:1 288:1 290:1 674:1 1441:1 1565:1 1931:1 3447:1 3917:1 3918:1 3919:1 3920:1 
0.1077275865421906 44:1 69:1 196:1 249:1 264:1 431:1 672:1 681:1 712:1 1246:1 1352:1 1722:1 2161:1 4054:1 4055:1 4056:1 4057:1 4058:1 4059:1 4060:1 4061:1 4062:1 
0.06459570325215042 69:1 134:1 474:1 614:1 874:1 995:1 1068:1 2160:1 2181:1 2667:1 2892:1 4097:1 4098:1 4099:1 4100:1 4101:1 
0.02100088598956238 44:1 85:1 94:1 102:1 134:1 144:1 170:1 290:1 441:1 467:1 530:1 686:1 896:1 1144:1 1440:1 1512:1 2433:1 2588:1 2613:1 3022:1 3026:1 3898:1 4119:1 4120:1 4121:1 4122:1 4123:1 
0.2149668926662307 14:1 40:1 48:1 49:1 50:1 51:1 105:1 175:1 262:1 290:1 641:1 834:1 958:1 1624:1 1627:1 1967:1 2286:1 4114:1 4199:1 4200:1 4201:1 4202:1 4203:1 
0.3295476243680497 93:1 542:1 4209:1 4210:1 4211:1 4212:1 4213:1 
1.549023571264494 20:1 85:1 163:1 361:1 365:1 444:1 455:1 464:1 948:1 1670:1 2612:1 2854:1 4238:1 4239:1 
0.2115138452001336 12:1 77:1 93:1 94:1 97:1 142:1 163:1 175:1 182:1 198:1 248:1 334:1 340:1 343:1 355:1 391:1 470:1 497:1 538:1 767:1 896:1 909:1 1101:1 1259:1 1261:1 1273:1 1484:1 1511:1 1543:1 2072:1 2616:1 3208:1 3295:1 4214:1 4301:1 4302:1 4303:1 4304:1 4305:1 4306:1 4307:1 4308:1 4309:1 4310:1 4311:1 4312:1 4313:1 4314:1 
0.0193623416839165 42:1 44:1 61:1 66:1 262:1 287:1 465:1 683:1 747:1 946:1 1122:1 1180:1 1428:1 1648:1 2136:1 2756:1 3771:1 4343:1 4344:1 4345:1 4346:1 4347:1 4348:1 4349:1 4350:1 4351:1 4352:1 4353:1 
0.07105285450682831 2:1 7:1 24:1 114:1 242:1 334:1 340:1 496:1 583:1 705:1 723:1 1056:1 1160:1 1208:1 1255:1 1273:1 1579:1 1772:1 1917:1 1961:1 2068:1 2073:1 2973:1 4103:1 4354:1 4355:1 4356:1 4357:1 4358:1 
0.003800246903928209 3:1 8:1 12:1 40:1 69:1 112:1 184:1 227:1 448:1 562:1 793:1 875:1 1848:1 2700:1 3123:1 4360:1 4361:1 4362:1 4363:1 4364:1 4365:1 4366:1 
0.05270252418407503 14:1 47:1 98:1 105:1 149:1 163:1 170:1 305:1 343:1 474:1 628:1 668:1 713:1 813:1 821:1 865:1 885:1 911:1 1121:1 2710:1 3845:1 3978:1 4252:1 4373:1 4374:1 4375:1 
0.237936914231514 67:1 93:1 164:1 170:1 173:1 227:1 249:1 289:1 395:1 485:1 510:1 515:1 1025:1 1059:1 1071:1 1133:1 1312:1 2027:1 2589:1 
0.1764078582975472 7:1 12:1 63:1 136:1 163:1 296:1 364:1 399:1 422:1 434:1 450:1 1119:1 1387:1 1455:1 1618:1 3181:1 3407:1 3597:1 3758:1 4464:1 4465:1 4466:1 4467:1 
0.0181650818306894 11:1 69:1 136:1 305:1 319:1 652:1 1350:1 2100:1 2469:1 2807:1 2813:1 3873:1 4480:1 4481:1 4482:1 4483:1 4484:1 4485:1 4486:1 4487:1 4488:1 4489:1 4490:1 
1.051750100332109 44:1 182:1 243:1 251:1 434:1 820:1 876:1 941:1 1604:1 2676:1 3444:1 4616:1 
0.06010738336776552 15:1 386:1 612:1 700:1 793:1 1246:1 3462:1 4653:1 4654:1 4655:1 4656:1 4657:1 
0.08498246233546927 18:1 31:1 84:1 294:1 872:1 1145:1 1177:1 1505:1 1558:1 3026:1 3068:1 3389:1 3857:1 4419:1 4693:1 4694:1 4695:1 4696:1 4697:1 4698:1 4699:1 4700:1 4701:1 4702:1 4703:1 4704:1 4705:1 4706:1 4707:1 
0.07504615144505095 42:1 92:1 134:1 164:1 227:1 296:1 324:1 946:1 1247:1 1531:1 2580:1 2602:1 2795:1 3172:1 3520:1 4060:1 4061:1 4262:1 4655:1 4763:1 4764:1 4765:1 4766:1 4767:1 4768:1 4769:1 
0.1458210665091353 9:1 38:1 112:1 123:1 129:1 179:1 605:1 865:1 875:1 1115:1 1993:1 2543:1 2552:1 4802:1 4803:1 4804:1 4805:1 4806:1 
0.0677010996152331 14:1 69:1 386:1 459:1 467:1 516:1 865:1 1411:1 1966:1 2365:1 3014:1 4091:1 4916:1 4917:1 4918:1 4919:1 4920:1 4921:1 4922:1 
0.04104805076389925 1:1 2:1 15:1 20:1 44:1 146:1 160:1 264:1 355:1 464:1 515:1 565:1 1071:1 1085:1 1235:1 3672:1 4229:1 4926:1 4927:1 
0.2269659131427651 7:1 44:1 398:1 399:1 763:1 875:1 917:1 1692:1 2223:1 3100:1 3877:1 4983:1 4984:1 
0.06967623907863951 7:1 18:1 20:1 38:1 77:1 94:1 126:1 154:1 198:1 215:1 290:1 296:1 395:1 439:1 477:1 505:1 548:1 563:1 700:1 793:1 842:1 885:1 1186:1 1337:1 1517:1 1556:1 1692:1 3248:1 4081:1 4985:1 4986:1 4987:1 4988:1 4989:1 4990:1 4991:1 4992:1 4993:1 4994:1 4995:1 
0.001779529163808588 69:1 136:1 163:1 191:1 227:1 241:1 307:1 379:1 751:1 847:1 896:1 2410:1 2470:1 2545:1 2560:1 2602:1 3762:1 4548:1 5029:1 5030:1 5031:1 5032:1 5033:1 5034:1 
0.1275632493375213 12:1 20:1 42:1 44:1 92:1 126:1 134:1 136:1 359:1 388:1 398:1 430:1 492:1 542:1 668:1 713:1 867:1 888:1 896:1 1025:1 1235:1 1496:1 1753:1 1755:1 4219:1 5035:1 5036:1 5037:1 5038:1 
0.5241346655097546 48:1 49:1 50:1 51:1 66:1 170:1 351:1 359:1 476:1 612:1 1770:1 3258:1 4195:1 5054:1 5055:1 
0.02543833234975139 105:1 459:1 478:1 479:1 513:1 659:1 921:1 1032:1 1585:1 3031:1 4939:1 5150:1 5151:1 5152:1 5153:1 5154:1 5155:1 5156:1 5157:1 5158:1 5159:1 
0.1311052434249631 85:1 146:1 164:1 354:1 464:1 658:1 676:1 765:1 1345:1 1501:1 1697:1 1844:1 2734:1 3122:1 3806:1 4079:1 5330:1 5331:1 5332:1 5333:1 5334:1 5335:1 
0.0116108174544572 9:1 69:1 144:1 164:1 201:1 319:1 347:1 497:1 930:1 1007:1 1191:1 2621:1 5356:1 5357:1 5358:1 5359:1 5360:1 5361:1 
0.01604902096073725 2:1 38:1 144:1 263:1 464:1 621:1 992:1 1021:1 1076:1 1791:1 1917:1 4028:1 5389:1 5390:1 5391:1 5392:1 5393:1 5394:1 5395:1 
0.04678193529086071 69:1 146:1 170:1 228:1 978:1 998:1 1246:1 3572:1 4056:1 4509:1 4687:1 5435:1 5436:1 5437:1 5438:1 5439:1 
0.0929921922404711 66:1 136:1 196:1 200:1 203:1 344:1 349:1 391:1 445:1 491:1 544:1 808:1 1148:1 1357:1 1517:1 1752:1 1753:1 1837:1 2467:1 2784:1 3145:1 3838:1 5518:1 5519:1 5520:1 5521:1 5522:1 5523:1 5524:1 5525:1 
0.2812360238282386 38:1 44:1 102:1 135:1 200:1 291:1 305:1 355:1 469:1 869:1 902:1 1013:1 1068:1 1149:1 1151:1 2413:1 3366:1 5567:1 5568:1 5569:1 5570:1 5571:1 
0.1865563499761531 7:1 70:1 91:1 198:1 340:1 351:1 387:1 398:1 528:1 1190:1 1192:1 1619:1 1902:1 2161:1 2531:1 5613:1 5614:1 5615:1 5616:1 
0.1005757635537701 15:1 40:1 44:1 69:1 97:1 104:1 105:1 114:1 150:1 169:1 182:1 196:1 198:1 201:1 204:1 243:1 262:1 290:1 305:1 324:1 334:1 340:1 349:1 418:1 429:1 470:1 577:1 675:1 677:1 688:1 751:1 757:1 758:1 866:1 882:1 883:1 885:1 920:1 945:1 971:1 1085:1 1107:1 1108:1 1145:1 1192:1 1306:1 1379:1 1405:1 1475:1 1496:1 1554:1 1669:1 1754:1 1765:1 1787:1 1922:1 2101:1 2241:1 2411:1 2600:1 2613:1 2656:1 2679:1 2900:1 3020:1 3070:1 3839:1 3898:1 4187:1 4462:1 4465:1 5068:1 5086:1 5676:1 5759:1 5760:1 5761:1 5762:1 5763:1 5764:1 5765:1 5766:1 5767:1 5768:1 5769:1 5770:1 5771:1 5772:1 5773:1 5774:1 5775:1 5776:1 5777:1 5778:1 5779:1 5780:1 5781:1 5782:1 5783:1 
0.06863773784866382 12:1 103:1 354:1 406:1 449:1 563:1 655:1 739:1 869:1 873:1 1946:1 2049:1 2881:1 4372:1 5808:1 5809:1 5810:1 
0.158286335718213 4:1 54:1 102:1 129:1 136:1 178:1 186:1 264:1 355:1 511:1 772:1 909:1 991:1 1290:1 1302:1 2637:1 2925:1 3295:1 
0.3470986844432233 92:1 225:1 297:1 474:1 1149:1 1919:1 2160:1 2598:1 3232:1 3671:1 5401:1 5845:1 5846:1 5847:1 
0.4242351493094004 38:1 44:1 188:1 669:1 740:1 742:1 743:1 898:1 1284:1 1474:1 2560:1 2940:1 2990:1 3224:1 3981:1 5848:1 5849:1 5850:1 5851:1 5852:1 
0.02799644462057312 6:1 7:1 67:1 98:1 134:1 164:1 170:1 173:1 324:1 436:1 614:1 806:1 1484:1 1517:1 1648:1 1662:1 2543:1 2706:1 2824:1 3989:1 4431:1 4919:1 5902:1 5903:1 5904:1 5905:1 5906:1 5907:1 5908:1 5909:1 
0.2390844423979466 112:1 175:1 288:1 340:1 448:1 476:1 512:1 633:1 649:1 876:1 1101:1 1102:1 1137:1 1754:1 1931:1 2835:1 2926:1 3783:1 4644:1 5104:1 5921:1 
0.04443978337155031 15:1 106:1 134:1 163:1 334:1 340:1 1192:1 1531:1 1532:1 1922:1 2079:1 2389:1 3010:1 3414:1 3517:1 3684:1 4071:1 4125:1 4710:1 5931:1 5932:1 5933:1 5934:1 5935:1 5936:1 5937:1 5938:1 5939:1 
0.09200975681187896 44:1 136:1 149:1 227:1 335:1 397:1 474:1 512:1 742:1 743:1 821:1 823:1 1810:1 1899:1 4050:1 4468:1 5670:1 5909:1 5940:1 
0.2940163644667222 14:1 3038:1 3840:1 3921:1 5945:1 
0.007889868229896749 69:1 134:1 149:1 317:1 349:1 354:1 373:1 495:1 650:1 678:1 695:1 718:1 747:1 789:1 984:1 1029:1 1073:1 1261:1 1672:1 1685:1 1917:1 2051:1 2833:1 2871:1 2878:1 2988:1 3436:1 4974:1 5960:1 5961:1 5962:1 5963:1 5964:1 5965:1 5966:1 5967:1 5968:1 5969:1 5970:1 5971:1 5972:1 5973:1 5974:1 5975:1 5976:1 5977:1 5978:1 5979:1 5980:1 5981:1 5982:1 5983:1 5984:1 5985:1 
0.0499514778379546 14:1 91:1 111:1 129:1 136:1 435:1 474:1 885:1 942:1 1686:1 3043:1 3598:1 4047:1 4048:1 4681:1 5678:1 6001:1 6002:1 
0.245811716917944 92:1 112:1 163:1 204:1 562:1 1235:1 1531:1 1562:1 2121:1 2356:1 2545:1 6032:1 
0.1098922145080092 135:1 633:1 700:1 793:1 1119:1 1188:1 2069:1 2470:1 4568:1 4726:1 6081:1 6082:1 6083:1 6084:1 6085:1 6086:1 6087:1 6088:1 6089:1 
0.3016847545097512 12:1 52:1 290:1 291:1 6121:1 6122:1 6123:1 6124:1 
0.0002217922266657585 14:1 28:1 69:1 110:1 149:1 178:1 246:1 344:1 555:1 840:1 865:1 867:1 875:1 954:1 977:1 1737:1 1764:1 1964:1 2062:1 2703:1 4194:1 4519:1 5877:1 6196:1 6197:1 6198:1 6199:1 6200:1 
0.0800000304679868 12:1 69:1 217:1 227:1 262:1 373:1 415:1 444:1 515:1 528:1 661:1 859:1 875:1 876:1 894:1 995:1 1670:1 1772:1 1994:1 2415:1 2416:1 3425:1 4632:1 6145:1 6201:1 6202:1 6203:1 6204:1 
0.01375743269036639 7:1 14:1 47:1 85:1 92:1 93:1 98:1 103:1 126:1 136:1 441:1 465:1 492:1 563:1 574:1 700:1 740:1 751:1 873:1 912:1 966:1 1085:1 1192:1 1538:1 1698:1 1765:1 2013:1 2613:1 2955:1 3168:1 3232:1 4120:1 4253:1 5073:1 5221:1 5877:1 6207:1 6208:1 6209:1 6210:1 
0.0995110821769371 201:1 249:1 347:1 423:1 668:1 1290:1 1388:1 1446:1 1698:1 2196:1 2233:1 2927:1 3891:1 5827:1 6207:1 6211:1 6212:1 6213:1 6214:1 6215:1 
0.127864465370053 7:1 18:1 110:1 134:1 175:1 288:1 873:1 1108:1 1327:1 2033:1 2672:1 2681:1 2722:1 3375:1 3715:1 5552:1 6262:1 
0.007441428038561365 38:1 85:1 98:1 146:1 216:1 219:1 450:1 654:1 896:1 957:1 983:1 1062:1 1078:1 1178:1 1243:1 1318:1 1528:1 2200:1 2340:1 3891:1 4319:1 4383:1 5043:1 6311:1 6312:1 6313:1 6314:1 6315:1 6316:1 6317:1 6318:1 6319:1 
0.07541239498164892 15:1 127:1 134:1 163:1 316:1 502:1 655:1 1157:1 1246:1 1656:1 2051:1 3249:1 3281:1 3488:1 6346:1 6347:1 
0.01202307281770127 12:1 38:1 45:1 67:1 110:1 146:1 169:1 196:1 288:1 340:1 367:1 390:1 422:1 467:1 505:1 562:1 692:1 696:1 751:1 760:1 824:1 838:1 885:1 922:1 924:1 977:1 1055:1 1081:1 1192:1 1337:1 1436:1 1455:1 1487:1 1489:1 1531:1 1931:1 2353:1 2563:1 2578:1 2685:1 2862:1 2934:1 2946:1 3834:1 4232:1 5599:1 6580:1 6581:1 6582:1 6583:1 6584:1 6585:1 6586:1 6587:1 
0.01892512572884125 66:1 103:1 136:1 148:1 160:1 187:1 287:1 387:1 867:1 1124:1 2498:1 2564:1 2941:1 4027:1 4200:1 5136:1 5533:1 6597:1 6598:1 6599:1 6600:1 6601:1 6602:1 6603:1 6604:1 6605:1 6606:1 
0.07000945497547979 12:1 69:1 72:1 200:1 262:1 507:1 530:1 867:1 1225:1 1801:1 2358:1 4918:1 4958:1 6637:1 6638:1 6639:1 6640:1 
0.007666980738016384 14:1 38:1 65:1 69:1 136:1 296:1 491:1 720:1 746:1 750:1 816:1 865:1 876:1 960:1 1119:1 1137:1 1279:1 1508:1 1751:1 3247:1 3444:1 3560:1 4758:1 5818:1 6258:1 6681:1 6682:1 6683:1 6684:1 6685:1 
0.02426432002508149 7:1 38:1 67:1 97:1 134:1 182:1 896:1 1027:1 1516:1 2189:1 3245:1 4850:1 6700:1 6701:1 
0.02693015585952878 11:1 12:1 52:1 61:1 105:1 135:1 175:1 245:1 334:1 350:1 353:1 405:1 474:1 475:1 747:1 885:1 911:1 1505:1 6708:1 6709:1 6710:1 6711:1 
0.08207874195767172 12:1 28:1 38:1 45:1 69:1 105:1 162:1 227:1 246:1 441:1 517:1 562:1 723:1 772:1 977:1 1420:1 1652:1 2597:1 2670:1 2837:1 2940:1 3081:1 3141:1 3335:1 4128:1 6727:1 6728:1 6729:1 6730:1 6731:1 6732:1 6733:1 6734:1 
0.200191718666499 20:1 166:1 169:1 182:1 228:1 382:1 386:1 457:1 459:1 465:1 478:1 479:1 512:1 552:1 567:1 723:1 846:1 1243:1 1261:1 1966:1 2072:1 2088:1 2353:1 2444:1 3222:1 3500:1 4400:1 6754:1 6755:1 6756:1 6757:1 
0.1888706564600809 7:1 12:1 21:1 38:1 54:1 98:1 163:1 184:1 243:1 305:1 330:1 334:1 337:1 347:1 376:1 388:1 392:1 425:1 434:1 477:1 485:1 502:1 555:1 567:1 678:1 755:1 866:1 911:1 912:1 953:1 1010:1 1017:1 1062:1 1137:1 1222:1 1255:1 1351:1 1436:1 1922:1 2471:1 2655:1 2923:1 2979:1 3237:1 3411:1 4067:1 4463:1 6345:1 6586:1 6766:1 6767:1 6768:1 
0.1361350723291213 11:1 38:1 52:1 98:1 105:1 169:1 204:1 249:1 513:1 605:1 805:1 833:1 912:1 1317:1 1485:1 1501:1 1840:1 1967:1 2100:1 3340:1 3397:1 3512:1 3908:1 4111:1 5572:1 6152:1 6804:1 6805:1 6806:1 6807:1 6808:1 
0.04203706567635541 15:1 73:1 129:1 136:1 196:1 467:1 677:1 696:1 1246:1 1967:1 2421:1 3964:1 4452:1 4834:1 6887:1 6888:1 6889:1 6890:1 6891:1 6892:1 6893:1 6894:1 6895:1 6896:1 
0.02525546275034401 14:1 38:1 44:1 69:1 105:1 107:1 135:1 166:1 476:1 478:1 479:1 523:1 723:1 865:1 1057:1 1119:1 1276:1 1373:1 1420:1 2065:1 2598:1 3067:1 3486:1 3529:1 3800:1 5542:1 5595:1 6915:1 6916:1 6917:1 6918:1 
0.03552289229268732 0:1 14:1 61:1 69:1 73:1 225:1 242:1 249:1 287:1 335:1 340:1 413:1 432:1 474:1 512:1 882:1 995:1 1098:1 1101:1 1192:1 1801:1 2072:1 2810:1 2892:1 2927:1 3171:1 3248:1 5072:1 5850:1 6949:1 6950:1 6951:1 6952:1 6953:1 
0.003527563097020049 15:1 69:1 136:1 262:1 264:1 290:1 435:1 476:1 806:1 873:1 874:1 1074:1 1337:1 2183:1 2743:1 2814:1 3084:1 3361:1 4113:1 5712:1 6954:1 6955:1 6956:1 6957:1 6958:1 6959:1 6960:1 6961:1 6962:1 
0.06416098761688949 11:1 13:1 14:1 42:1 44:1 85:1 116:1 135:1 136:1 175:1 319:1 512:1 865:1 1145:1 1398:1 1486:1 1498:1 1772:1 1901:1 3366:1 5588:1 6972:1 6973:1 6974:1 6975:1 
0.08826062093556451 38:1 66:1 102:1 129:1 136:1 196:1 198:1 242:1 287:1 288:1 340:1 354:1 395:1 434:1 505:1 577:1 668:1 842:1 875:1 876:1 987:1 1405:1 1672:1 1901:1 2563:1 2707:1 2811:1 3513:1 3919:1 4294:1 4495:1 5461:1 5624:1 6007:1 6982:1 6983:1 6984:1 6985:1 6986:1 6987:1 6988:1 6989:1 6990:1 6991:1 6992:1 6993:1 
0.1464429114637107 38:1 47:1 110:1 136:1 149:1 163:1 170:1 242:1 252:1 278:1 300:1 357:1 465:1 467:1 655:1 661:1 816:1 824:1 966:1 1077:1 1085:1 1191:1 1205:1 1729:1 1750:1 1770:1 2065:1 2948:1 3098:1 3206:1 3534:1 3688:1 4257:1 5221:1 5440:1 6379:1 7019:1 7020:1 7021:1 7022:1 
0.2778769463323499 14:1 355:1 376:1 429:1 464:1 1384:1 1828:1 7056:1 
0.01903733154193513 38:1 48:1 49:1 50:1 51:1 85:1 112:1 198:1 723:1 1327:1 1542:1 1799:1 1902:1 2617:1 3780:1 4683:1 7082:1 7083:1 7084:1 7085:1 
0.2882014303804892 14:1 16:1 69:1 109:1 129:1 169:1 288:1 465:1 512:1 661:1 876:1 1194:1 1780:1 1955:1 2560:1 7091:1 
0.05309890978329308 12:1 44:1 67:1 69:1 188:1 196:1 202:1 290:1 319:1 334:1 347:1 352:1 390:1 395:1 411:1 474:1 476:1 477:1 693:1 746:1 752:1 756:1 763:1 793:1 818:1 924:1 995:1 1010:1 1073:1 1504:1 1518:1 1910:1 1941:1 2012:1 2065:1 2080:1 2344:1 2583:1 2707:1 2824:1 2988:1 3072:1 3154:1 3621:1 4117:1 4119:1 4448:1 5456:1 5871:1 6725:1 7026:1 7102:1 7103:1 7104:1 7105:1 7106:1 7107:1 7108:1 7109:1 7110:1 7111:1 
0.08920212716335321 14:1 69:1 106:1 182:1 197:1 355:1 476:1 1056:1 1190:1 1751:1 1981:1 3517:1 3798:1 6443:1 7197:1 7198:1 7199:1 7200:1 7201:1 7202:1 
0.06035874504995352 18:1 21:1 38:1 40:1 44:1 67:1 69:1 71:1 109:1 184:1 196:1 243:1 334:1 336:1 345:1 395:1 429:1 430:1 431:1 436:1 437:1 470:1 504:1 621:1 668:1 705:1 739:1 752:1 753:1 836:1 842:1 846:1 880:1 883:1 921:1 1024:1 1041:1 1057:1 1246:1 1446:1 1765:1 1840:1 2100:1 2101:1 2699:1 2967:1 3335:1 3345:1 3594:1 3804:1 3918:1 4285:1 4532:1 4592:1 5218:1 7156:1 7232:1 7233:1 7234:1 7235:1 7236:1 7237:1 7238:1 7239:1 
0.1413066967377888 42:1 66:1 85:1 102:1 110:1 196:1 228:1 288:1 340:1 455:1 562:1 574:1 896:1 1137:1 1285:1 1339:1 1608:1 1948:1 2762:1 3507:1 4247:1 4694:1 4837:1 7261:1 7262:1 7263:1 7264:1 
0.03615899100077141 14:1 98:1 129:1 134:1 136:1 137:1 216:1 222:1 249:1 386:1 473:1 1770:1 2065:1 2699:1 3537:1 4024:1 
0.0008784385189557887 40:1 59:1 105:1 156:1 186:1 264:1 398:1 428:1 447:1 500:1 512:1 846:1 1135:1 1692:1 2145:1 4075:1 7273:1 7274:1 7275:1 
0.1630326927809178 38:1 44:1 69:1 85:1 105:1 128:1 129:1 137:1 196:1 316:1 395:1 434:1 474:1 529:1 563:1 668:1 824:1 885:1 896:1 936:1 974:1 1135:1 2103:1 2160:1 2467:1 4462:1 7282:1 
0.02662819784770835 49:1 50:1 136:1 542:1 1593:1 1595:1 1597:1 1598:1 2259:1 2261:1 2266:1 2271:1 5264:1 5269:1 5273:1 5282:1 5283:1 5284:1 5290:1 5298:1 5302:1 6028:1 6029:1 6295:1 6516:1 6521:1 7308:1 7309:1 7310:1 7311:1 7312:1 7313:1 7314:1 7315:1 7316:1 7317:1 7318:1 7319:1 7320:1 7321:1 7322:1 7323:1 7324:1 7325:1 7326:1 7327:1 7328:1 7329:1 7330:1 7331:1 7332:1 7333:1 7334:1 7335:1 7336:1 7337:1 7338:1 
0.2166740321865734 5964:1 7355:1 7356:1 7357:1 7358:1 7359:1 7360:1 7361:1 
0.0004439086734695105 2:1 14:1 163:1 184:1 365:1 376:1 411:1 464:1 562:1 713:1 873:1 1673:1 3863:1 4694:1 6325:1 6595:1 7366:1 7367:1 7368:1 7369:1 7370:1 7371:1 7372:1 7373:1 7374:1 7375:1 
0.02198649987757968 12:1 20:1 29:1 32:1 40:1 46:1 61:1 67:1 85:1 86:1 92:1 94:1 95:1 109:1 110:1 111:1 150:1 168:1 184:1 191:1 196:1 198:1 245:1 249:1 252:1 304:1 335:1 340:1 345:1 348:1 350:1 391:1 415:1 441:1 467:1 469:1 474:1 492:1 497:1 511:1 515:1 542:1 594:1 644:1 670:1 671:1 676:1 714:1 720:1 746:1 751:1 818:1 838:1 875:1 876:1 883:1 894:1 902:1 921:1 932:1 940:1 1078:1 1235:1 1236:1 1239:1 1337:1 1341:1 1378:1 1414:1 1490:1 1521:1 1523:1 1549:1 1576:1 1599:1 1602:1 1603:1 1663:1 1745:1 1753:1 1770:1 1772:1 1940:1 1946:1 1998:1 2106:1 2271:1 2299:1 2469:1 2484:1 2578:1 2807:1 2814:1 2846:1 2871:1 3066:1 3067:1 3101:1 3115:1 3141:1 3265:1 3353:1 3619:1 4186:1 4394:1 4713:1 4768:1 4834:1 4918:1 5005:1 5074:1 5283:1 5302:1 5385:1 5485:1 5540:1 5651:1 5827:1 5919:1 6041:1 6288:1 6638:1 6713:1 6724:1 7285:1 7314:1 7340:1 7418:1 7419:1 7420:1 7421:1 7422:1 7423:1 7424:1 7425:1 7426:1 7427:1 7428:1 7429:1 7430:1 7431:1 7432:1 7433:1 7434:1 7435:1 7436:1 7437:1 7438:1 7439:1 7440:1 7441:1 7442:1 7443:1 7444:1 7445:1 7446:1 7447:1 7448:1 7449:1 7450:1 7451:1 7452:1 7453:1 7454:1 7455:1 7456:1 7457:1 7458:1 7459:1 7460:1 7461:1 7462:1 7463:1 7464:1 7465:1 7466:1 7467:1 7468:1 7469:1 7470:1 
0.1049538008455093 42:1 67:1 136:1 138:1 196:1 200:1 288:1 436:1 467:1 507:1 909:1 957:1 977:1 1085:1 1351:1 1410:1 1765:1 1924:1 1931:1 2069:1 2233:1 2461:1 2583:1 2676:1 3194:1 3372:1 3444:1 4143:1 4463:1 
0.06722836267849515 9:1 38:1 47:1 69:1 98:1 152:1 166:1 201:1 338:1 614:1 676:1 748:1 1149:1 1689:1 1870:1 2552:1 2710:1 2734:1 4238:1 6072:1 7488:1 7489:1 7490:1 7491:1 7492:1 7493:1 
0.2910979349761255 42:1 44:1 67:1 169:1 336:1 512:1 715:1 765:1 937:1 1077:1 1670:1 2161:1 2945:1 7504:1 7505:1 
0.3644492758605704 70:1 105:1 163:1 166:1 170:1 178:1 198:1 242:1 354:1 528:1 562:1 612:1 668:1 679:1 3248:1 3427:1 6704:1 7256:1 7541:1 7542:1 7543:1 
0.0175067274833089 42:1 69:1 134:1 135:1 136:1 144:1 149:1 200:1 242:1 459:1 507:1 562:1 789:1 1077:1 1256:1 1261:1 1901:1 1917:1 2637:1 3110:1 6948:1 7570:1 7571:1 7572:1 7573:1 7574:1 7575:1 7576:1 7577:1 7578:1 7579:1 7580:1 7581:1 7582:1 
0.397910639703033 7:1 48:1 49:1 50:1 170:1 178:1 197:1 262:1 612:1 654:1 658:1 712:1 1010:1 1218:1 1290:1 1318:1 2058:1 2180:1 3451:1 
0.01416589792654268 50:1 542:1 1593:1 1597:1 1598:1 1603:1 2105:1 2106:1 2107:1 2259:1 2263:1 2266:1 2271:1 2273:1 2338:1 3878:1 4325:1 5264:1 5267:1 5273:1 5274:1 5286:1 5290:1 5298:1 5302:1 5309:1 6029:1 6295:1 7326:1 7329:1 7333:1 7334:1 7466:1 7468:1 7598:1 7599:1 7600:1 7601:1 7602:1 7603:1 7604:1 7605:1 7606:1 7607:1 7608:1 7609:1 7610:1 7611:1 7612:1 7613:1 7614:1 7615:1 7616:1 7617:1 7618:1 7619:1 7620:1 7621:1 7622:1 7623:1 7624:1 7625:1 7626:1 7627:1 7628:1 7629:1 7630:1 7631:1 7632:1 7633:1 7634:1 7635:1 7636:1 7637:1 7638:1 7639:1 7640:1 7641:1 7642:1 7643:1 7644:1 7645:1 7646:1 7647:1 7648:1 7649:1 7650:1 7651:1 7652:1 7653:1 7654:1 7655:1 7656:1 7657:1 7658:1 7659:1 7660:1 7661:1 7662:1 7663:1 7664:1 7665:1 7666:1 7667:1 7668:1 7669:1 7670:1 7671:1 7672:1 7673:1 7674:1 7675:1 7676:1 7677:1 7678:1 7679:1 7680:1 7681:1 7682:1 
0.01256958087056666 427:1 1723:1 2406:1 2783:1 3647:1 3649:1 3650:1 4666:1 4707:1 7250:1 7739:1 7740:1 7741:1 7742:1 7743:1 7744:1 7745:1 7746:1 7747:1 
0.00862410308310152 134:1 149:1 278:1 287:1 465:1 513:1 722:1 1197:1 1276:1 2517:1 3181:1 3567:1 7748:1 7749:1 7750:1 7751:1 
0.00344426806700799 2:1 15:1 42:1 128:1 512:1 705:1 793:1 885:1 922:1 5611:1 6083:1 7769:1 7770:1 
0.09406461648362602 15:1 38:1 69:1 134:1 136:1 163:1 211:1 305:1 345:1 562:1 778:1 847:1 1697:1 1901:1 3689:1 7793:1 7794:1 7795:1 7796:1 
0.02139045939546809 1:1 2:1 38:1 112:1 136:1 146:1 150:1 336:1 342:1 387:1 512:1 515:1 652:1 712:1 874:1 954:1 1059:1 1531:1 1924:1 2959:1 2969:1 3428:1 7800:1 
0.01051632290980747 38:1 95:1 103:1 110:1 111:1 166:1 227:1 287:1 436:1 459:1 482:1 510:1 645:1 846:1 1339:1 1353:1 1841:1 1928:1 2322:1 2608:1 2892:1 3742:1 4527:1 7836:1 7837:1 7838:1 
0.01169210299153932 12:1 44:1 47:1 136:1 152:1 278:1 285:1 287:1 355:1 467:1 476:1 641:1 672:1 722:1 846:1 917:1 1174:1 1261:1 1619:1 2613:1 2689:1 4991:1 5342:1 5383:1 7713:1 7853:1 7854:1 7855:1 7856:1 7857:1 
0.2831549683892195 33:1 202:1 226:1 262:1 288:1 305:1 519:1 846:1 863:1 1211:1 1754:1 1931:1 7861:1 7862:1 7863:1 7864:1 
0.04400216438519897 7:1 81:1 251:1 345:1 453:1 787:1 882:1 1475:1 2000:1 2001:1 4573:1 7422:1 7423:1 7880:1 7881:1 7882:1 7883:1 7884:1 7885:1 7886:1 7887:1 
0.1768102814710937 131:1 589:1 671:1 716:1 912:1 915:1 1261:1 1508:1 1589:1 1765:1 2960:1 3598:1 4275:1 4626:1 6747:1 7904:1 7905:1 7906:1 7907:1 7908:1 
0.002944164199667223 2:1 12:1 38:1 40:1 95:1 134:1 164:1 251:1 355:1 382:1 435:1 438:1 497:1 609:1 712:1 724:1 750:1 792:1 824:1 864:1 971:1 1273:1 1405:1 1775:1 1966:1 2020:1 2247:1 2751:1 2920:1 2941:1 3128:1 3291:1 3910:1 4905:1 6049:1 6248:1 6694:1 7833:1 7912:1 7913:1 7914:1 7915:1 7916:1 7917:1 7918:1 7919:1 7920:1 7921:1 7922:1 7923:1 7924:1 7925:1 7926:1 7927:1 7928:1 7929:1 
0.001476442716869285 1:1 103:1 159:1 404:1 1073:1 2410:1 3474:1 6257:1 6694:1 7946:1 7947:1 7948:1 7949:1 7950:1 7951:1 7952:1 
0.01397607995883191 69:1 102:1 136:1 252:1 262:1 290:1 305:1 447:1 457:1 621:1 654:1 712:1 1077:1 1222:1 1353:1 1364:1 1368:1 1682:1 1964:1 1966:1 2286:1 2613:1 3164:1 4204:1 4221:1 4671:1 4907:1 5671:1 5882:1 6327:1 6818:1 7242:1 7826:1 7994:1 7995:1 7996:1 7997:1 7998:1 
0.1137447557734184 69:1 91:1 150:1 338:1 422:1 439:1 458:1 567:1 793:1 952:1 1021:1 1455:1 1783:1 2308:1 2923:1 3929:1 4325:1 4400:1 5920:1 6391:1 7565:1 7999:1 8000:1 8001:1 8002:1 8003:1 
0.007119901539118914 11:1 15:1 103:1 105:1 168:1 242:1 278:1 336:1 478:1 479:1 610:1 1089:1 1531:1 1543:1 1590:1 2219:1 4023:1 4465:1 6041:1 7720:1 8014:1 8015:1 8016:1 8017:1 8018:1 8019:1 8020:1 8021:1 
0.3736295121081503 98:1 126:1 243:1 395:1 435:1 436:1 512:1 636:1 865:1 1071:1 1345:1 1373:1 1697:1 1781:1 2161:1 3851:1 6929:1 8029:1 8030:1 8031:1 8032:1 8033:1 
0.04046862619132233 42:1 67:1 92:1 94:1 112:1 169:1 196:1 198:1 256:1 565:1 638:1 753:1 1353:1 1508:1 1588:1 1909:1 4234:1 4923:1 5073:1 5809:1 5813:1 6345:1 7274:1 8097:1 8098:1 8099:1 8100:1 8101:1 
0.1946895947633145 12:1 67:1 134:1 154:1 198:1 465:1 736:1 1138:1 1872:1 2403:1 2433:1 2471:1 2537:1 2543:1 2613:1 2689:1 2699:1 3444:1 4119:1 4463:1 6304:1 8102:1 8103:1 8104:1 8105:1 8106:1 
0.106156660186855 12:1 61:1 129:1 134:1 249:1 251:1 382:1 391:1 402:1 484:1 512:1 669:1 894:1 954:1 1026:1 1077:1 1259:1 1876:1 2052:1 2195:1 2200:1 2588:1 5187:1 6049:1 7403:1 7924:1 8111:1 8112:1 8113:1 8114:1 8115:1 8116:1 8117:1 8118:1 8119:1 8120:1 8121:1 8122:1 8123:1 8124:1 
0.7012358766211579 86:1 103:1 110:1 136:1 242:1 334:1 354:1 431:1 495:1 528:1 741:1 1010:1 8141:1 
0.1187614362098563 15:1 38:1 61:1 102:1 138:1 172:1 211:1 596:1 988:1 1554:1 1897:1 8167:1 8168:1 
0.1013548121526369 16:1 92:1 128:1 228:1 1148:1 1255:1 2215:1 6710:1 7546:1 7550:1 8213:1 8214:1 8215:1 8216:1 8217:1 
0.383360347810939 42:1 91:1 170:1 340:1 474:1 574:1 739:1 1170:1 1191:1 3699:1 5065:1 8230:1 
0.03900227966113455 427:1 3647:1 3649:1 3650:1 3651:1 8231:1 
0.1013671925950931 28:1 38:1 39:1 42:1 69:1 103:1 110:1 126:1 184:1 217:1 222:1 227:1 242:1 262:1 305:1 345:1 348:1 350:1 367:1 434:1 464:1 621:1 714:1 723:1 755:1 818:1 875:1 922:1 990:1 1062:1 1132:1 1190:1 1236:1 1357:1 1440:1 1692:1 1848:1 2072:1 2775:1 3050:1 3156:1 4383:1 5149:1 6658:1 7696:1 8272:1 8273:1 8274:1 8275:1 8276:1 8277:1 8278:1 8279:1 8280:1 8281:1 8282:1 8283:1 8284:1 8285:1 8286:1 8287:1 8288:1 
0.06390878815178465 262:1 387:1 677:1 865:1 1371:1 1808:1 2065:1 2469:1 2648:1 6999:1 7229:1 7431:1 8317:1 8318:1 8319:1 
0.1195280854474985 27:1 28:1 48:1 49:1 50:1 51:1 54:1 66:1 69:1 98:1 109:1 114:1 134:1 137:1 138:1 163:1 166:1 196:1 347:1 368:1 438:1 464:1 712:1 818:1 1068:1 1554:1 1744:1 1920:1 2580:1 4370:1 5204:1 8351:1 8352:1 8353:1 8354:1 
0.03174495327253127 38:1 85:1 110:1 134:1 184:1 287:1 319:1 436:1 484:1 842:1 885:1 896:1 1010:1 1357:1 1744:1 2193:1 2718:1 3786:1 8364:1 8365:1 8366:1 8367:1 
0.04812969665917339 14:1 28:1 54:1 69:1 85:1 103:1 105:1 109:1 129:1 130:1 178:1 229:1 264:1 287:1 340:1 341:1 347:1 418:1 448:1 875:1 1098:1 1734:1 2590:1 2750:1 2930:1 3011:1 4319:1 5861:1 8391:1 
0.127626234689447 44:1 66:1 70:1 114:1 133:1 178:1 187:1 339:1 355:1 465:1 474:1 476:1 723:1 740:1 921:1 1134:1 1671:1 2583:1 2892:1 3415:1 8398:1 8399:1 
0.1022227373862764 14:1 61:1 69:1 103:1 242:1 249:1 252:1 289:1 350:1 376:1 377:1 388:1 465:1 476:1 664:1 711:1 867:1 896:1 1032:1 1071:1 1339:1 2613:1 2721:1 2811:1 5218:1 5372:1 5844:1 7184:1 8241:1 8417:1 8418:1 8419:1 
0.2775346573992118 15:1 21:1 135:1 136:1 172:1 249:1 418:1 515:1 528:1 1808:1 2310:1 2776:1 3514:1 3634:1 3867:1 4974:1 
0.1901483832964952 38:1 95:1 188:1 215:1 249:1 318:1 445:1 474:1 734:1 919:1 1113:1 1117:1 1190:1 1271:1 6711:1 7902:1 8452:1 8453:1 
0.0118305035089035 7:1 12:1 38:1 44:1 69:1 97:1 110:1 149:1 200:1 246:1 339:1 347:1 434:1 455:1 723:1 752:1 821:1 842:1 883:1 946:1 1302:1 1533:1 1671:1 1688:1 1737:1 1916:1 3022:1 5162:1 8461:1 8462:1 8463:1 
0.1383402109436849 14:1 33:1 39:1 40:1 138:1 230:1 256:1 265:1 436:1 528:1 612:1 875:1 1165:1 1271:1 1339:1 2006:1 2196:1 2252:1 3117:1 3534:1 4328:1 6341:1 7045:1 7383:1 8094:1 8464:1 8465:1 8466:1 8467:1 8468:1 8469:1 8470:1 8471:1 8472:1 8473:1 
0.01178106332765905 20:1 38:1 69:1 110:1 112:1 184:1 191:1 196:1 204:1 316:1 336:1 340:1 345:1 350:1 355:1 448:1 465:1 476:1 502:1 516:1 539:1 562:1 676:1 809:1 834:1 842:1 861:1 1095:1 1312:1 1337:1 1373:1 1441:1 1480:1 1531:1 1533:1 1568:1 1702:1 1732:1 1835:1 2006:1 2113:1 2168:1 2185:1 2257:1 2258:1 2469:1 2470:1 2499:1 2539:1 2564:1 2657:1 2784:1 2824:1 3021:1 3026:1 3100:1 3169:1 3305:1 3369:1 3459:1 3495:1 3500:1 3600:1 4240:1 4262:1 4419:1 4792:1 5016:1 5221:1 5877:1 6210:1 6269:1 6919:1 7029:1 7210:1 7250:1 7980:1 8308:1 8565:1 8669:1 8670:1 8671:1 8672:1 8673:1 8674:1 8675:1 8676:1 8677:1 8678:1 8679:1 8680:1 8681:1 8682:1 8683:1 8684:1 8685:1 8686:1 8687:1 8688:1 
0.0483549598323778 7:1 105:1 127:1 161:1 243:1 350:1 510:1 528:1 712:1 838:1 842:1 861:1 871:1 946:1 987:1 1073:1 1339:1 1455:1 1588:1 1789:1 1903:1 1967:1 2043:1 2132:1 2167:1 2653:1 3047:1 4462:1 5143:1 5461:1 6862:1 7250:1 8689:1 8690:1 8691:1 8692:1 8693:1 8694:1 8695:1 8696:1 8697:1 8698:1 8699:1 8700:1 8701:1 8702:1 
0.07868667066182648 66:1 86:1 98:1 105:1 134:1 169:1 182:1 188:1 196:1 201:1 264:1 287:1 296:1 305:1 347:1 476:1 846:1 940:1 1031:1 1117:1 1132:1 1978:1 3022:1 6257:1 8745:1 
0.3500751392109921 9:1 97:1 395:1 672:1 696:1 716:1 2299:1 2824:1 2923:1 3052:1 3330:1 4128:1 7188:1 8319:1 
0.06831974406494117 9:1 15:1 16:1 20:1 66:1 85:1 170:1 228:1 242:1 341:1 464:1 473:1 474:1 568:1 612:1 842:1 883:1 1129:1 2058:1 2150:1 2598:1 2755:1 2946:1 3471:1 4772:1 8778:1 8779:1 
0.03595823136765952 14:1 69:1 126:1 398:1 450:1 458:1 478:1 479:1 491:1 544:1 603:1 612:1 729:1 745:1 824:1 1424:1 1446:1 1532:1 1660:1 1753:1 2165:1 2964:1 5361:1 7120:1 8027:1 8800:1 8801:1 8802:1 8803:1 
0.0394019287680339 16:1 38:1 69:1 77:1 85:1 95:1 157:1 164:1 177:1 300:1 338:1 474:1 588:1 633:1 747:1 772:1 917:1 1023:1 1076:1 1099:1 1153:1 1361:1 1460:1 1692:1 1890:1 2021:1 2145:1 2172:1 2622:1 2701:1 2923:1 2940:1 3295:1 3585:1 4639:1 5019:1 6108:1 8811:1 8812:1 8813:1 8814:1 8815:1 8816:1 8817:1 
0.09100599862104565 12:1 69:1 200:1 248:1 262:1 386:1 465:1 476:1 581:1 670:1 671:1 680:1 842:1 885:1 1211:1 1344:1 1531:1 1909:1 2101:1 3100:1 3105:1 3396:1 5128:1 8950:1 8951:1 8952:1 8953:1 8954:1 8955:1 
0.2155747557073586 69:1 104:1 129:1 339:1 340:1 432:1 459:1 511:1 712:1 911:1 1010:1 1025:1 1993:1 3063:1 5051:1 5390:1 8956:1 8957:1 8958:1 8959:1 
0.005623636518652219 1594:1 1595:1 1596:1 1597:1 1598:1 2259:1 2266:1 2268:1 4747:1 5264:1 5273:1 5296:1 5300:1 5302:1 5309:1 5310:1 5539:1 5718:1 6029:1 7148:1 7334:1 7610:1 7622:1 7658:1 9058:1 9059:1 9060:1 9061:1 9062:1 9063:1 9064:1 9065:1 9066:1 9067:1 9068:1 9069:1 
0.08193119710818983 14:1 25:1 94:1 98:1 126:1 149:1 164:1 170:1 196:1 237:1 245:1 246:1 262:1 290:1 319:1 320:1 337:1 355:1 440:1 668:1 693:1 738:1 1032:1 1073:1 1144:1 1178:1 1554:1 1672:1 1810:1 1883:1 2007:1 2072:1 2079:1 2200:1 2202:1 2380:1 2724:1 2753:1 2974:1 3269:1 4088:1 4245:1 4923:1 5185:1 5324:1 5755:1 8051:1 9089:1 9090:1 9091:1 9092:1 9093:1 9094:1 9095:1 9096:1 9097:1 9098:1 9099:1 9100:1 
0.3192944804631623 29:1 38:1 54:1 98:1 146:1 162:1 166:1 170:1 198:1 354:1 373:1 436:1 449:1 528:1 818:1 931:1 971:1 1199:1 1271:1 1670:1 1758:1 2068:1 2448:1 4729:1 4989:1 5106:1 7921:1 8473:1 8569:1 9119:1 9120:1 9121:1 
0.05660944890884139 95:1 112:1 249:1 418:1 452:1 745:1 821:1 867:1 875:1 936:1 953:1 982:1 1648:1 2088:1 2207:1 3004:1 4370:1 6418:1 9167:1 9168:1 9169:1 9170:1 9171:1 9172:1 
0.0208460343604117 12:1 15:1 20:1 128:1 154:1 182:1 188:1 196:1 288:1 296:1 338:1 366:1 379:1 476:1 515:1 522:1 542:1 562:1 700:1 869:1 876:1 939:1 982:1 984:1 992:1 1025:1 1076:1 1135:1 1149:1 1334:1 1453:1 1455:1 1533:1 1543:1 1825:1 1834:1 1898:1 1996:1 2064:1 2192:1 2196:1 3247:1 3513:1 3918:1 3958:1 4283:1 4511:1 4531:1 4647:1 5073:1 5218:1 5714:1 8181:1 8423:1 9185:1 9186:1 9187:1 9188:1 9189:1 9190:1 9191:1 9192:1 9193:1 9194:1 9195:1 9196:1 9197:1 9198:1 9199:1 9200:1 9201:1 9202:1 9203:1 9204:1 9205:1 9206:1 9207:1 9208:1 9209:1 9210:1 9211:1 9212:1 9213:1 9214:1 
0.07224402023804376 69:1 98:1 262:1 264:1 287:1 296:1 388:1 449:1 643:1 929:1 1178:1 1252:1 2947:1 3222:1 3245:1 3908:1 7572:1 8228:1 9221:1 
0.3239656787135561 14:1 30:1 33:1 52:1 163:1 197:1 262:1 432:1 1013:1 1337:1 2161:1 2724:1 5116:1 7793:1 8592:1 9270:1 9271:1 9272:1 
0.2729715877477347 85:1 136:1 230:1 335:1 436:1 581:1 816:1 1259:1 4140:1 5359:1 5498:1 5977:1 6114:1 9280:1 
0.2243683587806543 38:1 69:1 134:1 136:1 160:1 249:1 334:1 413:1 472:1 544:1 645:1 942:1 1361:1 2052:1 2348:1 2724:1 2899:1 5897:1 7396:1 9285:1 9286:1 9287:1 9288:1 
0.250106867699581 80:1 97:1 348:1 395:1 411:1 415:1 439:1 450:1 464:1 867:1 1007:1 2468:1 2707:1 3216:1 4609:1 9295:1 9296:1 9297:1 
0.4597756184795949 55:1 56:1 163:1 168:1 379:1 3269:1 9029:1 9311:1 
0.03050114828599218 69:1 134:1 149:1 278:1 296:1 397:1 413:1 444:1 474:1 915:1 1079:1 1261:1 1330:1 3551:1 3889:1 4640:1 7269:1 8133:1 9319:1 9320:1 9321:1 9322:1 9323:1 9324:1 
0.06846940920156248 14:1 48:1 49:1 50:1 105:1 129:1 149:1 166:1 177:1 184:1 194:1 262:1 459:1 474:1 476:1 516:1 605:1 712:1 747:1 909:1 1462:1 1517:1 1733:1 1809:1 2352:1 2365:1 3141:1 3451:1 3482:1 6446:1 7329:1 9352:1 9353:1 9354:1 9355:1 9356:1 9357:1 
0.08740520679537207 14:1 38:1 42:1 54:1 55:1 75:1 89:1 98:1 103:1 104:1 134:1 136:1 138:1 156:1 296:1 297:1 340:1 343:1 476:1 479:1 542:1 700:1 793:1 966:1 1108:1 1339:1 1783:1 1946:1 1979:1 2065:1 2081:1 2584:1 2612:1 2782:1 2871:1 2940:1 3254:1 4205:1 4431:1 4448:1 5390:1 5604:1 6262:1 6390:1 6907:1 7387:1 9379:1 9380:1 9381:1 9382:1 
0.0701816476148277 38:1 58:1 61:1 69:1 95:1 129:1 163:1 169:1 198:1 229:1 249:1 359:1 406:1 408:1 424:1 450:1 459:1 516:1 567:1 577:1 683:1 792:1 865:1 983:1 1073:1 1285:1 1751:1 1966:1 1991:1 2093:1 2842:1 2894:1 3209:1 3243:1 3278:1 3397:1 4825:1 5682:1 6392:1 7595:1 7852:1 8849:1 9420:1 9421:1 9422:1 9423:1 9424:1 9425:1 9426:1 9427:1 9428:1 9429:1 9430:1 9431:1 9432:1 9433:1 9434:1 9435:1 9436:1 9437:1 9438:1 9439:1 9440:1 
0.1425957856353464 134:1 175:1 517:1 1714:1 2531:1 2947:1 3598:1 5407:1 8823:1 9443:1 9444:1 9445:1 9446:1 9447:1 
0.04225703429796802 14:1 38:1 44:1 61:1 136:1 146:1 161:1 166:1 170:1 186:1 196:1 211:1 216:1 246:1 249:1 377:1 379:1 478:1 479:1 515:1 538:1 542:1 567:1 614:1 680:1 712:1 755:1 806:1 875:1 876:1 1010:1 1190:1 1199:1 1205:1 1353:1 1386:1 1405:1 1903:1 2927:1 3500:1 4274:1 4674:1 5374:1 6199:1 9521:1 9522:1 9523:1 9524:1 9525:1 9526:1 9527:1 9528:1 9529:1 
0.5474034359424405 114:1 248:1 534:1 896:1 940:1 1021:1 1150:1 1235:1 1851:1 1926:1 3097:1 3538:1 3910:1 9538:1 
0.1792194807393878 105:1 289:1 434:1 612:1 655:1 700:1 842:1 883:1 985:1 1190:1 2743:1 9555:1 9556:1 9557:1 9558:1 
0.005489205429796355 66:1 136:1 149:1 249:1 481:1 617:1 647:1 705:1 1032:1 1244:1 1339:1 1946:1 2243:1 2444:1 4128:1 6566:1 8076:1 9569:1 9570:1 9571:1 9572:1 9573:1 9574:1 9575:1 9576:1 9577:1 9578:1 
0.103201693348935 14:1 85:1 136:1 149:1 160:1 290:1 347:1 373:1 562:1 567:1 1010:1 1086:1 1132:1 1244:1 1284:1 1379:1 1453:1 1848:1 1901:1 2192:1 2631:1 3057:1 3844:1 4128:1 7708:1 9582:1 9583:1 9584:1 9585:1 9586:1 9587:1 9588:1 9589:1 
0.09085462164469206 136:1 148:1 198:1 287:1 464:1 574:1 644:1 1001:1 1122:1 1144:1 1182:1 1530:1 2558:1 2559:1 4111:1 4125:1 6822:1 7539:1 8725:1 9621:1 
0.00551926361006322 7:1 31:1 44:1 69:1 85:1 102:1 110:1 270:1 290:1 334:1 347:1 434:1 436:1 441:1 467:1 476:1 650:1 1181:1 1273:1 1438:1 1588:1 1735:1 2497:1 3674:1 4086:1 5634:1 7696:1 9627:1 9628:1 9629:1 
0.1053459160692535 21:1 94:1 107:1 110:1 136:1 150:1 296:1 305:1 350:1 473:1 538:1 677:1 700:1 739:1 842:1 876:1 1025:1 1027:1 1089:1 1135:1 1208:1 1312:1 1486:1 1567:1 1922:1 2021:1 2080:1 2192:1 2704:1 2824:1 2923:1 2974:1 3010:1 3025:1 3229:1 4128:1 4281:1 4322:1 4789:1 7538:1 9690:1 9691:1 9692:1 9693:1 9694:1 9695:1 9696:1 
0.2944720158846259 21:1 47:1 134:1 565:1 679:1 723:1 753:1 1115:1 1557:1 2449:1 2460:1 3073:1 6404:1 9699:1 
0.005775439504024678 2:1 7:1 95:1 98:1 105:1 112:1 242:1 340:1 345:1 404:1 422:1 448:1 465:1 752:1 884:1 957:1 1455:1 1845:1 1855:1 1872:1 2513:1 2722:1 5336:1 9718:1 9719:1 9720:1 9721:1 
1.823635893973008 9969:1 
0.0134267631585461 15:1 29:1 38:1 44:1 97:1 103:1 134:1 163:1 227:1 290:1 347:1 398:1 894:1 942:1 1084:1 1116:1 1212:1 1373:1 1392:1 1733:1 2549:1 2554:1 2930:1 3026:1 4128:1 4419:1 4483:1 4654:1 5162:1 5358:1 6551:1 8530:1 8823:1 9970:1 9971:1 9972:1 9973:1 9974:1 9975:1 9976:1 
0.1139722394047237 182:1 354:1 355:1 367:1 444:1 515:1 821:1 867:1 1025:1 1118:1 1287:1 1751:1 2018:1 2060:1 2156:1 2685:1 3888:1 4143:1 10010:1 
0.06850753056022384 202:1 287:1 290:1 391:1 519:1 542:1 633:1 723:1 1353:1 3556:1 7864:1 8196:1 10011:1 10012:1 10013:1 10014:1 10015:1 10016:1 10017:1 
0.1286202007299357 14:1 38:1 135:1 136:1 149:1 170:1 242:1 342:1 367:1 729:1 842:1 1091:1 2200:1 2310:1 2662:1 2842:1 2987:1 3598:1 3825:1 6758:1 10018:1 10019:1 10020:1 
0.006071545857766193 14:1 38:1 67:1 103:1 134:1 160:1 177:1 287:1 538:1 544:1 645:1 846:1 853:1 865:1 873:1 896:1 1456:1 1841:1 2823:1 2940:1 2943:1 3286:1 3372:1 3902:1 7906:1 8429:1 8919:1 9130:1 10046:1 10047:1 10048:1 
0.2404909381880619 12:1 14:1 85:1 98:1 175:1 197:1 343:1 363:1 418:1 465:1 723:1 806:1 1337:1 2389:1 6962:1 8635:1 10057:1 10058:1 10059:1 10060:1 
0.02804683584834113 69:1 127:1 166:1 169:1 201:1 339:1 464:1 516:1 723:1 1134:1 1284:1 1770:1 2606:1 2823:1 3012:1 4463:1 4839:1 4851:1 6566:1 9755:1 10083:1 10084:1 
2.285618819365098 14:1 112:1 175:1 448:1 
0.01930589759002801 7:1 38:1 73:1 98:1 136:1 146:1 169:1 184:1 334:1 405:1 652:1 751:1 885:1 896:1 957:1 1085:1 1456:1 2332:1 6178:1 9811:1 10141:1 
0.102078331680981 5:1 61:1 146:1 196:1 262:1 343:1 474:1 627:1 714:1 983:1 1750:1 1857:1 1871:1 1899:1 1946:1 2274:1 2748:1 3495:1 3750:1 4053:1 4469:1 4816:1 7768:1 10154:1 10155:1 
0.06085182015606977 67:1 69:1 103:1 136:1 144:1 160:1 175:1 200:1 290:1 340:1 395:1 557:1 661:1 676:1 702:1 818:1 875:1 971:1 1077:1 1194:1 1774:1 2135:1 2374:1 2513:1 3216:1 3806:1 4674:1 5063:1 5567:1 5614:1 5615:1 6112:1 8081:1 9361:1 10204:1 10205:1 10206:1 
0.08325916237835462 6:1 44:1 47:1 134:1 170:1 173:1 198:1 290:1 361:1 474:1 476:1 669:1 712:1 833:1 922:1 1000:1 1753:1 2020:1 2374:1 2621:1 3090:1 3356:1 5113:1 5401:1 10236:1 10237:1 
0.0222667717822651 69:1 149:1 201:1 340:1 505:1 589:1 818:1 898:1 1134:1 1809:1 2277:1 2475:1 3618:1 4103:1 4162:1 10259:1 10260:1 
0.005230985730645445 2:1 106:1 136:1 464:1 502:1 1319:1 2059:1 3317:1 4378:1 4509:1 6336:1 10288:1 10289:1 10290:1 10291:1 
0.2343358726052722 44:1 136:1 175:1 249:1 447:1 819:1 1068:1 2321:1 2892:1 5511:1 7047:1 
0.02729685130460468 15:1 16:1 20:1 44:1 69:1 134:1 136:1 198:1 216:1 252:1 289:1 297:1 317:1 353:1 398:1 450:1 478:1 479:1 511:1 512:1 544:1 610:1 729:1 1032:1 1373:1 1387:1 1608:1 1785:1 3342:1 5045:1 7995:1 8969:1 10319:1 10398:1 10399:1 10400:1 10401:1 
0.02368201789731855 12:1 44:1 85:1 97:1 110:1 136:1 148:1 162:1 170:1 184:1 198:1 204:1 230:1 296:1 364:1 381:1 382:1 387:1 395:1 464:1 476:1 497:1 557:1 563:1 612:1 668:1 676:1 702:1 720:1 750:1 793:1 846:1 865:1 871:1 872:1 896:1 977:1 1025:1 1108:1 1235:1 1259:1 1353:1 1532:1 1533:1 1729:1 1759:1 1770:1 1787:1 1788:1 1929:1 1935:1 2080:1 2167:1 2460:1 2603:1 2754:1 2756:1 2871:1 2933:1 2992:1 3067:1 3070:1 3100:1 3351:1 3861:1 3918:1 4021:1 4196:1 4654:1 4851:1 5986:1 6041:1 6749:1 7107:1 7451:1 7743:1 7746:1 8240:1 10402:1 10403:1 10404:1 10405:1 10406:1 10407:1 10408:1 10409:1 10410:1 10411:1 10412:1 10413:1 10414:1 10415:1 10416:1 10417:1 10418:1 10419:1 10420:1 10421:1 10422:1 10423:1 10424:1 10425:1 10426:1 10427:1 10428:1 
0.09032739291481681 20:1 52:1 67:1 92:1 110:1 113:1 146:1 368:1 388:1 455:1 473:1 476:1 477:1 519:1 872:1 1071:1 1367:1 1983:1 1993:1 2192:1 2543:1 4923:1 7536:1 7797:1 8758:1 10429:1 10430:1 
0.02952926765703607 61:1 103:1 129:1 175:1 198:1 341:1 465:1 661:1 985:1 1496:1 5591:1 7176:1 10470:1 
0.516983969858508 7:1 66:1 149:1 169:1 196:1 251:1 287:1 432:1 512:1 538:1 569:1 882:1 1293:1 1530:1 2612:1 3812:1 5185:1 
0.03750814342224634 6:1 15:1 91:1 92:1 105:1 166:1 296:1 335:1 670:1 671:1 739:1 802:1 842:1 888:1 1227:1 1235:1 1455:1 1508:1 1736:1 1822:1 1898:1 2007:1 2072:1 2317:1 2342:1 2682:1 2700:1 2707:1 3346:1 3554:1 4187:1 4237:1 5581:1 5842:1 6825:1 6826:1 6827:1 6828:1 7357:1 7977:1 9038:1 10515:1 10516:1 10517:1 10518:1 10519:1 10520:1 10521:1 10522:1 10523:1 10524:1 10525:1 10526:1 
0.01820206011015031 11:1 44:1 86:1 196:1 198:1 300:1 319:1 324:1 405:1 510:1 584:1 714:1 867:1 890:1 902:1 941:1 1025:1 1027:1 1078:1 1273:1 1403:1 1672:1 1732:1 2716:1 3684:1 4465:1 4956:1 5769:1 7929:1 8337:1 9009:1 10527:1 10528:1 10529:1 10530:1 10531:1 10532:1 10533:1 
0.01158932159307888 66:1 129:1 134:1 175:1 262:1 289:1 413:1 562:1 628:1 693:1 788:1 821:1 936:1 1285:1 1351:1 1536:1 1809:1 4797:1 7396:1 8799:1 8927:1 10534:1 10535:1 10536:1 10537:1 10538:1 10539:1 10540:1 10541:1 10542:1 10543:1 
0.05441595623552545 12:1 14:1 38:1 61:1 136:1 175:1 198:1 262:1 287:1 354:1 382:1 450:1 562:1 750:1 846:1 873:1 874:1 875:1 1133:1 1205:1 1398:1 1901:1 1946:1 2101:1 2400:1 2710:1 5681:1 6608:1 8076:1 10552:1 10553:1 
0.2114796038413641 15:1 102:1 114:1 297:1 328:1 361:1 395:1 672:1 676:1 835:1 887:1 1071:1 1128:1 1190:1 1239:1 1941:1 2021:1 2572:1 3834:1 4315:1 4540:1 4666:1 5495:1 6209:1 7166:1 7858:1 8104:1 8551:1 9428:1 10554:1 
0.0852155706147356 379:1 427:1 589:1 1023:1 1108:1 3647:1 3649:1 10555:1 10556:1 
0.3691829553035436 61:1 134:1 170:1 173:1 382:1 396:1 474:1 875:1 896:1 1169:1 1542:1 2512:1 2828:1 3780:1 7259:1 10469:1 10557:1 10558:1 
0.09553243117704625 6:1 12:1 44:1 66:1 102:1 128:1 134:1 136:1 139:1 149:1 163:1 164:1 169:1 197:1 217:1 338:1 340:1 368:1 376:1 439:1 538:1 542:1 655:1 714:1 821:1 885:1 992:1 1319:1 1344:1 1455:1 1536:1 1692:1 1740:1 1901:1 2405:1 2445:1 2599:1 2748:1 2777:1 3257:1 3835:1 3839:1 4542:1 6000:1 6642:1 6991:1 7233:1 7239:1 9408:1 10178:1 10568:1 10569:1 10570:1 10571:1 10572:1 10573:1 10574:1 10575:1 10576:1 10577:1 10578:1 10579:1 10580:1 10581:1 
0.2793497348996348 42:1 44:1 169:1 202:1 296:1 436:1 869:1 989:1 1345:1 1531:1 1593:1 1619:1 2081:1 2974:1 3229:1 3910:1 10605:1 
0.4696054239749044 7:1 12:1 14:1 33:1 67:1 69:1 130:1 136:1 196:1 230:1 388:1 392:1 434:1 436:1 528:1 824:1 842:1 875:1 979:1 1073:1 1077:1 1485:1 1508:1 1549:1 5951:1 6927:1 10617:1 10618:1 10619:1 
0.05370548828893518 12:1 30:1 38:1 44:1 81:1 98:1 128:1 170:1 177:1 183:1 338:1 398:1 436:1 474:1 504:1 612:1 712:1 842:1 843:1 894:1 1059:1 1144:1 1146:1 1429:1 1532:1 1796:1 1916:1 2160:1 2449:1 2855:1 5065:1 7031:1 8265:1 9580:1 10622:1 10623:1 10624:1 10625:1 10626:1 10627:1 10628:1 
0.06258946063538397 7:1 38:1 48:1 49:1 50:1 61:1 69:1 103:1 105:1 163:1 175:1 288:1 290:1 334:1 391:1 395:1 474:1 528:1 723:1 816:1 842:1 1073:1 1134:1 1192:1 1194:1 1315:1 1416:1 1460:1 1754:1 1920:1 2062:1 2337:1 2824:1 3451:1 3733:1 9077:1 9477:1 9736:1 10654:1 10655:1 
0.07133861335565131 66:1 262:1 284:1 388:1 436:1 577:1 700:1 751:1 842:1 885:1 1531:1 1591:1 1657:1 1802:1 2655:1 2958:1 2959:1 4028:1 4276:1 4471:1 8986:1 9568:1 10665:1 10666:1 
0.0128142991205014 12:1 34:1 38:1 66:1 85:1 98:1 115:1 126:1 134:1 146:1 154:1 160:1 164:1 166:1 169:1 170:1 184:1 186:1 188:1 194:1 196:1 246:1 252:1 422:1 450:1 465:1 476:1 516:1 563:1 612:1 654:1 661:1 700:1 806:1 811:1 846:1 885:1 979:1 1032:1 1059:1 1121:1 1149:1 1255:1 1420:1 1517:1 1554:1 1814:1 1828:1 2101:1 2275:1 2357:1 2563:1 2650:1 3474:1 3687:1 3996:1 4352:1 5173:1 5888:1 7405:1 8953:1 10313:1 10462:1 10687:1 10688:1 10689:1 10690:1 10691:1 10692:1 10693:1 10694:1 10695:1 10696:1 10697:1 10698:1 10699:1 10700:1 10701:1 
0.2926531309866245 38:1 77:1 110:1 164:1 249:1 474:1 475:1 736:1 1192:1 1798:1 1810:1 2160:1 2518:1 10747:1 10748:1 
0.003658312117452355 40:1 69:1 169:1 178:1 334:1 340:1 343:1 495:1 555:1 742:1 743:1 1010:1 1165:1 1290:1 1316:1 1518:1 1556:1 1733:1 1751:1 1827:1 1887:1 1951:1 1996:1 2517:1 2600:1 2990:1 3370:1 4195:1 4277:1 4371:1 6121:1 9687:1 9871:1 10751:1 10752:1 10753:1 10754:1 10755:1 10756:1 
0.2222109981970899 15:1 102:1 170:1 196:1 436:1 478:1 479:1 512:1 544:1 683:1 806:1 2628:1 2878:1 3048:1 4804:1 10788:1 10789:1 
0.0237774056390075 134:1 752:1 1028:1 1362:1 1374:1 1434:1 1922:1 2049:1 2338:1 2679:1 10808:1 10809:1 10810:1 10811:1 
0.115264858664791 98:1 104:1 105:1 170:1 211:1 262:1 289:1 305:1 319:1 478:1 479:1 512:1 562:1 612:1 655:1 712:1 713:1 767:1 954:1 1750:1 2389:1 2874:1 2964:1 3081:1 4726:1 8690:1 10610:1 
0.2911882987685026 14:1 44:1 114:1 193:1 227:1 346:1 672:1 763:1 1480:1 1722:1 1750:1 1910:1 2405:1 3450:1 7382:1 10821:1 
0.1126413619266406 128:1 196:1 502:1 2421:1 2594:1 2756:1 3345:1 4839:1 5487:1 9627:1 10834:1 
0.001569042541742093 12:1 61:1 66:1 69:1 128:1 129:1 134:1 135:1 136:1 169:1 170:1 186:1 188:1 197:1 227:1 242:1 243:1 252:1 262:1 473:1 476:1 478:1 479:1 507:1 562:1 666:1 712:1 723:1 739:1 747:1 1025:1 1051:1 1127:1 1420:1 1499:1 1508:1 1556:1 1685:1 1750:1 1821:1 1946:1 2031:1 2142:1 2194:1 3026:1 3911:1 3913:1 4004:1 4419:1 5358:1 5986:1 7235:1 7725:1 9227:1 10887:1 10888:1 10889:1 10890:1 10891:1 10892:1 10893:1 10894:1 
0.05549164691444039 40:1 69:1 77:1 85:1 114:1 278:1 588:1 594:1 821:1 1257:1 2790:1 4923:1 8817:1 9719:1 10492:1 10910:1 10911:1 10912:1 10913:1 10914:1 
0.06851280036831466 29:1 54:1 103:1 163:1 164:1 197:1 198:1 334:1 464:1 465:1 723:1 755:1 803:1 821:1 982:1 1010:1 1169:1 2174:1 2547:1 3256:1 3798:1 5878:1 8308:1 10253:1 10548:1 10922:1 10923:1 10924:1 10925:1 
0.06151554137416452 15:1 66:1 92:1 148:1 150:1 196:1 198:1 287:1 340:1 348:1 367:1 422:1 957:1 987:1 1192:1 1261:1 1386:1 1455:1 1496:1 1570:1 1909:1 1933:1 1940:1 2161:1 3990:1 4336:1 4415:1 6011:1 9727:1 10391:1 10971:1 10972:1 10973:1 10974:1 10975:1 10976:1 
0.3323027584267605 12:1 38:1 42:1 188:1 224:1 467:1 788:1 816:1 836:1 876:1 1101:1 1192:1 1453:1 2065:1 2076:1 2192:1 2974:1 3353:1 3565:1 4119:1 4526:1 6286:1 8614:1 9885:1 10984:1 
0.01317933969261923 15:1 38:1 66:1 69:1 93:1 105:1 110:1 111:1 128:1 177:1 224:1 262:1 305:1 355:1 436:1 474:1 478:1 479:1 513:1 573:1 746:1 797:1 838:1 969:1 974:1 996:1 1025:1 1084:1 1114:1 1380:1 1455:1 1496:1 1538:1 1752:1 1816:1 1899:1 1909:1 2613:1 3025:1 4462:1 4568:1 5102:1 5661:1 6250:1 6272:1 6736:1 8765:1 9428:1 10957:1 10985:1 10986:1 10987:1 10988:1 10989:1 10990:1 10991:1 10992:1 10993:1 10994:1 10995:1 10996:1 
0.07594470884189475 12:1 94:1 134:1 146:1 149:1 166:1 227:1 289:1 432:1 465:1 474:1 484:1 538:1 596:1 602:1 668:1 723:1 743:1 942:1 1146:1 1178:1 2197:1 2997:1 3826:1 4506:1 4959:1 11014:1 
0.07964692528836426 12:1 16:1 69:1 188:1 197:1 198:1 228:1 474:1 512:1 821:1 1326:1 2969:1 3721:1 10010:1 11015:1 11016:1 11017:1 
0.2613755348277298 14:1 52:1 112:1 149:1 231:1 251:1 287:1 379:1 382:1 465:1 629:1 821:1 1074:1 1144:1 1221:1 1353:1 2088:1 2424:1 2522:1 3037:1 3742:1 4680:1 
0.02784365387102687 7:1 44:1 243:1 262:1 399:1 417:1 434:1 677:1 885:1 982:1 3232:1 3835:1 6991:1 7835:1 11063:1 11064:1 
0.09961919139300668 7:1 102:1 181:1 188:1 229:1 338:1 347:1 476:1 478:1 479:1 534:1 538:1 672:1 714:1 940:1 972:1 985:1 1285:1 1304:1 1373:1 1475:1 1487:1 1946:1 1955:1 4087:1 9038:1 11083:1 
0.008034270200092215 14:1 73:1 105:1 111:1 129:1 149:1 168:1 196:1 242:1 253:1 343:1 516:1 617:1 641:1 652:1 902:1 1034:1 1631:1 1710:1 1723:1 1809:1 2789:1 3382:1 3413:1 4818:1 4834:1 5342:1 5348:1 5445:1 7065:1 7066:1 7140:1 7404:1 11084:1 11085:1 11086:1 11087:1 11088:1 11089:1 11090:1 11091:1 11092:1 11093:1 11094:1 11095:1 11096:1 11097:1 
0.2680841496736359 11:1 61:1 69:1 103:1 173:1 183:1 197:1 201:1 305:1 337:1 354:1 373:1 664:1 846:1 875:1 928:1 954:1 988:1 1029:1 1169:1 1199:1 1315:1 1362:1 2361:1 2469:1 2581:1 2652:1 3391:1 4349:1 8167:1 11129:1 11130:1 11131:1 
0.006858203987916504 14:1 29:1 38:1 44:1 103:1 105:1 348:1 387:1 391:1 486:1 519:1 859:1 865:1 932:1 1108:1 1547:1 1946:1 2006:1 2092:1 3446:1 3766:1 4503:1 5888:1 6433:1 8382:1 8851:1 10531:1 11132:1 11133:1 11134:1 11135:1 11136:1 11137:1 11138:1 11139:1 11140:1 11141:1 11142:1 11143:1 11144:1 
0.01189845820258628 12:1 47:1 77:1 81:1 134:1 321:1 398:1 402:1 465:1 467:1 661:1 679:1 686:1 843:1 1244:1 1248:1 1274:1 2434:1 4122:1 4458:1 8423:1 11166:1 11167:1 11168:1 11169:1 
0.01863078406143375 44:1 85:1 126:1 434:1 467:1 555:1 612:1 762:1 846:1 1211:1 2255:1 3335:1 11170:1 11171:1 
0.1702384974877655 7:1 44:1 110:1 134:1 152:1 264:1 340:1 425:1 438:1 562:1 818:1 2065:1 2477:1 11218:1 
0.05036565225066896 11:1 14:1 29:1 38:1 94:1 98:1 175:1 349:1 404:1 418:1 541:1 542:1 714:1 739:1 809:1 835:1 862:1 867:1 920:1 995:1 1035:1 1339:1 1455:1 1681:1 2181:1 2342:1 2871:1 2872:1 3688:1 5037:1 10232:1 10476:1 11202:1 11222:1 11223:1 11224:1 11225:1 11226:1 11227:1 11228:1 11229:1 11230:1 11231:1 11232:1 11233:1 11234:1 11235:1 
0.9522335637781835 20:1 305:1 355:1 842:1 876:1 880:1 934:1 976:1 1518:1 1917:1 4242:1 5128:1 5582:1 11265:1 
0.1716196075878269 11:1 128:1 242:1 476:1 502:1 763:1 811:1 869:1 885:1 1261:1 1495:1 1508:1 1656:1 1750:1 2543:1 2875:1 2923:1 2988:1 3023:1 
0.0566439820388484 44:1 94:1 134:1 136:1 184:1 229:1 340:1 392:1 395:1 396:1 397:1 502:1 542:1 668:1 714:1 821:1 826:1 873:1 885:1 1079:1 1133:1 1180:1 1919:1 2058:1 2088:1 2493:1 2893:1 2933:1 3375:1 6544:1 6737:1 7184:1 7762:1 11048:1 11308:1 11309:1 11310:1 
0.01463639431682408 7:1 38:1 40:1 44:1 69:1 72:1 136:1 138:1 163:1 193:1 229:1 317:1 347:1 355:1 398:1 474:1 489:1 490:1 500:1 654:1 693:1 763:1 812:1 842:1 875:1 1071:1 1116:1 1151:1 1205:1 1344:1 1657:1 1981:1 3272:1 4349:1 4654:1 5092:1 5475:1 6725:1 11354:1 11355:1 11356:1 11357:1 11358:1 
0.0515666954693581 103:1 444:1 518:1 563:1 683:1 741:1 789:1 1257:1 1344:1 1536:1 1917:1 3389:1 4219:1 7782:1 8832:1 9086:1 9831:1 11391:1 11392:1 11393:1 11394:1 11395:1 11396:1 11397:1 
0.3750814388444384 69:1 97:1 227:1 278:1 289:1 348:1 502:1 1013:1 1751:1 3996:1 4135:1 4521:1 4541:1 5475:1 7382:1 9217:1 
0.02943915929794771 29:1 38:1 66:1 69:1 107:1 136:1 137:1 169:1 186:1 202:1 339:1 340:1 866:1 976:1 1261:1 1339:1 1714:1 1850:1 1851:1 2149:1 2824:1 3428:1 3538:1 3541:1 5878:1 5906:1 6728:1 9166:1 11406:1 
0.07299424266059172 103:1 215:1 229:1 340:1 355:1 538:1 583:1 652:1 777:1 862:1 928:1 1788:1 1851:1 2149:1 2580:1 3342:1 3538:1 3642:1 11445:1 11446:1 11447:1 11448:1 
0.1119587740258813 7:1 15:1 16:1 54:1 98:1 175:1 196:1 226:1 278:1 516:1 532:1 569:1 661:1 702:1 917:1 1008:1 1032:1 1236:1 2052:1 2197:1 2335:1 3553:1 4076:1 4145:1 5121:1 5810:1 7128:1 11454:1 11455:1 
0.4022629186042845 91:1 110:1 395:1 481:1 729:1 742:1 747:1 749:1 1293:1 2069:1 2180:1 2213:1 2564:1 2734:1 2762:1 3305:1 3825:1 4371:1 6082:1 6301:1 6499:1 9031:1 11460:1 11461:1 11462:1 11463:1 11464:1 11465:1 
0.2688891968667789 7:1 15:1 16:1 69:1 262:1 438:1 644:1 713:1 949:1 1359:1 2161:1 2689:1 2891:1 3242:1 3908:1 5374:1 11466:1 11467:1 
0.3451788793637432 376:1 863:1 953:1 2746:1 4693:1 4696:1 7428:1 10636:1 11483:1 11484:1 
0.07739901404944424 38:1 44:1 61:1 69:1 105:1 111:1 112:1 134:1 163:1 391:1 415:1 702:1 914:1 941:1 1110:1 1543:1 1652:1 2005:1 2086:1 2406:1 3044:1 3091:1 4989:1 5595:1 7902:1 8355:1 8520:1 11485:1 11486:1 11487:1 
0.06879112387797336 65:1 80:1 105:1 135:1 249:1 354:1 419:1 510:1 515:1 875:1 1373:1 1909:1 2065:1 2633:1 4145:1 4473:1 5015:1 5218:1 5323:1 5324:1 5802:1 6068:1 6313:1 10706:1 11232:1 11427:1 11496:1 11497:1 
0.06297335439347861 54:1 105:1 149:1 188:1 203:1 297:1 349:1 465:1 661:1 714:1 792:1 953:1 995:1 1008:1 1138:1 1151:1 1236:1 1729:1 2595:1 2609:1 2892:1 2923:1 3422:1 4251:1 4252:1 5986:1 6468:1 8270:1 8293:1 9122:1 
0.0971949837305701 15:1 136:1 248:1 289:1 319:1 334:1 336:1 340:1 476:1 477:1 583:1 714:1 1398:1 1531:1 1579:1 1590:1 3010:1 3731:1 3873:1 4023:1 
0.07392732062973918 14:1 69:1 85:1 114:1 167:1 170:1 182:1 196:1 288:1 290:1 296:1 305:1 319:1 339:1 355:1 436:1 467:1 480:1 538:1 633:1 724:1 765:1 986:1 1028:1 1192:1 1477:1 1917:1 1946:1 2012:1 2039:1 2448:1 2449:1 3230:1 3544:1 4128:1 4349:1 4768:1 5848:1 5865:1 10481:1 11554:1 11555:1 11556:1 11557:1 11558:1 11559:1 
0.1299374833659748 14:1 44:1 69:1 305:1 434:1 476:1 876:1 1363:1 1444:1 2774:1 2829:1 2913:1 3371:1 3578:1 5187:1 9579:1 10913:1 11570:1 11571:1 11572:1 11573:1 11574:1 11575:1 11576:1 11577:1 
0.08540018146507532 38:1 53:1 69:1 200:1 354:1 572:1 871:1 872:1 1284:1 1353:1 1652:1 1821:1 2241:1 2595:1 4164:1 4798:1 6690:1 9538:1 11594:1 11595:1 11596:1 
0.04009110293048 27:1 52:1 175:1 354:1 395:1 448:1 528:1 583:1 1122:1 1138:1 1306:1 1735:1 2069:1 2123:1 2542:1 2563:1 2667:1 4038:1 5833:1 6258:1 6762:1 8959:1 10311:1 11020:1 11608:1 11609:1 11610:1 11611:1 11612:1 
0.1586232578493638 427:1 1732:1 1966:1 3647:1 3649:1 3650:1 5012:1 11613:1 11614:1 
0.3264048945912608 220:1 252:1 297:1 361:1 418:1 714:1 875:1 2041:1 3500:1 4298:1 11652:1 11653:1 11654:1 11655:1 
0.1009322356811873 20:1 33:1 42:1 66:1 75:1 80:1 85:1 169:1 196:1 227:1 242:1 355:1 368:1 434:1 792:1 812:1 883:1 1139:1 1239:1 1343:1 1940:1 2081:1 2304:1 2499:1 2566:1 2750:1 2783:1 3070:1 3229:1 5635:1 5755:1 6597:1 6735:1 7243:1 7482:1 11658:1 11659:1 11660:1 11661:1 11662:1 11663:1 11664:1 11665:1 11666:1 11667:1 11668:1 11669:1 11670:1 11671:1 11672:1 11673:1 
0.01269841691367685 12:1 38:1 44:1 52:1 66:1 85:1 92:1 93:1 94:1 111:1 114:1 126:1 136:1 138:1 163:1 182:1 204:1 230:1 252:1 270:1 297:1 345:1 348:1 355:1 388:1 395:1 399:1 402:1 460:1 464:1 476:1 492:1 497:1 502:1 530:1 562:1 580:1 612:1 668:1 714:1 741:1 748:1 753:1 755:1 756:1 867:1 885:1 891:1 896:1 921:1 1021:1 1025:1 1084:1 1101:1 1107:1 1108:1 1191:1 1341:1 1379:1 1405:1 1453:1 1511:1 1517:1 1531:1 1584:1 1586:1 1588:1 1591:1 1629:1 1723:1 1765:1 1945:1 1967:1 2005:1 2017:1 2080:1 2233:1 2278:1 2470:1 2607:1 2879:1 2933:1 2992:1 3050:1 3070:1 3101:1 3229:1 3231:1 3265:1 3266:1 3381:1 3397:1 3413:1 3446:1 3554:1 3803:1 3839:1 3923:1 3954:1 3958:1 3973:1 4009:1 4110:1 4205:1 4285:1 4463:1 4471:1 4832:1 5068:1 5074:1 5101:1 5401:1 5462:1 5495:1 5657:1 5714:1 5761:1 5782:1 5956:1 5966:1 6409:1 6967:1 7069:1 7156:1 7412:1 8980:1 9344:1 9727:1 9836:1 9843:1 10665:1 11142:1 11357:1 11395:1 11411:1 11677:1 11678:1 11679:1 11680:1 11681:1 11682:1 11683:1 11684:1 11685:1 11686:1 11687:1 11688:1 11689:1 11690:1 11691:1 11692:1 11693:1 11694:1 11695:1 11696:1 11697:1 11698:1 11699:1 11700:1 11701:1 11702:1 11703:1 11704:1 11705:1 11706:1 11707:1 11708:1 11709:1 11710:1 
0.009275106594159855 7:1 66:1 69:1 102:1 112:1 135:1 169:1 175:1 188:1 197:1 290:1 398:1 477:1 512:1 746:1 865:1 1085:1 1101:1 1190:1 1517:1 1538:1 1675:1 2196:1 4471:1 4563:1 4828:1 11737:1 
0.2143636378500144 61:1 69:1 85:1 178:1 441:1 454:1 517:1 666:1 747:1 1236:1 1285:1 1368:1 1620:1 1855:1 2476:1 4864:1 11738:1 11739:1 11740:1 
0.05065592278933551 66:1 106:1 110:1 169:1 263:1 264:1 270:1 305:1 345:1 347:1 589:1 655:1 842:1 1518:1 1732:1 2824:1 4217:1 5421:1 6798:1 8565:1 8818:1 10177:1 11746:1 11747:1 11748:1 11749:1 
0.03686465835367451 12:1 61:1 93:1 94:1 95:1 128:1 134:1 766:1 896:1 932:1 957:1 1518:1 1672:1 1897:1 2006:1 2731:1 3252:1 4260:1 4415:1 7340:1 8596:1 11761:1 11762:1 11763:1 11764:1 11765:1 
0.2648737369057123 65:1 136:1 197:1 216:1 305:1 447:1 476:1 497:1 818:1 876:1 1182:1 1190:1 1312:1 1993:1 2100:1 3445:1 5561:1 6693:1 9935:1 
0.04390128436653126 44:1 61:1 69:1 112:1 129:1 146:1 169:1 290:1 448:1 874:1 949:1 954:1 1178:1 1190:1 1261:1 1387:1 1828:1 2835:1 3309:1 4990:1 5527:1 6315:1 11770:1 11771:1 11772:1 11773:1 
0.05871268104150667 7:1 38:1 105:1 110:1 163:1 211:1 390:1 714:1 755:1 766:1 911:1 1010:1 1410:1 2784:1 10350:1 11798:1 
0.8235876470332625 126:1 129:1 188:1 228:1 270:1 287:1 507:1 752:1 867:1 876:1 1137:1 1430:1 1827:1 2007:1 2072:1 2563:1 2965:1 4448:1 5671:1 11803:1 
0.1283822826577511 175:1 405:1 953:1 1344:1 1819:1 1862:1 2829:1 3232:1 4464:1 6471:1 7274:1 7821:1 8274:1 11817:1 11818:1 11819:1 11820:1 11821:1 
0.2818526303133485 38:1 66:1 126:1 131:1 136:1 278:1 284:1 334:1 450:1 465:1 633:1 867:1 1013:1 1197:1 1512:1 1573:1 1873:1 2226:1 2229:1 2230:1 2493:1 2589:1 4237:1 5318:1 6608:1 11833:1 11834:1 
0.2148333309492033 67:1 85:1 161:1 252:1 305:1 439:1 467:1 482:1 896:1 1059:1 1150:1 1191:1 1662:1 1692:1 1870:1 2513:1 2626:1 3629:1 5364:1 8451:1 11848:1 11849:1 
0.1156771183401064 48:1 49:1 50:1 989:1 1229:1 1465:1 2438:1 3028:1 3451:1 3476:1 3884:1 5478:1 5970:1 7858:1 8593:1 10141:1 11865:1 11866:1 11867:1 11868:1 11869:1 11870:1 11871:1 11872:1 
0.339041603015887 38:1 67:1 136:1 175:1 188:1 215:1 339:1 351:1 413:1 476:1 572:1 641:1 714:1 746:1 755:1 819:1 1101:1 1103:1 1134:1 1748:1 2100:1 2661:1 3141:1 5159:1 6846:1 11842:1 11894:1 
0.01940200066168627 7:1 102:1 157:1 196:1 198:1 227:1 382:1 455:1 617:1 720:1 1190:1 1359:1 1981:1 1993:1 2286:1 2288:1 2545:1 2862:1 6289:1 6583:1 11895:1 11896:1 11897:1 
0.06317554200252971 38:1 53:1 54:1 92:1 134:1 137:1 138:1 160:1 200:1 278:1 373:1 436:1 477:1 484:1 495:1 569:1 729:1 739:1 846:1 865:1 867:1 875:1 943:1 1122:1 1180:1 1411:1 1455:1 1516:1 1781:1 1887:1 2064:1 2246:1 2310:1 2401:1 2552:1 2842:1 2979:1 3329:1 4404:1 4557:1 4804:1 5572:1 5804:1 6262:1 6375:1 7684:1 9252:1 11362:1 11937:1 11938:1 11939:1 11940:1 11941:1 11942:1 11943:1 11944:1 
0.05780590132174157 15:1 38:1 92:1 150:1 211:1 474:1 564:1 636:1 652:1 733:1 974:1 1020:1 1110:1 1117:1 1430:1 1602:1 1676:1 2025:1 2789:1 9718:1 11945:1 11946:1 11947:1 
0.01690937458358458 14:1 38:1 40:1 72:1 105:1 112:1 196:1 242:1 289:1 296:1 305:1 340:1 348:1 376:1 476:1 982:1 1076:1 1085:1 1148:1 1190:1 1357:1 1508:1 2189:1 2198:1 3245:1 5086:1 7237:1 7461:1 9158:1 11963:1 11964:1 
0.1213422992633109 61:1 98:1 103:1 106:1 134:1 160:1 178:1 184:1 188:1 228:1 341:1 558:1 875:1 896:1 1230:1 1327:1 1328:1 1697:1 2245:1 3893:1 4394:1 8473:1 
0.01713073849383756 14:1 175:1 305:1 398:1 432:1 513:1 696:1 710:1 729:1 746:1 846:1 942:1 1276:1 1517:1 1631:1 2724:1 3498:1 3964:1 11996:1 11997:1 11998:1 11999:1 12000:1 12001:1 
0.01118820028342963 38:1 44:1 137:1 163:1 182:1 198:1 227:1 229:1 287:1 288:1 296:1 355:1 436:1 451:1 474:1 515:1 746:1 875:1 1068:1 1506:1 2210:1 3472:1 3540:1 3793:1 4681:1 5432:1 8209:1 12002:1 12003:1 12004:1 12005:1 
0.1518537181841937 30:1 61:1 245:1 340:1 398:1 476:1 1013:1 1349:1 8045:1 10828:1 12014:1 12015:1 12016:1 12017:1 12018:1 12019:1 12020:1 
0.118592789826848 109:1 129:1 136:1 163:1 289:1 345:1 355:1 453:1 462:1 515:1 562:1 875:1 882:1 1089:1 2493:1 2854:1 3005:1 3342:1 4337:1 4573:1 5619:1 5956:1 6149:1 6339:1 8392:1 9491:1 12025:1 12026:1 12027:1 
0.04355673271140813 7:1 12:1 44:1 134:1 288:1 338:1 399:1 430:1 762:1 932:1 1135:1 1508:1 1937:1 2100:1 2471:1 2626:1 2779:1 2920:1 3309:1 4694:1 7233:1 11747:1 12061:1 12062:1 12063:1 12064:1 12065:1 
0.08447086210362546 69:1 93:1 105:1 170:1 249:1 252:1 551:1 563:1 627:1 898:1 1682:1 1753:1 1889:1 5888:1 10700:1 
0.1767121663046685 94:1 110:1 270:1 437:1 502:1 538:1 655:1 670:1 671:1 760:1 1128:1 1289:1 1531:1 2871:1 4596:1 12203:1 12307:1 12308:1 
0.09164343725938978 2:1 14:1 129:1 166:1 219:1 249:1 251:1 398:1 473:1 613:1 616:1 873:1 875:1 1501:1 1809:1 1901:1 2049:1 2424:1 3345:1 3628:1 12469:1 12470:1 12471:1 12472:1 12473:1 
0.4698859396685939 85:1 388:1 434:1 492:1 529:1 1110:1 2086:1 3123:1 4161:1 4239:1 10027:1 11691:1 
0.0549225486921384 38:1 54:1 61:1 66:1 69:1 93:1 111:1 136:1 142:1 196:1 334:1 355:1 398:1 419:1 426:1 429:1 434:1 458:1 467:1 476:1 477:1 479:1 542:1 544:1 567:1 580:1 740:1 750:1 824:1 873:1 876:1 915:1 949:1 981:1 1107:1 1108:1 1284:1 1596:1 1787:1 1872:1 1925:1 1957:1 1966:1 2020:1 2119:1 2122:1 2417:1 2855:1 3212:1 3260:1 3265:1 3762:1 3933:1 4367:1 4482:1 4780:1 4850:1 5326:1 5364:1 5412:1 5657:1 5736:1 6225:1 6547:1 6698:1 6811:1 6930:1 7008:1 7195:1 7199:1 7791:1 9149:1 9643:1 12502:1 12503:1 12504:1 12505:1 12506:1 12507:1 12508:1 12509:1 12510:1 12511:1 12512:1 12513:1 12514:1 12515:1 12516:1 12517:1 12518:1 12519:1 12520:1 12521:1 12522:1 
0.06377177305281001 11:1 67:1 85:1 105:1 137:1 182:1 204:1 334:1 355:1 386:1 455:1 511:1 560:1 838:1 881:1 957:1 971:1 1025:1 1353:1 1440:1 1657:1 1946:1 2609:1 2750:1 2799:1 4454:1 4540:1 5461:1 7392:1 10169:1 12548:1 12549:1 12550:1 12551:1 12552:1 12553:1 
0.1871887282627409 69:1 105:1 133:1 134:1 149:1 186:1 242:1 249:1 355:1 397:1 475:1 896:1 1795:1 3725:1 11556:1 12599:1 12600:1 
0.111171654964149 29:1 44:1 47:1 128:1 134:1 163:1 170:1 173:1 242:1 347:1 361:1 474:1 538:1 612:1 729:1 842:1 965:1 1316:1 1339:1 1460:1 2175:1 2602:1 6042:1 7392:1 7894:1 12605:1 12606:1 
0.05369963894045567 52:1 67:1 85:1 305:1 476:1 612:1 789:1 835:1 1257:1 1486:1 2223:1 2580:1 2796:1 3717:1 4703:1 4705:1 5058:1 5288:1 5538:1 7200:1 7404:1 8832:1 10296:1 12632:1 
0.135349875150003 15:1 18:1 42:1 77:1 102:1 131:1 196:1 439:1 528:1 712:1 864:1 1075:1 1192:1 1672:1 2165:1 7493:1 12633:1 
0.3110501031108483 110:1 444:1 574:1 894:1 1076:1 1167:1 1179:1 1388:1 1501:1 2057:1 2941:1 12634:1 
0.08734203413912138 66:1 69:1 107:1 134:1 163:1 164:1 182:1 204:1 341:1 394:1 443:1 538:1 562:1 712:1 873:1 1233:1 1532:1 1774:1 2631:1 3472:1 3910:1 7465:1 12646:1 
0.07982179167761454 14:1 38:1 61:1 116:1 200:1 215:1 216:1 388:1 417:1 476:1 510:1 581:1 723:1 932:1 954:1 1074:1 1077:1 1259:1 1370:1 1702:1 2501:1 3052:1 3728:1 5606:1 5741:1 5951:1 12206:1 12679:1 12680:1 12681:1 
0.02268366189414998 9:1 42:1 61:1 73:1 87:1 97:1 134:1 160:1 170:1 184:1 270:1 289:1 376:1 416:1 459:1 470:1 510:1 565:1 612:1 644:1 768:1 816:1 875:1 896:1 1732:1 1735:1 1967:1 1973:1 2500:1 2724:1 2959:1 3327:1 3366:1 3529:1 5651:1 5850:1 6393:1 6690:1 12682:1 12683:1 
0.05218531527370112 66:1 126:1 157:1 338:1 422:1 434:1 515:1 720:1 865:1 960:1 1059:1 1259:1 1319:1 1381:1 1570:1 1917:1 2448:1 3022:1 3279:1 3513:1 3699:1 3877:1 5415:1 7367:1 9414:1 12724:1 
0.1008763423615997 7:1 67:1 75:1 204:1 361:1 467:1 478:1 479:1 512:1 513:1 644:1 719:1 874:1 1392:1 1663:1 1754:1 6048:1 9411:1 12186:1 12732:1 
0.02732517140970635 69:1 297:1 1816:1 1819:1 2429:1 6021:1 8229:1 11466:1 11573:1 12747:1 12748:1 12749:1 12750:1 12751:1 12752:1 12753:1 12754:1 12755:1 12756:1 
0.1419027372584477 285:1 542:1 1602:1 1603:1 2259:1 2514:1 5283:1 5297:1 5540:1 6295:1 6686:1 7645:1 10820:1 12783:1 12784:1 12785:1 12786:1 12787:1 12788:1 12789:1 12790:1 
0.01498475532085951 12:1 26:1 27:1 29:1 35:1 38:1 39:1 66:1 136:1 182:1 198:1 248:1 287:1 394:1 583:1 617:1 712:1 723:1 755:1 867:1 1508:1 1509:1 1531:1 1591:1 1735:1 2080:1 2148:1 2274:1 2410:1 2613:1 5946:1 6744:1 7835:1 12484:1 12808:1 
0.08526679486263176 14:1 28:1 38:1 69:1 136:1 137:1 290:1 334:1 336:1 349:1 376:1 467:1 474:1 542:1 605:1 702:1 713:1 875:1 945:1 992:1 1856:1 1910:1 2274:1 2997:1 4091:1 4438:1 4560:1 5043:1 7591:1 10904:1 12813:1 12814:1 12815:1 12816:1 12817:1 12818:1 
0.5915026838567176 20:1 305:1 529:1 696:1 865:1 1149:1 1520:1 1656:1 1941:1 4906:1 12823:1 
0.03258366525569161 67:1 93:1 136:1 184:1 288:1 652:1 673:1 888:1 896:1 911:1 1008:1 1177:1 1753:1 1789:1 1848:1 1856:1 1931:1 2992:1 3858:1 8929:1 9315:1 12828:1 12829:1 
0.08999260644370033 102:1 159:1 164:1 170:1 246:1 252:1 273:1 384:1 398:1 422:1 511:1 612:1 806:1 847:1 949:1 995:1 1013:1 1085:1 1105:1 1117:1 1337:1 1588:1 2493:1 2702:1 2820:1 2929:1 3091:1 3132:1 3918:1 4246:1 5054:1 12830:1 12831:1 
0.108844818012528 7:1 38:1 129:1 136:1 175:1 336:1 390:1 563:1 652:1 755:1 885:1 1941:1 2650:1 2784:1 4281:1 6593:1 12914:1 12915:1 
0.003561151710452416 12:1 14:1 15:1 38:1 110:1 297:1 329:1 445:1 489:1 501:1 714:1 894:1 896:1 1010:1 1103:1 1116:1 6967:1 8746:1 
0.1546958735349618 11:1 15:1 20:1 29:1 30:1 40:1 75:1 80:1 92:1 134:1 136:1 146:1 242:1 318:1 354:1 405:1 418:1 419:1 422:1 434:1 522:1 544:1 653:1 675:1 709:1 746:1 752:1 846:1 924:1 1074:1 1077:1 1169:1 1177:1 1508:1 2076:1 2194:1 2419:1 2513:1 3212:1 3293:1 3821:1 3996:1 4194:1 4532:1 6133:1 8731:1 9666:1 9840:1 12945:1 12946:1 12947:1 12948:1 12949:1 12950:1 12951:1 
0.02203009925149679 184:1 319:1 376:1 478:1 510:1 518:1 724:1 841:1 957:1 988:1 1076:1 1178:1 1418:1 3186:1 4222:1 4506:1 10897:1 12023:1 12961:1 
0.04196567322262023 14:1 116:1 440:1 629:1 736:1 821:1 822:1 823:1 1068:1 1369:1 2365:1 2417:1 3592:1 5187:1 7138:1 8145:1 11159:1 12966:1 12967:1 
0.04497371562178788 12:1 69:1 93:1 136:1 242:1 388:1 668:1 686:1 911:1 1025:1 3002:1 5046:1 12976:1 12977:1 12978:1 
0.03391498630645046 12:1 14:1 30:1 67:1 198:1 339:1 391:1 422:1 485:1 511:1 552:1 793:1 846:1 847:1 1031:1 1055:1 1101:1 1517:1 1993:1 2181:1 2320:1 2502:1 2702:1 2891:1 3299:1 4204:1 6289:1 7801:1 9490:1 10016:1 12995:1 12996:1 12997:1 12998:1 12999:1 13000:1 13001:1 13002:1 
0.3285694657602808 2:1 15:1 20:1 29:1 48:1 49:1 50:1 51:1 61:1 136:1 175:1 502:1 812:1 813:1 833:1 865:1 1027:1 1912:1 2059:1 3110:1 3475:1 7340:1 13036:1 
0.03809155021467227 61:1 68:1 95:1 105:1 111:1 131:1 138:1 144:1 170:1 181:1 196:1 201:1 262:1 340:1 346:1 395:1 429:1 436:1 515:1 590:1 596:1 709:1 714:1 793:1 873:1 987:1 1029:1 1092:1 1132:1 1523:1 1552:1 1732:1 1883:1 2304:1 2483:1 2873:1 3226:1 3366:1 3824:1 3863:1 3940:1 4200:1 4704:1 4984:1 5651:1 7357:1 8052:1 8498:1 9411:1 13037:1 13038:1 13039:1 13040:1 13041:1 13042:1 13043:1 
0.01727006123381983 69:1 888:1 953:1 1596:1 1917:1 2320:1 8335:1 13085:1 13086:1 13087:1 13088:1 
0.06887078733490885 29:1 72:1 103:1 105:1 163:1 168:1 334:1 338:1 410:1 411:1 460:1 464:1 467:1 489:1 865:1 885:1 2033:1 4217:1 4218:1 5734:1 10278:1 13115:1 
0.03129267739698512 47:1 92:1 96:1 126:1 215:1 361:1 459:1 516:1 567:1 629:1 791:1 995:1 1045:1 1118:1 1284:1 1508:1 1520:1 3230:1 4155:1 4165:1 5361:1 12128:1 13117:1 13118:1 13119:1 13120:1 13121:1 
0.08168446102684748 15:1 20:1 44:1 85:1 476:1 478:1 479:1 581:1 583:1 1068:1 1170:1 1300:1 1456:1 1764:1 2498:1 2671:1 3130:1 10121:1 11017:1 13132:1 13133:1 
0.004990720998157493 4:1 14:1 61:1 98:1 105:1 112:1 164:1 382:1 395:1 476:1 645:1 1101:1 1190:1 1339:1 1828:1 2517:1 2835:1 4718:1 5104:1 6551:1 7200:1 7816:1 
0.01945878907210944 14:1 15:1 31:1 38:1 42:1 69:1 94:1 105:1 111:1 128:1 134:1 135:1 146:1 175:1 216:1 227:1 242:1 249:1 290:1 305:1 317:1 340:1 344:1 348:1 351:1 367:1 395:1 398:1 434:1 436:1 444:1 445:1 457:1 476:1 512:1 516:1 517:1 552:1 570:1 612:1 693:1 702:1 714:1 723:1 752:1 755:1 873:1 882:1 894:1 896:1 1081:1 1105:1 1244:1 1255:1 1261:1 1338:1 1411:1 1475:1 1530:1 1727:1 1733:1 1764:1 1781:1 1812:1 1848:1 1902:1 2005:1 2121:1 2304:1 2318:1 2340:1 2434:1 2522:1 2707:1 2751:1 2993:1 3030:1 3217:1 3431:1 3671:1 3706:1 3891:1 4119:1 4184:1 4200:1 4309:1 4327:1 4463:1 4519:1 4654:1 4722:1 4992:1 5121:1 5230:1 5588:1 6358:1 7091:1 7976:1 8714:1 9096:1 9385:1 9841:1 9902:1 10353:1 10622:1 10634:1 10859:1 11339:1 11393:1 11966:1 13141:1 13142:1 13143:1 13144:1 13145:1 13146:1 13147:1 13148:1 13149:1 13150:1 13151:1 13152:1 13153:1 13154:1 13155:1 13156:1 13157:1 13158:1 
0.0807660159526727 44:1 97:1 109:1 136:1 184:1 287:1 398:1 542:1 574:1 740:1 896:1 1025:1 1356:1 1698:1 1931:1 1993:1 2781:1 3115:1 3957:1 4038:1 4125:1 5255:1 5919:1 7539:1 10803:1 11941:1 12446:1 13159:1 13160:1 13161:1 13162:1 
0.1327611978051259 16:1 38:1 69:1 138:1 186:1 191:1 201:1 262:1 297:1 317:1 322:1 323:1 429:1 464:1 470:1 557:1 954:1 1190:1 1398:1 1420:1 3799:1 4241:1 13166:1 
0.1900103344932071 102:1 198:1 361:1 367:1 502:1 723:1 867:1 888:1 1405:1 1455:1 1764:1 3397:1 3834:1 4851:1 7042:1 13167:1 13168:1 
0.06917577274477815 66:1 102:1 198:1 248:1 249:1 300:1 395:1 515:1 1018:1 1078:1 1480:1 1803:1 1804:1 1862:1 2241:1 3329:1 10733:1 13184:1 
0.02439672095181671 105:1 191:1 242:1 348:1 368:1 376:1 561:1 570:1 614:1 821:1 830:1 1046:1 1420:1 1441:1 1536:1 1871:1 2099:1 2613:1 3122:1 3343:1 3669:1 3840:1 4032:1 4901:1 8610:1 11173:1 11179:1 13185:1 13186:1 13187:1 13188:1 13189:1 13190:1 
0.1060054364745583 16:1 103:1 136:1 172:1 211:1 335:1 654:1 1098:1 2245:1 2282:1 4317:1 4394:1 5895:1 13191:1 
0.01209638645408092 14:1 29:1 31:1 38:1 136:1 175:1 237:1 249:1 252:1 266:1 291:1 297:1 334:1 344:1 357:1 379:1 402:1 436:1 452:1 476:1 478:1 479:1 511:1 513:1 528:1 573:1 616:1 873:1 982:1 1207:1 1312:1 1411:1 1766:1 1779:1 2830:1 3050:1 3342:1 4560:1 5216:1 5239:1 5309:1 5561:1 6212:1 7885:1 8150:1 9618:1 9961:1 11499:1 11688:1 12059:1 13193:1 13194:1 13195:1 13196:1 13197:1 13198:1 13199:1 
0.1887412410873259 164:1 200:1 467:1 476:1 505:1 784:1 1273:1 1302:1 1508:1 1733:1 1755:1 3309:1 7876:1 9087:1 12886:1 13103:1 13222:1 
0.04044628507049407 14:1 42:1 134:1 135:1 136:1 163:1 262:1 296:1 338:1 700:1 1137:1 1192:1 1346:1 3698:1 6334:1 7476:1 13226:1 13227:1 
0.04479338008002428 427:1 3647:1 3649:1 13230:1 13231:1 13232:1 13233:1 
0.2078840545244975 32:1 85:1 111:1 594:1 1032:1 1191:1 1211:1 1966:1 2076:1 4987:1 6176:1 6574:1 11530:1 13250:1 13251:1 13252:1 13253:1 
0.08078902535076489 30:1 38:1 69:1 138:1 166:1 354:1 875:1 1189:1 1379:1 1523:1 2005:1 2552:1 3226:1 5326:1 8498:1 11094:1 
0.07899117271318597 38:1 69:1 103:1 186:1 204:1 249:1 368:1 467:1 476:1 552:1 563:1 723:1 819:1 1199:1 1488:1 1917:1 2721:1 2959:1 3278:1 4132:1 5609:1 8955:1 9096:1 10895:1 11397:1 13266:1 13267:1 
0.3776690099553834 7:1 52:1 287:1 445:1 474:1 512:1 875:1 2008:1 2612:1 4055:1 13268:1 13269:1 
0.02995092558546631 7:1 14:1 29:1 40:1 69:1 134:1 287:1 344:1 459:1 515:1 519:1 563:1 1119:1 1123:1 2612:1 3245:1 3251:1 3254:1 6104:1 8396:1 8756:1 12832:1 13117:1 13271:1 13272:1 13273:1 13274:1 
0.3727054435001732 21:1 38:1 42:1 186:1 211:1 297:1 510:1 557:1 1246:1 6109:1 7235:1 9252:1 12568:1 
0.05490249293062738 69:1 126:1 150:1 289:1 476:1 477:1 1144:1 2598:1 3513:1 3775:1 12898:1 13337:1 13338:1 13339:1 13340:1 
0.1351061618227328 14:1 85:1 134:1 137:1 138:1 144:1 347:1 484:1 494:1 595:1 1145:1 1593:1 1620:1 2120:1 2322:1 2332:1 3762:1 7577:1 13362:1 13363:1 13364:1 13365:1 
0.08738471431576891 135:1 136:1 166:1 169:1 188:1 196:1 227:1 382:1 402:1 476:1 614:1 709:1 846:1 1077:1 1135:1 1177:1 1501:1 1700:1 1735:1 2322:1 2959:1 4319:1 4371:1 5651:1 7947:1 9916:1 10226:1 11241:1 11797:1 13375:1 13376:1 13377:1 13378:1 13379:1 13380:1 13381:1 13382:1 13383:1 
0.1195108057035505 30:1 32:1 97:1 112:1 126:1 262:1 340:1 448:1 449:1 476:1 700:1 723:1 793:1 1211:1 1381:1 1606:1 1732:1 2275:1 2304:1 2873:1 3172:1 3827:1 6574:1 8473:1 11914:1 13438:1 13439:1 13440:1 
0.0290196812354797 15:1 16:1 20:1 30:1 98:1 102:1 149:1 658:1 895:1 2172:1 3723:1 4128:1 4654:1 5614:1 6190:1 8121:1 10968:1 13450:1 13451:1 13452:1 
0.02040290412314717 14:1 38:1 42:1 136:1 262:1 297:1 474:1 563:1 714:1 755:1 931:1 1098:1 1126:1 1285:1 1460:1 2933:1 4319:1 11516:1 13457:1 
0.2070953151973997 103:1 1704:1 2422:1 
0.2731568358880881 7:1 21:1 29:1 48:1 49:1 50:1 51:1 127:1 150:1 300:1 330:1 336:1 436:1 470:1 700:1 793:1 838:1 1190:1 1543:1 1589:1 1745:1 1917:1 2777:1 3776:1 3834:1 6909:1 8057:1 8600:1 10183:1 13185:1 13472:1 13473:1 13474:1 13475:1 13476:1 13477:1 
0.1009908729391901 14:1 66:1 67:1 91:1 169:1 196:1 204:1 547:1 574:1 712:1 1100:1 1495:1 1890:1 1948:1 4235:1 5116:1 13504:1 
0.1152296966390466 97:1 102:1 134:1 164:1 193:1 476:1 477:1 559:1 565:1 672:1 842:1 876:1 1130:1 1917:1 3444:1 4572:1 7468:1 13514:1 
0.222747308103678 69:1 102:1 305:1 324:1 395:1 583:1 672:1 715:1 885:1 932:1 976:1 1518:1 2393:1 2721:1 3231:1 3443:1 4775:1 13564:1 13565:1 
0.101651757978609 85:1 128:1 188:1 196:1 228:1 242:1 273:1 305:1 474:1 478:1 479:1 742:1 743:1 797:1 1276:1 1903:1 2072:1 2172:1 2214:1 2216:1 3488:1 3762:1 3780:1 5105:1 9323:1 13640:1 13641:1 13642:1 13643:1 13644:1 
0.1505751110051286 15:1 180:1 186:1 300:1 338:1 474:1 478:1 479:1 583:1 714:1 1109:1 1799:1 2021:1 2160:1 2776:1 3325:1 10099:1 10100:1 13653:1 13654:1 13655:1 13656:1 
0.01219518821589633 7:1 8:1 44:1 93:1 137:1 163:1 169:1 184:1 196:1 227:1 229:1 270:1 340:1 359:1 459:1 464:1 740:1 874:1 952:1 1074:1 1149:1 1352:1 1501:1 1557:1 2138:1 2167:1 3050:1 4055:1 4622:1 4639:1 5183:1 5218:1 7481:1 8942:1 11539:1 13034:1 13218:1 13663:1 13664:1 13665:1 13666:1 13667:1 13668:1 13669:1 
0.1111736183693484 30:1 38:1 85:1 102:1 338:1 345:1 429:1 434:1 476:1 591:1 765:1 812:1 1386:1 1946:1 2505:1 3098:1 5074:1 5481:1 13697:1 
0.1989233634719118 15:1 20:1 146:1 296:1 297:1 300:1 340:1 376:1 457:1 476:1 517:1 528:1 867:1 921:1 1351:1 1357:1 1906:1 2005:1 2296:1 2415:1 2426:1 4622:1 5424:1 11670:1 13508:1 13731:1 
0.03177230372824606 7:1 67:1 138:1 182:1 197:1 215:1 243:1 249:1 262:1 290:1 348:1 387:1 473:1 479:1 545:1 574:1 701:1 702:1 712:1 874:1 876:1 1074:1 1120:1 1353:1 1499:1 1669:1 1729:1 2072:1 2167:1 2281:1 2710:1 2798:1 2811:1 3529:1 3532:1 3740:1 3845:1 4050:1 4186:1 4245:1 4506:1 4828:1 5059:1 5064:1 5678:1 7072:1 7364:1 9724:1 13323:1 13734:1 13735:1 
0.04533892188252954 12:1 14:1 42:1 52:1 66:1 67:1 85:1 95:1 169:1 188:1 252:1 296:1 348:1 467:1 476:1 478:1 479:1 513:1 806:1 876:1 932:1 1032:1 1146:1 1295:1 1702:1 2120:1 2676:1 2830:1 2858:1 3547:1 4370:1 4674:1 4734:1 5606:1 12014:1 
0.3911501630130782 52:1 54:1 67:1 85:1 112:1 161:1 175:1 305:1 395:1 429:1 448:1 476:1 589:1 746:1 792:1 806:1 2197:1 2612:1 6657:1 7507:1 13752:1 
0.09154877621340586 15:1 61:1 66:1 110:1 114:1 182:1 287:1 1002:1 2150:1 2648:1 3761:1 13753:1 
0.01492773868601142 12:1 42:1 102:1 110:1 127:1 154:1 196:1 252:1 264:1 288:1 290:1 300:1 376:1 429:1 567:1 752:1 888:1 1068:1 1436:1 1480:1 2513:1 2784:1 3208:1 6227:1 6878:1 7538:1 7816:1 8334:1 13770:1 13771:1 
0.1543406950133043 44:1 262:1 668:1 678:1 752:1 1725:1 2121:1 2545:1 5155:1 13777:1 13778:1 13779:1 13780:1 13781:1 
0.03612013890936647 11:1 114:1 134:1 163:1 168:1 324:1 331:1 502:1 540:1 633:1 705:1 716:1 763:1 803:1 838:1 1487:1 1493:1 2092:1 3020:1 3919:1 13782:1 13783:1 13784:1 
0.07761147889206625 11:1 15:1 16:1 98:1 103:1 138:1 228:1 373:1 662:1 954:1 995:1 1117:1 1231:1 2702:1 2932:1 3397:1 13805:1 
0.05204345778623759 54:1 69:1 136:1 146:1 177:1 186:1 188:1 201:1 354:1 474:1 612:1 705:1 712:1 1023:1 1290:1 1398:1 1750:1 1909:1 2740:1 2930:1 4980:1 5162:1 5636:1 5637:1 7341:1 8347:1 8921:1 9385:1 13817:1 13818:1 13819:1 13820:1 
0.06026645524211317 69:1 106:1 111:1 134:1 170:1 204:1 307:1 319:1 348:1 351:1 352:1 355:1 379:1 459:1 500:1 502:1 562:1 612:1 616:1 911:1 1111:1 1495:1 1516:1 1834:1 1935:1 2071:1 2669:1 3586:1 4647:1 7924:1 8963:1 9197:1 13830:1 13831:1 13832:1 
0.05809897342853353 11:1 21:1 42:1 47:1 66:1 467:1 534:1 559:1 563:1 672:1 720:1 1073:1 1105:1 1252:1 1341:1 2390:1 2772:1 3088:1 3317:1 
0.2070016444632577 42:1 66:1 92:1 114:1 343:1 398:1 502:1 566:1 865:1 1044:1 1137:1 2161:1 2172:1 3067:1 7403:1 8862:1 13878:1 13879:1 13880:1 
0.1059992275471731 86:1 134:1 193:1 686:1 838:1 1047:1 1088:1 1101:1 1249:1 1496:1 1517:1 1656:1 1787:1 2051:1 2064:1 2175:1 2985:1 3021:1 6513:1 9282:1 9899:1 11988:1 13908:1 13909:1 13910:1 13911:1 
0.1691469099280608 61:1 91:1 134:1 164:1 170:1 196:1 287:1 297:1 341:1 476:1 557:1 1117:1 6621:1 7864:1 9375:1 11961:1 13914:1 
0.02472653134398724 52:1 69:1 161:1 222:1 644:1 1501:1 2291:1 2710:1 3238:1 4974:1 11483:1 13918:1 13919:1 
0.1343954192286035 14:1 25:1 38:1 54:1 129:1 243:1 287:1 317:1 337:1 434:1 484:1 614:1 661:1 712:1 971:1 1178:1 1339:1 1357:1 2390:1 2599:1 2824:1 5893:1 7972:1 9431:1 13921:1 
0.05916763416072472 7:1 57:1 136:1 222:1 249:1 340:1 387:1 882:1 896:1 909:1 1411:1 2613:1 3529:1 4111:1 4449:1 11061:1 13922:1 13923:1 
0.0005690085614369234 12:1 61:1 66:1 78:1 106:1 113:1 115:1 136:1 200:1 382:1 388:1 399:1 511:1 741:1 956:1 959:1 1533:1 1753:1 2566:1 2912:1 3369:1 3839:1 4771:1 5859:1 9269:1 10112:1 12438:1 13628:1 13965:1 13966:1 13967:1 13968:1 
0.08625274604325349 98:1 109:1 115:1 252:1 335:1 386:1 387:1 432:1 465:1 966:1 1071:1 1138:1 1225:1 1345:1 1737:1 2178:1 2537:1 3280:1 3314:1 3343:1 4278:1 4805:1 7021:1 8580:1 11611:1 13970:1 
0.0165926541020273 42:1 44:1 188:1 196:1 867:1 1025:1 1233:1 1302:1 1363:1 1398:1 2009:1 2236:1 3230:1 7539:1 8815:1 13977:1 13978:1 13979:1 
0.2269155144500981 73:1 114:1 126:1 137:1 138:1 148:1 151:1 287:1 373:1 450:1 702:1 875:1 1103:1 1180:1 2662:1 3295:1 3853:1 4814:1 5629:1 5895:1 14038:1 14039:1 
0.2247176207531041 14:1 38:1 202:1 222:1 297:1 397:1 474:1 1059:1 1119:1 1420:1 1460:1 1775:1 2200:1 5944:1 7347:1 10439:1 14060:1 
0.03339355339126984 85:1 198:1 262:1 289:1 354:1 464:1 476:1 581:1 983:1 1373:1 1526:1 2079:1 2220:1 3687:1 4017:1 4200:1 4630:1 5543:1 5778:1 5877:1 7132:1 10121:1 14063:1 14064:1 14065:1 14066:1 14067:1 14068:1 14069:1 14070:1 14071:1 
0.01317862239799007 12:1 188:1 196:1 264:1 270:1 305:1 464:1 474:1 515:1 661:1 767:1 921:1 1116:1 1146:1 1716:1 1750:1 1993:1 2824:1 3834:1 5371:1 6460:1 10082:1 14081:1 14082:1 14083:1 
0.09619874592295187 10:1 98:1 511:1 515:1 534:1 565:1 1144:1 1737:1 1787:1 3206:1 3486:1 4165:1 6861:1 7233:1 7431:1 9474:1 12973:1 14086:1 
0.2159001398206153 85:1 172:1 347:1 354:1 511:1 600:1 605:1 652:1 668:1 765:1 940:1 1178:1 1202:1 1357:1 1405:1 1697:1 1901:1 6391:1 7897:1 9106:1 14095:1 
0.1077006006975449 85:1 93:1 136:1 184:1 196:1 215:1 246:1 305:1 355:1 479:1 555:1 652:1 676:1 710:1 746:1 1055:1 1077:1 1149:1 1359:1 1588:1 1619:1 1697:1 1754:1 1759:1 2286:1 4371:1 5339:1 11996:1 14143:1 14144:1 14145:1 
0.0008420505594371132 13:1 66:1 67:1 69:1 98:1 104:1 196:1 228:1 229:1 288:1 289:1 305:1 341:1 395:1 467:1 574:1 644:1 908:1 1025:1 1117:1 1494:1 1608:1 4125:1 9239:1 
0.03872712300670222 136:1 146:1 184:1 246:1 252:1 287:1 290:1 422:1 476:1 483:1 614:1 696:1 702:1 710:1 876:1 1101:1 1620:1 2247:1 2286:1 3964:1 4462:1 4796:1 5052:1 5339:1 5545:1 10147:1 14159:1 14160:1 14161:1 
0.005090560023556925 11:1 102:1 109:1 110:1 134:1 163:1 361:1 368:1 476:1 700:1 811:1 1135:1 1316:1 1319:1 3066:1 3346:1 3478:1 3834:1 4328:1 4656:1 5442:1 5475:1 6382:1 6390:1 7738:1 8622:1 9282:1 9414:1 14162:1 14163:1 14164:1 14165:1 14166:1 14167:1 14168:1 14169:1 14170:1 14171:1 14172:1 14173:1 14174:1 
0.2177009916891018 61:1 67:1 84:1 134:1 136:1 161:1 164:1 478:1 479:1 875:1 909:1 1013:1 1487:1 9512:1 11073:1 12404:1 12770:1 
0.05756283524502138 14:1 18:1 24:1 38:1 39:1 44:1 66:1 91:1 98:1 115:1 135:1 163:1 229:1 340:1 373:1 444:1 465:1 495:1 515:1 570:1 658:1 755:1 819:1 867:1 885:1 888:1 896:1 1010:1 1024:1 1031:1 1225:1 1260:1 1274:1 1353:1 1538:1 1552:1 2157:1 2811:1 2873:1 3202:1 3314:1 3671:1 4404:1 4789:1 8959:1 9384:1 12131:1 12960:1 14184:1 14185:1 14186:1 14187:1 
0.1224196243153703 12:1 14:1 20:1 21:1 29:1 33:1 38:1 40:1 67:1 68:1 69:1 92:1 98:1 102:1 105:1 112:1 113:1 138:1 197:1 204:1 243:1 287:1 290:1 336:1 387:1 395:1 434:1 444:1 448:1 455:1 476:1 492:1 512:1 528:1 562:1 575:1 698:1 747:1 757:1 791:1 793:1 818:1 840:1 864:1 865:1 867:1 971:1 1021:1 1101:1 1137:1 1189:1 1192:1 1202:1 1251:1 1338:1 1362:1 1456:1 1501:1 1505:1 1508:1 1532:1 1556:1 1662:1 1698:1 1754:1 1946:1 1993:1 2005:1 2072:1 2101:1 2247:1 2391:1 2413:1 2429:1 2563:1 2824:1 2955:1 3290:1 3305:1 4006:1 4029:1 4205:1 4246:1 4310:1 4323:1 4618:1 4990:1 6012:1 6313:1 7383:1 7705:1 8075:1 10105:1 10387:1 11049:1 11605:1 12924:1 13102:1 13275:1 14167:1 14265:1 14266:1 14267:1 14268:1 14269:1 14270:1 14271:1 14272:1 14273:1 14274:1 14275:1 14276:1 14277:1 14278:1 14279:1 14280:1 14281:1 14282:1 14283:1 14284:1 
0.008377426471360205 32:1 44:1 69:1 85:1 134:1 354:1 476:1 477:1 551:1 627:1 643:1 1023:1 1118:1 2731:1 3599:1 3851:1 3918:1 5888:1 7138:1 9255:1 9880:1 10254:1 11380:1 14296:1 
0.4200492549556829 243:1 337:1 373:1 434:1 476:1 816:1 875:1 1075:1 1119:1 1828:1 5211:1 6083:1 7229:1 7894:1 14300:1 14301:1 
0.01905682759445954 12:1 16:1 69:1 170:1 173:1 198:1 323:1 341:1 464:1 476:1 484:1 661:1 885:1 989:1 1117:1 1192:1 1320:1 1897:1 2462:1 3385:1 3540:1 3762:1 3983:1 5163:1 11620:1 14310:1 14311:1 
0.1881339005480686 44:1 67:1 105:1 110:1 126:1 149:1 170:1 262:1 405:1 560:1 668:1 757:1 880:1 1017:1 1025:1 1167:1 1353:1 1381:1 1533:1 1750:1 1924:1 2820:1 3258:1 5221:1 9269:1 9274:1 14323:1 14324:1 
0.01580759401376409 135:1 136:1 227:1 376:1 387:1 511:1 655:1 2941:1 3171:1 3699:1 5806:1 6815:1 14343:1 14344:1 
0.1182265441302677 0:1 1:1 14:1 52:1 166:1 204:1 291:1 305:1 334:1 337:1 386:1 391:1 406:1 434:1 439:1 443:1 865:1 869:1 885:1 1077:1 1588:1 1697:1 1897:1 2415:1 2617:1 2722:1 2762:1 3172:1 3556:1 3770:1 4370:1 4920:1 5827:1 6653:1 7031:1 7271:1 8566:1 9185:1 9300:1 10392:1 14267:1 14365:1 
0.04422373151678043 19:1 62:1 105:1 129:1 149:1 187:1 287:1 340:1 376:1 386:1 444:1 464:1 476:1 605:1 779:1 1531:1 2033:1 2064:1 2229:1 2243:1 2246:1 2670:1 2767:1 3212:1 3278:1 4076:1 4369:1 4378:1 4810:1 5145:1 6842:1 6930:1 7887:1 11455:1 13094:1 14397:1 14398:1 14399:1 14400:1 14401:1 
0.1879799784995575 44:1 113:1 164:1 182:1 388:1 395:1 406:1 465:1 816:1 853:1 2390:1 2539:1 2552:1 9822:1 12543:1 14418:1 
0.1455755570740972 114:1 128:1 339:1 519:1 672:1 673:1 714:1 842:1 924:1 1917:1 1918:1 2006:1 2092:1 2531:1 2597:1 5113:1 14422:1 14423:1 14424:1 14425:1 
0.002900807683689344 7:1 14:1 15:1 16:1 34:1 39:1 75:1 130:1 163:1 204:1 324:1 349:1 363:1 406:1 519:1 725:1 836:1 873:1 1496:1 1753:1 1917:1 2079:1 2161:1 2229:1 2590:1 2656:1 2670:1 2709:1 2974:1 3050:1 3540:1 4371:1 4563:1 5297:1 5900:1 8810:1 14435:1 
0.05071280170688479 12:1 14:1 21:1 29:1 38:1 44:1 93:1 129:1 270:1 287:1 361:1 398:1 430:1 455:1 512:1 513:1 563:1 696:1 750:1 789:1 875:1 885:1 888:1 896:1 970:1 1114:1 1145:1 1257:1 1608:1 1743:1 1942:1 2064:1 2119:1 2196:1 2230:1 2289:1 2493:1 2612:1 3212:1 3416:1 3458:1 3513:1 3527:1 4135:1 4820:1 4939:1 5523:1 5561:1 5909:1 5970:1 6186:1 6258:1 7396:1 8157:1 8263:1 14461:1 14462:1 14463:1 14464:1 14465:1 14466:1 14467:1 14468:1 14469:1 14470:1 14471:1 14472:1 14473:1 14474:1 14475:1 14476:1 14477:1 14478:1 14479:1 14480:1 14481:1 
0.02397726336574628 52:1 58:1 61:1 114:1 163:1 168:1 169:1 170:1 182:1 196:1 290:1 464:1 467:1 476:1 567:1 612:1 644:1 645:1 696:1 710:1 715:1 819:1 911:1 1068:1 1663:1 1851:1 2051:1 2286:1 2913:1 3243:1 3302:1 3417:1 3794:1 4214:1 4889:1 4990:1 5383:1 5561:1 5869:1 6545:1 7864:1 8133:1 9496:1 9667:1 9673:1 10473:1 13171:1 14495:1 14496:1 14497:1 14498:1 14499:1 14500:1 14501:1 14502:1 14503:1 14504:1 14505:1 
0.6223564086160913 135:1 1512:1 5027:1 7941:1 
0.1153311780960032 14:1 149:1 297:1 339:1 397:1 467:1 874:1 1109:1 3769:1 5255:1 6578:1 7948:1 14524:1 
0.06370139796685138 20:1 38:1 44:1 85:1 106:1 163:1 842:1 982:1 1083:1 1656:1 1697:1 1810:1 1917:1 1964:1 2278:1 3798:1 6301:1 8265:1 9521:1 
0.1431262941525376 20:1 85:1 97:1 269:1 345:1 352:1 367:1 444:1 563:1 614:1 957:1 1288:1 1562:1 2449:1 2824:1 2920:1 4128:1 6586:1 14531:1 14532:1 
0.0102892082079159 44:1 69:1 134:1 136:1 166:1 170:1 178:1 197:1 227:1 264:1 437:1 438:1 678:1 778:1 779:1 818:1 867:1 1501:1 1887:1 2072:1 2159:1 2180:1 2194:1 2219:1 2433:1 3540:1 3629:1 3689:1 4709:1 5481:1 5836:1 7793:1 7936:1 11912:1 11913:1 14537:1 14538:1 14539:1 14540:1 
0.1058192231421796 7:1 98:1 109:1 234:1 418:1 485:1 874:1 1227:1 1313:1 1848:1 2136:1 2172:1 5614:1 8708:1 9290:1 10323:1 12858:1 14541:1 14542:1 
0.1742247202869791 2:1 15:1 368:1 464:1 574:1 3732:1 14543:1 14544:1 
0.1671746914260693 14:1 85:1 136:1 166:1 354:1 705:1 853:1 2230:1 2781:1 3238:1 3318:1 12595:1 14547:1 14548:1 14549:1 14550:1 14551:1 14552:1 
0.03900227966113462 427:1 3647:1 3649:1 3650:1 3651:1 14570:1 
1.172677125101645 290:1 427:1 1349:1 1357:1 2782:1 14589:1 
0.04744749051893842 191:1 288:1 348:1 411:1 444:1 842:1 1145:1 1353:1 1475:1 1496:1 1877:1 2305:1 3855:1 4532:1 5582:1 14675:1 14676:1 14677:1 14678:1 14679:1 14680:1 14681:1 14682:1 
0.1793434365380378 11:1 38:1 44:1 66:1 77:1 103:1 129:1 175:1 355:1 459:1 465:1 538:1 562:1 621:1 816:1 819:1 861:1 1352:1 1359:1 1405:1 1754:1 2114:1 2122:1 2286:1 3047:1 5352:1 7942:1 10480:1 11709:1 12165:1 14696:1 14697:1 14698:1 
0.297179917830439 12:1 44:1 47:1 69:1 85:1 138:1 187:1 262:1 287:1 324:1 346:1 439:1 505:1 532:1 669:1 672:1 1475:1 2161:1 2291:1 2391:1 2966:1 4832:1 10741:1 11141:1 13407:1 14699:1 14700:1 
0.02242239438664225 44:1 136:1 160:1 163:1 164:1 175:1 184:1 262:1 747:1 867:1 875:1 995:1 2019:1 2522:1 2724:1 2824:1 3353:1 4445:1 4791:1 6085:1 7858:1 8726:1 9629:1 14701:1 14702:1 14703:1 14704:1 14705:1 
0.05826172088830917 38:1 136:1 160:1 163:1 252:1 318:1 1192:1 1227:1 1273:1 1415:1 1844:1 2120:1 2382:1 3513:1 4163:1 4990:1 6751:1 7539:1 7784:1 14728:1 14729:1 14730:1 14731:1 14732:1 14733:1 14734:1 14735:1 
0.03392826926131166 7:1 12:1 42:1 73:1 97:1 98:1 146:1 154:1 243:1 249:1 289:1 345:1 353:1 457:1 473:1 474:1 476:1 573:1 883:1 888:1 957:1 992:1 1131:1 1135:1 1351:1 1379:1 1398:1 1415:1 1501:1 1508:1 1517:1 1520:1 1783:1 1844:1 2345:1 2357:1 2428:1 2724:1 3156:1 5026:1 5456:1 6052:1 7295:1 7701:1 7905:1 8392:1 8967:1 11967:1 13242:1 14747:1 14748:1 14749:1 14750:1 14751:1 14752:1 14753:1 14754:1 
0.09171774801963747 38:1 85:1 103:1 211:1 219:1 324:1 455:1 1744:1 1765:1 2024:1 2100:1 2656:1 2936:1 3272:1 10374:1 11101:1 12918:1 14786:1 14787:1 14788:1 
0.09407256010076602 105:1 128:1 224:1 243:1 319:1 361:1 875:1 1438:1 1511:1 1955:1 2223:1 3923:1 4959:1 5673:1 9360:1 12331:1 13738:1 14791:1 14792:1 
0.09613376959315059 42:1 61:1 68:1 110:1 262:1 334:1 398:1 474:1 495:1 510:1 876:1 1109:1 1115:1 2064:1 2968:1 
0.1086848541490149 20:1 69:1 71:1 102:1 106:1 134:1 164:1 166:1 178:1 196:1 201:1 337:1 364:1 367:1 406:1 422:1 444:1 465:1 467:1 474:1 499:1 562:1 661:1 680:1 713:1 714:1 755:1 842:1 875:1 880:1 883:1 1212:1 1218:1 1423:1 1748:1 1851:1 1876:1 2219:1 2824:1 2913:1 3541:1 5104:1 5218:1 5740:1 6197:1 6808:1 7899:1 9101:1 10272:1 11231:1 14793:1 14794:1 14795:1 14796:1 14797:1 
0.0940547815096498 7:1 72:1 391:1 398:1 459:1 512:1 518:1 609:1 731:1 885:1 1284:1 1344:1 1509:1 1937:1 1959:1 2039:1 2046:1 2120:1 2122:1 2422:1 8884:1 14818:1 14819:1 
0.07008675744397866 2:1 38:1 85:1 103:1 114:1 134:1 136:1 264:1 290:1 476:1 563:1 696:1 746:1 1095:1 1814:1 2043:1 2274:1 2650:1 5442:1 6003:1 8662:1 12846:1 14826:1 14827:1 14828:1 14829:1 14830:1 
0.002701134680563152 136:1 157:1 184:1 305:1 361:1 464:1 476:1 570:1 723:1 842:1 995:1 1025:1 1149:1 1344:1 1787:1 1788:1 1943:1 2710:1 2824:1 6382:1 7377:1 8593:1 9752:1 14309:1 14837:1 14838:1 14839:1 14840:1 14841:1 14842:1 
0.03050872733708018 16:1 38:1 102:1 103:1 234:1 324:1 418:1 436:1 563:1 574:1 658:1 809:1 1044:1 1055:1 1192:1 2389:1 2753:1 4454:1 4654:1 12664:1 14850:1 
0.06967035727593227 48:1 49:1 50:1 51:1 96:1 137:1 249:1 316:1 413:1 429:1 464:1 467:1 515:1 659:1 678:1 696:1 842:1 865:1 883:1 992:1 1071:1 1487:1 1501:1 1698:1 2064:1 2088:1 2119:1 2482:1 2772:1 2909:1 2930:1 2948:1 3389:1 3699:1 3796:1 4405:1 5052:1 5986:1 6095:1 6104:1 9563:1 12267:1 13400:1 13860:1 14881:1 14882:1 14883:1 14884:1 14885:1 
0.057458106349341 1:1 38:1 42:1 94:1 95:1 98:1 103:1 126:1 138:1 163:1 242:1 287:1 474:1 538:1 563:1 854:1 865:1 1259:1 2033:1 2160:1 2331:1 2959:1 3015:1 3813:1 4502:1 5986:1 10089:1 14888:1 
0.362648369387803 25:1 326:1 885:1 1032:1 1219:1 1492:1 4145:1 6139:1 7887:1 14910:1 
0.09401846683434281 38:1 69:1 73:1 102:1 105:1 135:1 152:1 224:1 336:1 337:1 563:1 597:1 652:1 702:1 816:1 819:1 875:1 931:1 954:1 1079:1 1133:1 1165:1 1229:1 1517:1 1871:1 2228:1 2229:1 3235:1 3498:1 3500:1 3836:1 5502:1 6370:1 8151:1 10103:1 14913:1 14914:1 14915:1 14916:1 
0.06297759180399656 15:1 38:1 69:1 73:1 136:1 188:1 249:1 264:1 305:1 355:1 397:1 434:1 474:1 476:1 495:1 605:1 713:1 723:1 736:1 802:1 844:1 1105:1 1127:1 1158:1 1159:1 1160:1 1161:1 1398:1 1477:1 1619:1 1733:1 1856:1 2013:1 2391:1 2874:1 3964:1 7061:1 7348:1 8500:1 9186:1 14802:1 14951:1 14952:1 14953:1 14954:1 14955:1 14956:1 
0.05926078341605501 15:1 16:1 98:1 110:1 136:1 595:1 614:1 1024:1 1142:1 1162:1 1169:1 1323:1 1643:1 2172:1 3753:1 4179:1 5052:1 12834:1 12946:1 14158:1 14216:1 14324:1 14674:1 14959:1 14960:1 14961:1 
0.08784579484615111 4:1 5:1 8:1 12:1 29:1 52:1 70:1 85:1 98:1 112:1 126:1 170:1 243:1 262:1 290:1 444:1 476:1 752:1 793:1 806:1 875:1 1149:1 1517:1 1685:1 2513:1 3346:1 5211:1 6017:1 7111:1 7798:1 9519:1 13209:1 14158:1 14971:1 14972:1 14973:1 14974:1 
0.05978171011060059 1:1 38:1 103:1 170:1 252:1 305:1 344:1 445:1 714:1 1190:1 1192:1 1326:1 1334:1 1871:1 2765:1 10492:1 14520:1 14979:1 
0.01863958459969159 44:1 105:1 200:1 297:1 391:1 489:1 562:1 755:1 921:1 966:1 1251:1 1557:1 1686:1 2101:1 4124:1 7560:1 14989:1 14990:1 14991:1 
0.2599832750580703 2:1 12:1 136:1 289:1 340:1 502:1 764:1 824:1 874:1 885:1 888:1 1154:1 2680:1 2779:1 3066:1 3900:1 8021:1 
0.1807882468594078 1:1 31:1 52:1 68:1 98:1 175:1 476:1 478:1 479:1 512:1 513:1 946:1 1211:1 2020:1 2171:1 2854:1 6009:1 10700:1 11561:1 14684:1 15031:1 15032:1 15033:1 15034:1 
0.02026506466270442 12:1 20:1 21:1 28:1 29:1 38:1 44:1 66:1 67:1 75:1 97:1 134:1 135:1 149:1 154:1 162:1 163:1 166:1 170:1 173:1 182:1 184:1 188:1 196:1 200:1 201:1 222:1 243:1 262:1 270:1 305:1 338:1 339:1 348:1 361:1 376:1 388:1 410:1 434:1 444:1 473:1 507:1 511:1 528:1 544:1 555:1 612:1 614:1 621:1 649:1 661:1 668:1 674:1 683:1 700:1 712:1 714:1 723:1 779:1 835:1 838:1 875:1 938:1 989:1 995:1 1010:1 1013:1 1069:1 1073:1 1081:1 1132:1 1133:1 1135:1 1244:1 1257:1 1289:1 1306:1 1339:1 1357:1 1420:1 1499:1 1508:1 1517:1 1554:1 1584:1 1682:1 1856:1 1916:1 2015:1 2062:1 2065:1 2072:1 2194:1 2282:1 2356:1 2379:1 2434:1 2444:1 2547:1 2590:1 2679:1 2703:1 2706:1 2750:1 2964:1 3090:1 3123:1 3311:1 3361:1 3526:1 3760:1 3829:1 3840:1 3911:1 3913:1 4195:1 4232:1 4248:1 4322:1 4487:1 4497:1 4518:1 4605:1 4820:1 5037:1 5579:1 5664:1 5706:1 5867:1 5926:1 6149:1 6196:1 7031:1 7166:1 7268:1 7431:1 7461:1 7818:1 7899:1 8200:1 9034:1 9092:1 12008:1 12301:1 12438:1 12898:1 13707:1 14016:1 14185:1 15035:1 15036:1 15037:1 15038:1 15039:1 15040:1 15041:1 15042:1 15043:1 15044:1 15045:1 15046:1 15047:1 15048:1 15049:1 15050:1 15051:1 15052:1 15053:1 
0.004660144671812438 14:1 66:1 166:1 175:1 196:1 752:1 949:1 957:1 987:1 1212:1 1518:1 1694:1 3252:1 5921:1 9727:1 15060:1 15061:1 
4 18:1 
0.2902642559100511 38:1 114:1 126:1 227:1 454:1 522:1 549:1 859:1 1259:1 2685:1 15105:1 
0.07483848070411367 12:1 69:1 169:1 262:1 290:1 439:1 712:1 821:1 2088:1 2278:1 3411:1 4128:1 15139:1 
0.03599240898510101 67:1 126:1 289:1 397:1 797:1 867:1 875:1 1078:1 1144:1 1145:1 2357:1 2609:1 2613:1 3874:1 10730:1 15142:1 15143:1 15144:1 15145:1 15146:1 15147:1 
0.05224366616442647 38:1 110:1 136:1 160:1 166:1 169:1 202:1 290:1 474:1 476:1 723:1 818:1 867:1 911:1 914:1 954:1 971:1 1116:1 1337:1 1580:1 1994:1 2086:1 2210:1 2590:1 2706:1 2799:1 2824:1 2990:1 3081:1 3488:1 6152:1 7947:1 10278:1 10816:1 11196:1 11992:1 12593:1 15155:1 15156:1 15157:1 15158:1 15159:1 15160:1 
0.07425746571814179 85:1 163:1 175:1 194:1 305:1 476:1 562:1 700:1 765:1 1002:1 1119:1 1190:1 1248:1 1302:1 3281:1 5129:1 5747:1 8409:1 15164:1 15165:1 15166:1 15167:1 15168:1 
0.05708258558129151 38:1 55:1 65:1 67:1 134:1 146:1 149:1 170:1 175:1 287:1 465:1 467:1 713:1 779:1 793:1 896:1 1411:1 1856:1 7082:1 9121:1 15242:1 
0.536124634218354 29:1 69:1 154:1 175:1 246:1 388:1 746:1 853:1 909:1 1199:1 1327:1 1517:1 1541:1 1611:1 2233:1 5330:1 15285:1 15286:1 
0.02471915984848189 7:1 14:1 98:1 160:1 204:1 232:1 233:1 234:1 296:1 428:1 771:1 793:1 818:1 1009:1 1011:1 1137:1 4327:1 15304:1 15305:1 
0.1447922050022014 97:1 105:1 319:1 351:1 1143:1 1506:1 1856:1 2079:1 2174:1 2647:1 2795:1 3293:1 3599:1 3762:1 11804:1 12574:1 14626:1 15323:1 15324:1 15325:1 
0.6804430666779679 38:1 44:1 94:1 105:1 112:1 134:1 170:1 182:1 203:1 305:1 334:1 476:1 477:1 672:1 793:1 816:1 860:1 896:1 1315:1 2230:1 2892:1 3520:1 3910:1 3996:1 4194:1 7229:1 
0.1607302212990575 102:1 166:1 262:1 402:1 422:1 516:1 723:1 752:1 763:1 1531:1 1920:1 1931:1 2207:1 2296:1 2568:1 3012:1 4237:1 6149:1 7910:1 7911:1 7976:1 9728:1 11988:1 14181:1 15344:1 
0.08549762606289187 44:1 61:1 94:1 110:1 126:1 134:1 196:1 198:1 229:1 334:1 361:1 364:1 467:1 612:1 688:1 767:1 842:1 924:1 1501:1 1941:1 3073:1 3519:1 5919:1 5926:1 11694:1 15402:1 15403:1 15404:1 
0.0127375322074756 21:1 24:1 38:1 69:1 126:1 136:1 170:1 186:1 198:1 217:1 243:1 350:1 415:1 416:1 464:1 472:1 476:1 484:1 528:1 542:1 557:1 563:1 779:1 1261:1 1309:1 1455:1 1554:1 1670:1 1856:1 2043:1 2320:1 2539:1 2807:1 3262:1 4370:1 4671:1 4743:1 5088:1 5830:1 6928:1 7057:1 9038:1 9183:1 10244:1 13439:1 14226:1 15462:1 15523:1 15524:1 15525:1 15526:1 15527:1 15528:1 15529:1 
0.09909253636145907 16:1 52:1 66:1 69:1 110:1 126:1 169:1 201:1 227:1 347:1 557:1 654:1 658:1 661:1 895:1 908:1 982:1 1192:1 1320:1 1353:1 1420:1 1789:1 2116:1 2331:1 2993:1 4425:1 6820:1 10510:1 13909:1 
0.03040423377601559 12:1 25:1 37:1 38:1 40:1 42:1 67:1 69:1 98:1 110:1 126:1 127:1 128:1 134:1 146:1 150:1 164:1 170:1 184:1 198:1 227:1 230:1 249:1 269:1 279:1 319:1 324:1 335:1 367:1 382:1 391:1 395:1 442:1 457:1 464:1 474:1 504:1 505:1 516:1 574:1 661:1 668:1 678:1 683:1 696:1 702:1 712:1 747:1 752:1 757:1 818:1 842:1 865:1 883:1 912:1 914:1 932:1 984:1 995:1 1025:1 1101:1 1180:1 1190:1 1246:1 1255:1 1261:1 1337:1 1373:1 1387:1 1446:1 1468:1 1501:1 1502:1 1503:1 1512:1 1516:1 1518:1 1722:1 1750:1 1773:1 1844:1 1906:1 1946:1 2081:1 2161:1 2444:1 2892:1 2986:1 3010:1 3020:1 3022:1 3230:1 3601:1 3618:1 3749:1 3900:1 4098:1 4128:1 4149:1 4162:1 4192:1 4291:1 4311:1 4374:1 4462:1 5221:1 5855:1 5970:1 6390:1 6646:1 7357:1 8823:1 10255:1 10429:1 10841:1 11670:1 11705:1 12113:1 12746:1 13675:1 13839:1 14338:1 14969:1 15483:1 15531:1 15532:1 15533:1 15534:1 15535:1 15536:1 15537:1 15538:1 15539:1 15540:1 15541:1 15542:1 15543:1 15544:1 15545:1 15546:1 15547:1 15548:1 15549:1 15550:1 
0.07663332542568702 2:1 33:1 61:1 136:1 149:1 190:1 242:1 249:1 251:1 339:1 343:1 398:1 1532:1 2255:1 2796:1 4317:1 5057:1 5561:1 6542:1 15551:1 15552:1 15553:1 15554:1 15555:1 15556:1 
0.1192210622217503 21:1 38:1 44:1 75:1 97:1 126:1 134:1 164:1 168:1 242:1 289:1 337:1 388:1 511:1 544:1 652:1 653:1 674:1 678:1 752:1 761:1 762:1 885:1 902:1 959:1 1025:1 1122:1 1137:1 1508:1 1556:1 1562:1 1754:1 2185:1 2756:1 2824:1 2871:1 3070:1 3630:1 3631:1 4885:1 5075:1 5116:1 5354:1 6654:1 10603:1 13161:1 13298:1 15561:1 15562:1 15563:1 15564:1 
0.2260852812689785 1:1 12:1 20:1 127:1 138:1 177:1 198:1 230:1 436:1 474:1 544:1 668:1 770:1 793:1 865:1 952:1 1271:1 1765:1 1946:1 2100:1 4245:1 6755:1 9327:1 10279:1 10290:1 14357:1 15584:1 15585:1 15586:1 15587:1 
