svm_type c_svc
kernel_type linear
nr_class 2
total_sv 6227
rho 0.734581
label 1 -1
probA -1.47319
probB 0.00555808
nr_sv 3098 3129
SV
0.09954014390515174 23:1 37:1 38:1 39:1 40:1 41:1 42:1 43:1 44:1 45:1 46:1 47:1 48:1 49:1 50:1 51:1 52:1 53:1 54:1 55:1 56:1 57:1 58:1 
0.06219411190082756 0:1 10:1 42:1 59:1 60:1 61:1 62:1 63:1 64:1 65:1 66:1 67:1 68:1 69:1 70:1 71:1 72:1 73:1 
0.1221738437001629 21:1 26:1 48:1 72:1 74:1 75:1 76:1 77:1 78:1 79:1 80:1 81:1 82:1 83:1 84:1 85:1 86:1 87:1 88:1 89:1 90:1 91:1 92:1 93:1 94:1 95:1 96:1 97:1 98:1 99:1 100:1 101:1 102:1 103:1 104:1 105:1 106:1 107:1 108:1 109:1 110:1 111:1 112:1 113:1 114:1 115:1 116:1 117:1 118:1 119:1 120:1 121:1 122:1 123:1 124:1 125:1 
0.0004789423958736114 55:1 61:1 135:1 236:1 410:1 411:1 412:1 413:1 414:1 415:1 416:1 
0.7124848567076214 5:1 334:1 462:1 463:1 464:1 465:1 466:1 467:1 468:1 469:1 470:1 471:1 
0.02461272490072419 0:1 4:1 23:1 26:1 39:1 158:1 166:1 272:1 283:1 292:1 334:1 447:1 550:1 601:1 602:1 603:1 604:1 605:1 606:1 607:1 608:1 609:1 610:1 611:1 612:1 613:1 614:1 615:1 616:1 617:1 618:1 619:1 620:1 621:1 622:1 623:1 
0.01215240099535968 0:1 4:1 16:1 148:1 163:1 165:1 190:1 232:1 298:1 421:1 584:1 623:1 642:1 643:1 644:1 645:1 646:1 647:1 648:1 649:1 650:1 651:1 652:1 653:1 
0.08988701308324493 5:1 136:1 280:1 295:1 421:1 428:1 441:1 497:1 544:1 629:1 677:1 926:1 927:1 928:1 929:1 930:1 931:1 932:1 933:1 934:1 935:1 936:1 937:1 938:1 939:1 940:1 941:1 942:1 943:1 944:1 945:1 946:1 947:1 948:1 949:1 
0.4233888150149197 23:1 48:1 306:1 385:1 647:1 731:1 808:1 1264:1 1265:1 1266:1 1267:1 1268:1 1269:1 
0.1109669885601074 48:1 165:1 208:1 238:1 251:1 271:1 342:1 428:1 496:1 528:1 1073:1 1316:1 1317:1 1318:1 1319:1 1320:1 1321:1 
0.08038755685517777 2:1 4:1 10:1 44:1 77:1 153:1 165:1 166:1 254:1 673:1 677:1 678:1 830:1 889:1 1292:1 1364:1 1365:1 1366:1 1367:1 
0.2003660088249931 0:1 4:1 6:1 24:1 40:1 42:1 56:1 120:1 137:1 160:1 166:1 189:1 222:1 256:1 257:1 258:1 295:1 306:1 323:1 364:1 398:1 457:1 523:1 530:1 677:1 881:1 1184:1 1368:1 1369:1 1370:1 1371:1 1372:1 1373:1 1374:1 1375:1 1376:1 1377:1 1378:1 1379:1 1380:1 1381:1 1382:1 1383:1 
0.279739740195725 27:1 142:1 226:1 256:1 302:1 304:1 386:1 391:1 475:1 555:1 1103:1 1306:1 1459:1 1500:1 1501:1 1502:1 1503:1 1504:1 1505:1 1506:1 
0.1326706902080801 23:1 51:1 62:1 95:1 98:1 135:1 186:1 375:1 385:1 677:1 731:1 732:1 1269:1 1465:1 1476:1 1519:1 1520:1 1521:1 1522:1 1523:1 1524:1 1525:1 1526:1 1527:1 1528:1 
0.01157173176701334 10:1 48:1 151:1 174:1 178:1 226:1 467:1 475:1 538:1 554:1 853:1 1344:1 1365:1 1455:1 1505:1 1537:1 1568:1 1569:1 1570:1 1571:1 1572:1 1573:1 1574:1 1575:1 1576:1 1577:1 1578:1 1579:1 1580:1 1581:1 1582:1 1583:1 1584:1 1585:1 1586:1 1587:1 1588:1 1589:1 1590:1 1591:1 1592:1 
0.3507209835951466 11:1 21:1 30:1 165:1 226:1 228:1 302:1 304:1 308:1 396:1 804:1 805:1 1330:1 1644:1 1645:1 1646:1 1647:1 1648:1 
2.138821152435998 120:1 148:1 151:1 160:1 166:1 189:1 211:1 223:1 255:1 302:1 304:1 387:1 695:1 825:1 847:1 975:1 1390:1 1726:1 1727:1 1728:1 1729:1 
0.07427632709144601 5:1 136:1 166:1 198:1 208:1 209:1 219:1 295:1 334:1 407:1 424:1 443:1 1178:1 1196:1 1735:1 1736:1 1737:1 1738:1 1739:1 1740:1 1741:1 1742:1 1743:1 
0.3467833689936636 21:1 42:1 155:1 178:1 238:1 383:1 385:1 429:1 457:1 1474:1 1650:1 1765:1 1766:1 1767:1 1768:1 
0.2507402051714627 457:1 484:1 1817:1 1818:1 1819:1 1820:1 1821:1 1822:1 
0.05353527177239378 344:1 431:1 503:1 564:1 577:1 647:1 808:1 1078:1 1380:1 1848:1 1849:1 1850:1 1851:1 1852:1 1853:1 1854:1 1855:1 
0.6350083275370554 14:1 58:1 102:1 129:1 165:1 222:1 240:1 323:1 368:1 482:1 487:1 577:1 1038:1 1103:1 1114:1 1425:1 1647:1 1742:1 2029:1 2030:1 2031:1 2032:1 2033:1 2034:1 2035:1 
0.1109959315729416 30:1 31:1 117:1 148:1 169:1 190:1 225:1 226:1 284:1 361:1 375:1 407:1 437:1 438:1 439:1 482:1 677:1 688:1 786:1 790:1 951:1 959:1 1473:1 1883:1 2036:1 2037:1 2038:1 2039:1 2040:1 2041:1 2042:1 2043:1 2044:1 2045:1 2046:1 2047:1 2048:1 2049:1 
0.6127903838496405 43:1 77:1 180:1 256:1 421:1 482:1 484:1 490:1 548:1 695:1 1624:1 2128:1 2129:1 2130:1 
0.4486824656241725 0:1 150:1 165:1 190:1 206:1 282:1 370:1 484:1 798:1 2038:1 2083:1 2179:1 2180:1 2181:1 2182:1 2183:1 2184:1 
0.06136635859090236 18:1 21:1 48:1 49:1 145:1 166:1 272:1 421:1 677:1 1125:1 1302:1 1312:1 1923:1 2282:1 2283:1 2284:1 2285:1 
0.7977798339667094 37:1 41:1 44:1 132:1 144:1 155:1 180:1 226:1 236:1 237:1 245:1 302:1 304:1 428:1 487:1 519:1 520:1 605:1 625:1 649:1 904:1 1514:1 2310:1 2311:1 2312:1 2313:1 2314:1 
0.8198190790694249 23:1 63:1 189:1 292:1 308:1 421:1 441:1 625:1 799:1 901:1 994:1 1170:1 1288:1 1336:1 2316:1 2317:1 2318:1 2319:1 2320:1 
0.2229596379419124 4:1 8:1 21:1 41:1 135:1 149:1 163:1 189:1 208:1 222:1 289:1 314:1 385:1 409:1 465:1 568:1 704:1 1502:1 1647:1 1891:1 2393:1 2497:1 2498:1 2499:1 2500:1 2501:1 2502:1 2503:1 2504:1 2505:1 2506:1 2507:1 2508:1 
0.176438110253628 4:1 21:1 23:1 30:1 98:1 149:1 255:1 265:1 334:1 382:1 481:1 491:1 889:1 1406:1 2608:1 2609:1 2610:1 2611:1 2612:1 2613:1 
0.03707971541217723 4:1 7:1 46:1 142:1 145:1 165:1 166:1 179:1 219:1 334:1 349:1 365:1 418:1 434:1 487:1 497:1 625:1 778:1 790:1 870:1 1113:1 2040:1 2614:1 2615:1 2616:1 2617:1 2618:1 2619:1 2620:1 2621:1 2622:1 2623:1 2624:1 2625:1 2626:1 2627:1 2628:1 2629:1 2630:1 2631:1 2632:1 2633:1 2634:1 2635:1 2636:1 2637:1 2638:1 2639:1 2640:1 2641:1 2642:1 2643:1 2644:1 
0.2682180445001255 142:1 223:1 256:1 354:1 581:1 1979:1 2129:1 2151:1 2314:1 2679:1 2680:1 2681:1 2682:1 2683:1 2684:1 
0.02697142729222641 8:1 26:1 33:1 35:1 37:1 39:1 63:1 74:1 80:1 90:1 95:1 135:1 145:1 148:1 158:1 161:1 174:1 195:1 201:1 211:1 212:1 222:1 317:1 323:1 354:1 367:1 375:1 406:1 437:1 446:1 499:1 579:1 580:1 582:1 595:1 612:1 625:1 649:1 769:1 778:1 804:1 845:1 962:1 1005:1 1006:1 1118:1 1306:1 1411:1 1424:1 1460:1 1462:1 1744:1 1782:1 1841:1 1842:1 1868:1 1979:1 1992:1 2058:1 2101:1 2140:1 2240:1 2251:1 2423:1 2604:1 2685:1 2686:1 2687:1 2688:1 2689:1 2690:1 2691:1 2692:1 2693:1 2694:1 2695:1 2696:1 2697:1 2698:1 2699:1 2700:1 2701:1 2702:1 2703:1 2704:1 2705:1 2706:1 2707:1 2708:1 2709:1 2710:1 2711:1 2712:1 2713:1 2714:1 2715:1 2716:1 2717:1 2718:1 2719:1 2720:1 2721:1 2722:1 2723:1 2724:1 2725:1 2726:1 2727:1 2728:1 2729:1 2730:1 2731:1 
0.01649364894504305 4:1 5:1 16:1 23:1 37:1 67:1 77:1 95:1 135:1 136:1 195:1 238:1 315:1 349:1 368:1 425:1 482:1 485:1 496:1 499:1 550:1 582:1 717:1 790:1 877:1 1128:1 1278:1 1422:1 1476:1 1868:1 2090:1 2251:1 2584:1 2618:1 2884:1 2885:1 2886:1 2887:1 2888:1 2889:1 2890:1 2891:1 2892:1 2893:1 2894:1 2895:1 2896:1 2897:1 2898:1 2899:1 2900:1 2901:1 
0.2789550454324728 1:1 123:1 266:1 282:1 292:1 323:1 496:1 711:1 991:1 997:1 1614:1 1883:1 1899:1 1904:1 2187:1 2917:1 2918:1 2919:1 2920:1 
1.392242442778572 165:1 171:1 1395:1 1900:1 2957:1 
0.1344823825215787 2:1 4:1 21:1 93:1 103:1 148:1 166:1 236:1 255:1 347:1 386:1 387:1 493:1 513:1 520:1 613:1 841:1 1039:1 2075:1 2475:1 2910:1 2972:1 2973:1 2974:1 2975:1 2976:1 2977:1 2978:1 
0.06742743073302138 65:1 119:1 120:1 135:1 232:1 295:1 600:1 708:1 1265:1 2396:1 2598:1 3052:1 3053:1 3054:1 3055:1 3056:1 3057:1 3058:1 3059:1 3060:1 3061:1 3062:1 
0.2814027288247474 4:1 129:1 190:1 438:1 501:1 1088:1 1093:1 2308:1 2393:1 3063:1 3064:1 3065:1 3066:1 3067:1 
0.1074327555722479 47:1 119:1 165:1 166:1 179:1 198:1 208:1 308:1 358:1 370:1 379:1 388:1 470:1 584:1 841:1 1373:1 1862:1 2723:1 3081:1 3082:1 3083:1 
0.01075912610012833 0:1 101:1 149:1 155:1 166:1 180:1 858:1 909:1 1009:1 2351:1 3084:1 3085:1 3086:1 3087:1 3088:1 3089:1 3090:1 3091:1 3092:1 3093:1 3094:1 3095:1 3096:1 
0.118629961779969 23:1 148:1 165:1 238:1 271:1 308:1 407:1 449:1 497:1 625:1 778:1 904:1 1113:1 1147:1 1272:1 1472:1 1624:1 2946:1 3097:1 3098:1 3099:1 3100:1 3101:1 3102:1 3103:1 3104:1 
0.2764680900684849 163:1 166:1 232:1 272:1 342:1 443:1 1244:1 1741:1 1963:1 2179:1 2576:1 3211:1 3212:1 3213:1 
0.280274032396223 37:1 46:1 56:1 63:1 90:1 180:1 187:1 190:1 219:1 226:1 232:1 238:1 256:1 272:1 391:1 482:1 613:1 677:1 748:1 1269:1 1877:1 1903:1 1929:1 2655:1 2946:1 3249:1 3250:1 
0.05810150156913111 190:1 323:1 334:1 443:1 446:1 470:1 490:1 660:1 989:1 1049:1 1225:1 2139:1 2393:1 2500:1 3232:1 3320:1 3321:1 3322:1 3323:1 3324:1 3325:1 3326:1 3327:1 
0.03943689992766845 0:1 23:1 37:1 55:1 68:1 135:1 163:1 165:1 189:1 378:1 475:1 519:1 823:1 862:1 867:1 994:1 1020:1 1021:1 1022:1 1326:1 1365:1 1964:1 2638:1 2780:1 3239:1 3526:1 3527:1 3528:1 3529:1 3530:1 3531:1 3532:1 3533:1 3534:1 3535:1 3536:1 3537:1 3538:1 3539:1 
0.201877925606001 4:1 26:1 41:1 98:1 104:1 155:1 166:1 167:1 180:1 206:1 322:1 441:1 499:1 522:1 824:1 972:1 1147:1 1361:1 1371:1 1442:1 1662:1 1886:1 1952:1 2087:1 2105:1 2593:1 2598:1 2660:1 3049:1 3540:1 3541:1 3542:1 3543:1 3544:1 3545:1 3546:1 3547:1 
0.08180373014843789 1:1 4:1 5:1 11:1 21:1 37:1 48:1 49:1 55:1 67:1 90:1 136:1 155:1 158:1 189:1 195:1 198:1 201:1 222:1 265:1 280:1 404:1 421:1 441:1 482:1 572:1 613:1 786:1 796:1 803:1 804:1 806:1 847:1 880:1 904:1 932:1 1061:1 1124:1 1193:1 1259:1 1318:1 1327:1 1390:1 1407:1 1412:1 1433:1 1447:1 1781:1 1795:1 1806:1 1850:1 2047:1 2273:1 2302:1 2391:1 2637:1 2647:1 2734:1 2800:1 3226:1 3421:1 3613:1 3614:1 3615:1 3616:1 3617:1 3618:1 3619:1 3620:1 3621:1 3622:1 3623:1 3624:1 3625:1 3626:1 3627:1 3628:1 3629:1 3630:1 3631:1 3632:1 3633:1 3634:1 3635:1 
0.1552646403053508 4:1 23:1 39:1 49:1 55:1 56:1 63:1 99:1 102:1 120:1 142:1 145:1 148:1 149:1 163:1 178:1 189:1 218:1 219:1 222:1 235:1 323:1 385:1 391:1 419:1 431:1 434:1 441:1 465:1 466:1 482:1 499:1 581:1 612:1 632:1 688:1 731:1 841:1 849:1 879:1 881:1 971:1 1047:1 1103:1 1182:1 1284:1 1455:1 1502:1 1647:1 1728:1 1731:1 1741:1 1742:1 1863:1 1899:1 1963:1 1973:1 2008:1 2720:1 3023:1 3396:1 3478:1 3708:1 3765:1 3766:1 3767:1 3768:1 3769:1 3770:1 3771:1 3772:1 3773:1 3774:1 3775:1 3776:1 3777:1 3778:1 3779:1 3780:1 3781:1 3782:1 3783:1 3784:1 
0.06771777382253445 0:1 37:1 41:1 155:1 236:1 245:1 275:1 308:1 370:1 378:1 649:1 695:1 1728:1 3793:1 3794:1 
0.592652350057491 4:1 16:1 55:1 136:1 179:1 568:1 667:1 677:1 700:1 1614:1 1668:1 3869:1 3870:1 3871:1 3872:1 
0.1645496766351061 55:1 68:1 148:1 180:1 189:1 356:1 386:1 428:1 441:1 732:1 781:1 904:1 1010:1 1624:1 2130:1 2352:1 2387:1 3619:1 3880:1 3881:1 3882:1 
0.08339808907538213 0:1 10:1 16:1 49:1 95:1 145:1 165:1 190:1 211:1 230:1 237:1 255:1 268:1 323:1 367:1 385:1 428:1 441:1 605:1 625:1 662:1 703:1 787:1 884:1 923:1 1173:1 1373:1 1601:1 1903:1 2013:1 2070:1 2889:1 3929:1 3930:1 3931:1 3932:1 3933:1 3934:1 3935:1 3936:1 3937:1 3938:1 3939:1 
0.3607781850761572 4:1 48:1 55:1 148:1 189:1 282:1 323:1 475:1 551:1 748:1 821:1 1289:1 1294:1 2640:1 3238:1 3526:1 3954:1 3955:1 3956:1 3957:1 3958:1 3959:1 
0.5391561736545937 0:1 18:1 44:1 98:1 201:1 355:1 370:1 484:1 582:1 688:1 994:1 1780:1 1862:1 2183:1 2576:1 3650:1 3960:1 3961:1 3962:1 
0.2250906915778567 48:1 49:1 183:1 386:1 592:1 847:1 2600:1 2652:1 2993:1 3974:1 3975:1 3976:1 3977:1 3978:1 3979:1 3980:1 
0.2089957842950548 1:1 11:1 14:1 48:1 65:1 90:1 103:1 145:1 149:1 155:1 158:1 189:1 198:1 238:1 246:1 268:1 284:1 288:1 308:1 328:1 368:1 396:1 439:1 446:1 482:1 499:1 501:1 572:1 587:1 612:1 627:1 647:1 778:1 870:1 1089:1 1098:1 1100:1 1121:1 1383:1 1502:1 1711:1 1782:1 2287:1 2662:1 2720:1 3392:1 3594:1 3733:1 4025:1 4026:1 4027:1 4028:1 4029:1 4030:1 4031:1 4032:1 4033:1 4034:1 4035:1 4036:1 4037:1 4038:1 
0.5012721976198862 135:1 138:1 151:1 178:1 219:1 238:1 308:1 383:1 396:1 428:1 487:1 529:1 587:1 598:1 836:1 859:1 875:1 1107:1 1115:1 1306:1 1396:1 1533:1 1544:1 1548:1 1594:1 1659:1 1764:1 1782:1 2203:1 2418:1 2445:1 2689:1 2966:1 3417:1 3579:1 3616:1 3738:1 3774:1 3986:1 4098:1 4123:1 4124:1 4125:1 4126:1 4127:1 4128:1 4129:1 4130:1 4131:1 4132:1 
0.0399571515274463 0:1 4:1 21:1 37:1 44:1 48:1 55:1 90:1 133:1 155:1 157:1 159:1 178:1 222:1 302:1 304:1 355:1 361:1 399:1 439:1 475:1 489:1 677:1 718:1 875:1 972:1 1034:1 1125:1 1151:1 1216:1 1659:1 2205:1 2209:1 2379:1 2396:1 2684:1 3635:1 3718:1 4133:1 4134:1 4135:1 4136:1 4137:1 4138:1 4139:1 4140:1 4141:1 4142:1 4143:1 4144:1 4145:1 4146:1 4147:1 4148:1 4149:1 4150:1 4151:1 4152:1 4153:1 4154:1 4155:1 
0.117583868946043 0:1 17:1 23:1 43:1 49:1 55:1 58:1 100:1 101:1 129:1 145:1 149:1 151:1 166:1 174:1 198:1 219:1 223:1 226:1 232:1 238:1 256:1 272:1 280:1 295:1 353:1 375:1 431:1 441:1 467:1 487:1 653:1 688:1 771:1 870:1 1052:1 1062:1 1084:1 1225:1 1330:1 1339:1 1455:1 1638:1 1711:1 1853:1 2012:1 2069:1 2078:1 2086:1 2604:1 2837:1 3058:1 3354:1 4239:1 4240:1 4241:1 4242:1 4243:1 4244:1 4245:1 4246:1 4247:1 4248:1 4249:1 4250:1 4251:1 4252:1 4253:1 4254:1 4255:1 4256:1 4257:1 4258:1 4259:1 4260:1 
0.05022945343859407 23:1 117:1 120:1 166:1 189:1 256:1 295:1 385:1 499:1 520:1 653:1 731:1 2452:1 4261:1 4262:1 4263:1 
0.02234375096030405 87:1 270:1 271:1 334:1 367:1 422:1 625:1 631:1 1209:1 1731:1 2415:1 3239:1 3718:1 4274:1 4275:1 4276:1 4277:1 4278:1 4279:1 
0.04627164256825762 4:1 21:1 26:1 142:1 145:1 149:1 158:1 163:1 166:1 278:1 334:1 497:1 501:1 937:1 1009:1 1154:1 1414:1 1533:1 1612:1 2305:1 2393:1 3327:1 4298:1 4299:1 4300:1 4301:1 4302:1 
0.07326616310159285 0:1 25:1 65:1 142:1 155:1 165:1 166:1 180:1 256:1 268:1 286:1 554:1 841:1 1062:1 1099:1 1113:1 1533:1 1791:1 1915:1 2507:1 3742:1 4394:1 4395:1 4396:1 
0.4739078714241466 1:1 30:1 91:1 148:1 149:1 172:1 265:1 406:1 592:1 673:1 786:1 825:1 975:1 1225:1 1259:1 1924:1 3389:1 4240:1 4406:1 4407:1 4408:1 4409:1 4410:1 4411:1 4412:1 
0.3156421489056904 49:1 71:1 98:1 155:1 195:1 206:1 222:1 371:1 482:1 1224:1 1225:1 1340:1 1432:1 3389:1 3609:1 4470:1 4471:1 4472:1 4473:1 4474:1 4475:1 4476:1 4477:1 4478:1 
0.2919396501699398 74:1 190:1 254:1 270:1 271:1 282:1 315:1 323:1 334:1 375:1 466:1 482:1 584:1 830:1 1647:1 1707:1 1727:1 1962:1 2139:1 2338:1 2507:1 2698:1 3113:1 3423:1 3553:1 3561:1 3674:1 3727:1 3817:1 4579:1 4580:1 4581:1 4582:1 4583:1 4584:1 4585:1 
0.1149263856419278 23:1 278:1 334:1 342:1 385:1 438:1 475:1 1804:1 2577:1 3689:1 4588:1 4589:1 4590:1 4591:1 4592:1 4593:1 
0.07035701084511796 0:1 2:1 4:1 7:1 16:1 23:1 39:1 55:1 63:1 71:1 90:1 98:1 119:1 120:1 129:1 133:1 134:1 141:1 142:1 143:1 148:1 151:1 179:1 180:1 195:1 212:1 214:1 218:1 227:1 237:1 280:1 282:1 296:1 308:1 325:1 346:1 370:1 396:1 418:1 439:1 446:1 457:1 503:1 586:1 587:1 625:1 639:1 649:1 677:1 688:1 705:1 731:1 748:1 756:1 768:1 778:1 786:1 825:1 833:1 847:1 870:1 904:1 1049:1 1062:1 1082:1 1092:1 1099:1 1110:1 1210:1 1230:1 1259:1 1278:1 1332:1 1389:1 1440:1 1533:1 1562:1 1578:1 1599:1 1638:1 1808:1 1953:1 1963:1 2069:1 2192:1 2208:1 2229:1 2246:1 2673:1 2938:1 3225:1 3230:1 3390:1 3445:1 3479:1 3585:1 3810:1 3907:1 4096:1 4099:1 4195:1 4481:1 4598:1 4599:1 4600:1 4601:1 4602:1 4603:1 4604:1 4605:1 4606:1 4607:1 4608:1 4609:1 4610:1 4611:1 4612:1 4613:1 4614:1 4615:1 4616:1 4617:1 4618:1 4619:1 4620:1 4621:1 4622:1 4623:1 4624:1 4625:1 4626:1 4627:1 4628:1 4629:1 4630:1 4631:1 4632:1 4633:1 4634:1 4635:1 4636:1 4637:1 4638:1 4639:1 
0.536942718112282 0:1 2:1 30:1 165:1 255:1 283:1 292:1 421:1 428:1 446:1 494:1 550:1 860:1 1721:1 2140:1 2306:1 2544:1 2648:1 2798:1 4692:1 4693:1 4694:1 4695:1 
0.008362436716691983 37:1 91:1 113:1 135:1 155:1 180:1 237:1 306:1 497:1 546:1 561:1 625:1 647:1 759:1 803:1 825:1 1225:1 1559:1 2209:1 3742:1 4696:1 4697:1 4698:1 4699:1 
0.1043114030627299 0:1 10:1 16:1 26:1 37:1 67:1 78:1 81:1 208:1 212:1 232:1 237:1 336:1 367:1 421:1 701:1 732:1 825:1 994:1 1218:1 2396:1 3149:1 3903:1 4708:1 4709:1 4710:1 4711:1 4712:1 4713:1 4714:1 4715:1 4716:1 4717:1 
0.08091691580623322 6:1 16:1 166:1 258:1 487:1 519:1 577:1 649:1 673:1 1043:1 1978:1 3479:1 3650:1 4722:1 4723:1 4724:1 4725:1 
0.07535024133903266 95:1 155:1 165:1 166:1 179:1 189:1 241:1 272:1 465:1 482:1 501:1 550:1 688:1 805:1 806:1 857:1 885:1 951:1 965:1 994:1 1022:1 1221:1 1265:1 1306:1 1741:1 1863:1 1907:1 1933:1 2018:1 2291:1 2484:1 3058:1 3485:1 3732:1 4587:1 4730:1 4731:1 4732:1 4733:1 4734:1 4735:1 4736:1 4737:1 4738:1 4739:1 
0.3888160904939692 4:1 22:1 77:1 142:1 152:1 166:1 208:1 238:1 289:1 320:1 509:1 603:1 695:1 726:1 830:1 858:1 875:1 1046:1 1522:1 1963:1 3065:1 3239:1 4571:1 4748:1 4749:1 4750:1 4751:1 
0.2936480040780683 16:1 56:1 67:1 74:1 163:1 165:1 323:1 431:1 470:1 623:1 653:1 1263:1 1278:1 1435:1 1883:1 2195:1 2327:1 3392:1 4543:1 4844:1 4845:1 4846:1 4847:1 4848:1 4849:1 
0.104231363207413 1:1 21:1 55:1 63:1 77:1 155:1 189:1 222:1 255:1 256:1 284:1 346:1 375:1 482:1 495:1 568:1 880:1 881:1 902:1 1113:1 1116:1 1137:1 1354:1 1414:1 1647:1 1797:1 2208:1 3300:1 3302:1 3476:1 4240:1 4889:1 4890:1 4891:1 4892:1 4893:1 
0.1202123742442165 26:1 39:1 190:1 323:1 465:1 526:1 534:1 855:1 867:1 1354:1 1435:1 1703:1 1883:1 2174:1 3072:1 4105:1 4924:1 4925:1 4926:1 4927:1 4928:1 4929:1 
0.3524561914121557 23:1 49:1 155:1 165:1 359:1 431:1 649:1 778:1 866:1 908:1 1092:1 1103:1 1272:1 1704:1 1735:1 3552:1 3727:1 5030:1 5031:1 5032:1 5033:1 5034:1 5035:1 
0.12437475077688 33:1 95:1 155:1 165:1 166:1 236:1 256:1 368:1 378:1 383:1 437:1 499:1 572:1 787:1 1087:1 2618:1 2677:1 3023:1 3536:1 3929:1 5037:1 5038:1 5039:1 5040:1 
0.09901940904667378 6:1 10:1 16:1 37:1 133:1 141:1 148:1 165:1 265:1 271:1 299:1 323:1 441:1 581:1 729:1 778:1 904:1 967:1 1077:1 1302:1 1730:1 4007:1 5099:1 5100:1 5101:1 5102:1 
0.6148910766170257 1620:1 
0.1571114746076454 26:1 44:1 48:1 49:1 63:1 195:1 237:1 238:1 497:1 546:1 655:1 673:1 1408:1 1462:1 1730:1 1840:1 1962:1 2389:1 2994:1 3249:1 4446:1 5123:1 5124:1 5125:1 5126:1 
1.44921488634301 1559:1 5134:1 
0.2930198095084917 314:1 475:1 5151:1 5152:1 5153:1 5154:1 5155:1 
0.1566177158310501 5:1 27:1 91:1 189:1 190:1 227:1 441:1 662:1 798:1 947:1 1184:1 1272:1 2441:1 2789:1 3031:1 5232:1 5233:1 5234:1 
0.08869840901148918 0:1 21:1 63:1 120:1 238:1 375:1 418:1 495:1 550:1 612:1 846:1 1453:1 1895:1 2245:1 2989:1 3031:1 5258:1 5259:1 5260:1 5261:1 5262:1 
0.1220856905712684 16:1 65:1 166:1 179:1 256:1 349:1 496:1 499:1 592:1 653:1 708:1 821:1 959:1 1298:1 1963:1 2069:1 2225:1 2312:1 2484:1 2837:1 2889:1 4185:1 4412:1 5194:1 5295:1 5296:1 5297:1 5298:1 5299:1 5300:1 5301:1 5302:1 5303:1 5304:1 5305:1 5306:1 5307:1 5308:1 
0.01981997268009372 37:1 135:1 163:1 315:1 663:1 1862:1 1916:1 2248:1 3238:1 3430:1 3526:1 5194:1 5314:1 5315:1 5316:1 5317:1 5318:1 5319:1 5320:1 
0.5214257472566654 26:1 48:1 76:1 77:1 209:1 368:1 649:1 803:1 984:1 1462:1 1958:1 2466:1 5211:1 5514:1 
0.104851822433955 21:1 30:1 48:1 63:1 68:1 151:1 174:1 181:1 210:1 284:1 359:1 404:1 491:1 756:1 796:1 880:1 944:1 1080:1 1376:1 1400:1 1402:1 1453:1 1576:1 2146:1 2234:1 2351:1 2516:1 2732:1 3643:1 3937:1 4211:1 4267:1 4296:1 4666:1 4915:1 5515:1 5516:1 5517:1 5518:1 5519:1 5520:1 5521:1 5522:1 5523:1 5524:1 5525:1 5526:1 5527:1 
0.8671209332350689 40:1 74:1 119:1 150:1 189:1 190:1 255:1 315:1 421:1 441:1 496:1 626:1 712:1 789:1 821:1 830:1 851:1 959:1 1907:1 1942:1 2565:1 3413:1 3476:1 5581:1 5582:1 5583:1 5584:1 
0.3872447435915675 10:1 67:1 155:1 163:1 306:1 377:1 466:1 499:1 620:1 785:1 1987:1 2454:1 3255:1 5588:1 5589:1 5590:1 
0.04641618578507496 0:1 4:1 16:1 161:1 166:1 236:1 318:1 361:1 428:1 705:1 811:1 924:1 1070:1 1583:1 1883:1 2305:1 2327:1 2718:1 3031:1 3487:1 3760:1 5594:1 5595:1 5596:1 5597:1 5598:1 5599:1 
0.3010242109779598 0:1 21:1 23:1 26:1 145:1 166:1 232:1 255:1 342:1 367:1 546:1 677:1 688:1 1252:1 1389:1 1641:1 1794:1 1949:1 2041:1 2209:1 2978:1 3281:1 3660:1 5614:1 5615:1 5616:1 5617:1 5618:1 5619:1 
0.01018626620844405 0:1 2:1 18:1 46:1 51:1 63:1 115:1 136:1 145:1 151:1 155:1 166:1 178:1 189:1 219:1 227:1 238:1 248:1 282:1 288:1 391:1 457:1 487:1 529:1 555:1 756:1 778:1 808:1 904:1 1168:1 1178:1 1363:1 1376:1 1378:1 1556:1 1711:1 1956:1 1986:1 2348:1 2421:1 2629:1 2779:1 3047:1 3114:1 3433:1 3447:1 3478:1 3768:1 3971:1 4593:1 4792:1 5163:1 5264:1 5671:1 5672:1 5673:1 5674:1 5675:1 5676:1 5677:1 5678:1 5679:1 5680:1 5681:1 5682:1 5683:1 5684:1 5685:1 5686:1 5687:1 5688:1 5689:1 5690:1 5691:1 5692:1 
0.4876885300965726 21:1 23:1 142:1 180:1 189:1 206:1 218:1 219:1 407:1 421:1 487:1 501:1 534:1 584:1 590:1 591:1 776:1 789:1 790:1 808:1 1012:1 1017:1 1097:1 1396:1 1612:1 1732:1 2985:1 3018:1 3112:1 3250:1 4743:1 4804:1 4932:1 5002:1 5210:1 5740:1 5741:1 5742:1 5743:1 5744:1 5745:1 5746:1 5747:1 
0.109032784710828 0:1 16:1 17:1 18:1 123:1 165:1 255:1 378:1 649:1 781:1 863:1 1369:1 1376:1 1488:1 1527:1 1659:1 1973:1 2183:1 2192:1 2435:1 2514:1 3159:1 3255:1 3413:1 3462:1 3473:1 3994:1 5440:1 5764:1 5765:1 5766:1 5767:1 5768:1 5769:1 5770:1 5771:1 5772:1 5773:1 5774:1 
0.006213889885504649 0:1 4:1 23:1 68:1 74:1 129:1 172:1 227:1 238:1 315:1 354:1 361:1 379:1 487:1 499:1 625:1 631:1 764:1 787:1 799:1 830:1 901:1 1075:1 1465:1 1886:1 2104:1 2348:1 2530:1 2604:1 2764:1 2874:1 3023:1 3190:1 3288:1 3332:1 4250:1 5059:1 5106:1 5717:1 5777:1 5778:1 5779:1 5780:1 5781:1 5782:1 5783:1 5784:1 
0.8493987520586074 48:1 49:1 58:1 67:1 166:1 208:1 499:1 676:1 688:1 1020:1 1021:1 1022:1 1248:1 1326:1 1379:1 1489:1 1782:1 3249:1 3829:1 5736:1 5785:1 5786:1 5787:1 
0.15443357374867 1:1 4:1 26:1 39:1 55:1 61:1 63:1 68:1 90:1 98:1 120:1 148:1 150:1 155:1 166:1 174:1 189:1 195:1 222:1 227:1 237:1 254:1 255:1 272:1 287:1 295:1 308:1 322:1 325:1 358:1 367:1 379:1 386:1 387:1 421:1 439:1 441:1 482:1 483:1 487:1 548:1 584:1 647:1 665:1 688:1 756:1 778:1 803:1 808:1 850:1 851:1 914:1 963:1 991:1 994:1 1017:1 1103:1 1113:1 1306:1 1327:1 1371:1 1374:1 1454:1 1462:1 1464:1 1578:1 1647:1 1738:1 1755:1 1771:1 1853:1 1963:1 1975:1 2013:1 2086:1 2338:1 2507:1 2966:1 3011:1 3232:1 3332:1 3391:1 3764:1 4038:1 4097:1 4141:1 4294:1 5028:1 5442:1 5544:1 5777:1 5804:1 5805:1 5806:1 5807:1 5808:1 5809:1 5810:1 5811:1 5812:1 5813:1 5814:1 5815:1 5816:1 5817:1 5818:1 5819:1 5820:1 5821:1 
0.03475798170414038 459:1 533:1 1021:1 1022:1 1516:1 1834:1 4317:1 4730:1 5840:1 5846:1 5847:1 5848:1 5849:1 5850:1 5851:1 5852:1 5853:1 5854:1 5855:1 5856:1 5857:1 5858:1 5859:1 5860:1 5861:1 5862:1 5863:1 5864:1 5865:1 5866:1 5867:1 5868:1 
0.0893534591015878 23:1 26:1 39:1 155:1 166:1 169:1 179:1 189:1 190:1 255:1 272:1 367:1 387:1 395:1 439:1 475:1 612:1 781:1 886:1 913:1 921:1 1015:1 1118:1 1680:1 1799:1 1891:1 2872:1 2883:1 3031:1 5899:1 5900:1 5901:1 5902:1 5903:1 5904:1 5905:1 5906:1 
0.5390029221862996 23:1 37:1 41:1 142:1 154:1 335:1 395:1 457:1 466:1 535:1 605:1 612:1 621:1 733:1 1369:1 1899:1 2028:1 2519:1 3447:1 3754:1 4574:1 5931:1 5932:1 5933:1 5934:1 5935:1 5936:1 
0.2176352928941466 23:1 42:1 48:1 145:1 189:1 219:1 237:1 238:1 361:1 437:1 439:1 590:1 612:1 657:1 786:1 801:1 1877:1 2038:1 2314:1 2677:1 3306:1 3875:1 4036:1 6015:1 6016:1 
0.1571668525133127 14:1 148:1 256:1 268:1 342:1 386:1 526:1 778:1 841:1 1259:1 1587:1 1915:1 2016:1 3227:1 3924:1 3926:1 3933:1 6064:1 
0.0496227618217159 16:1 18:1 90:1 142:1 178:1 179:1 193:1 308:1 428:1 625:1 778:1 839:1 1014:1 1373:1 1747:1 3558:1 5935:1 6069:1 
0.2070282187300912 4:1 10:1 21:1 129:1 135:1 145:1 155:1 166:1 180:1 189:1 222:1 295:1 329:1 368:1 771:1 805:1 870:1 959:1 994:1 1373:1 1396:1 1868:1 2020:1 2042:1 2078:1 2640:1 2684:1 3246:1 4919:1 5003:1 5440:1 6070:1 6071:1 6072:1 6073:1 6074:1 6075:1 6076:1 
0.1864135005893212 163:1 166:1 222:1 265:1 383:1 407:1 482:1 515:1 548:1 550:1 737:1 1476:1 2123:1 2126:1 2127:1 2475:1 6095:1 6096:1 
0.04202376073845767 23:1 37:1 63:1 67:1 227:1 284:1 371:1 375:1 860:1 919:1 1035:1 1193:1 1194:1 1324:1 1451:1 1475:1 1544:1 2604:1 2629:1 2678:1 3283:1 3327:1 3434:1 3665:1 5625:1 6097:1 6098:1 6099:1 6100:1 6101:1 6102:1 6103:1 6104:1 6105:1 6106:1 6107:1 6108:1 6109:1 6110:1 6111:1 6112:1 6113:1 6114:1 
0.00919286325786909 10:1 21:1 25:1 61:1 65:1 163:1 165:1 255:1 265:1 284:1 406:1 463:1 533:1 1435:1 1520:1 1558:1 3541:1 3623:1 3742:1 3760:1 5052:1 6118:1 
0.3043933410481586 58:1 71:1 94:1 98:1 174:1 354:1 355:1 482:1 715:1 771:1 1103:1 1243:1 1244:1 1853:1 2507:1 6119:1 6120:1 
0.1151577780869513 0:1 79:1 165:1 189:1 323:1 342:1 366:1 371:1 822:1 1883:1 2327:1 2698:1 5599:1 6137:1 
0.1075722438205698 0:1 48:1 63:1 102:1 104:1 127:1 189:1 238:1 308:1 475:1 495:1 501:1 578:1 1009:1 1076:1 1225:1 1298:1 1389:1 1804:1 1883:1 2033:1 2787:1 4335:1 4820:1 5896:1 6045:1 6145:1 6146:1 6147:1 6148:1 6149:1 6150:1 6151:1 6152:1 6153:1 6154:1 6155:1 6156:1 
0.005077280673226318 17:1 37:1 65:1 242:1 272:1 572:1 718:1 787:1 969:1 1218:1 1395:1 1415:1 1667:1 1721:1 1862:1 2282:1 2847:1 3161:1 3361:1 3675:1 4015:1 5480:1 6158:1 6159:1 6160:1 6161:1 6162:1 6163:1 6164:1 6165:1 6166:1 6167:1 6168:1 
0.00695460871460452 10:1 18:1 21:1 94:1 119:1 136:1 145:1 153:1 154:1 155:1 189:1 237:1 248:1 288:1 335:1 368:1 407:1 446:1 470:1 660:1 804:1 806:1 1014:1 1202:1 1224:1 1259:1 1278:1 1279:1 1339:1 1408:1 1412:1 1527:1 2018:1 2022:1 2203:1 2315:1 2605:1 2951:1 3949:1 4521:1 5078:1 5477:1 5706:1 6238:1 6239:1 6240:1 6241:1 6242:1 6243:1 6244:1 6245:1 6246:1 6247:1 6248:1 6249:1 6250:1 6251:1 6252:1 
0.05373961648600903 2:1 4:1 39:1 41:1 55:1 56:1 71:1 78:1 81:1 104:1 120:1 129:1 155:1 212:1 256:1 267:1 366:1 375:1 419:1 482:1 518:1 598:1 627:1 677:1 846:1 1017:1 1062:1 1224:1 1396:1 1441:1 1462:1 1475:1 1782:1 2593:1 3036:1 3054:1 3361:1 3545:1 5815:1 6290:1 6291:1 6292:1 6293:1 6294:1 6295:1 6296:1 6297:1 6298:1 6299:1 6300:1 
0.09897232195989372 0:1 4:1 7:1 226:1 349:1 581:1 677:1 686:1 803:1 888:1 1035:1 1378:1 1666:1 2088:1 3143:1 4948:1 5814:1 6322:1 
0.02077634325212356 5:1 40:1 135:1 163:1 165:1 166:1 236:1 595:1 1166:1 1807:1 2104:1 2330:1 6354:1 6355:1 
0.0350443135043863 16:1 18:1 27:1 155:1 175:1 236:1 256:1 482:1 581:1 626:1 1489:1 2698:1 3727:1 6358:1 6359:1 
0.1105320780396371 1:1 23:1 58:1 198:1 385:1 419:1 439:1 441:1 550:1 731:1 778:1 951:1 1011:1 1267:1 1374:1 1877:1 2090:1 2982:1 3875:1 3971:1 6378:1 6379:1 
0.01536944164056393 1:1 21:1 23:1 39:1 63:1 98:1 136:1 145:1 151:1 154:1 162:1 166:1 189:1 223:1 254:1 255:1 291:1 295:1 298:1 310:1 323:1 358:1 361:1 368:1 375:1 391:1 427:1 495:1 513:1 520:1 565:1 627:1 677:1 821:1 841:1 860:1 882:1 902:1 934:1 1009:1 1016:1 1017:1 1166:1 1333:1 1453:1 1466:1 1520:1 1862:1 1948:1 2030:1 2085:1 2091:1 2151:1 2245:1 2287:1 2715:1 2871:1 3648:1 3713:1 3933:1 4171:1 4245:1 4614:1 5259:1 5420:1 6059:1 6380:1 6381:1 6382:1 6383:1 6384:1 6385:1 6386:1 6387:1 6388:1 
0.01714920903735302 0:1 6:1 10:1 26:1 178:1 207:1 214:1 219:1 308:1 349:1 501:1 830:1 1076:1 1266:1 2058:1 2593:1 2914:1 3163:1 3759:1 3819:1 5250:1 6408:1 6409:1 6410:1 6411:1 6412:1 6413:1 6414:1 6415:1 
0.04068987030190004 1:1 6:1 10:1 23:1 46:1 55:1 63:1 135:1 145:1 155:1 163:1 165:1 166:1 208:1 226:1 238:1 245:1 256:1 270:1 292:1 295:1 398:1 499:1 526:1 595:1 796:1 946:1 1156:1 1207:1 2113:1 2182:1 2893:1 4015:1 6440:1 6441:1 6442:1 6443:1 6444:1 6445:1 
0.3718725450238529 4:1 43:1 55:1 324:1 386:1 387:1 391:1 592:1 705:1 814:1 1466:1 2718:1 3306:1 6446:1 6447:1 
0.05680069287235198 0:1 129:1 166:1 289:1 447:1 482:1 673:1 6493:1 6494:1 6495:1 6496:1 6497:1 6498:1 6499:1 6500:1 6501:1 6502:1 6503:1 
1.873993265932829 4:1 21:1 30:1 55:1 74:1 145:1 180:1 237:1 254:1 272:1 315:1 334:1 361:1 407:1 519:1 1373:1 1522:1 1734:1 1962:1 3501:1 
0.0695203997022155 30:1 49:1 74:1 145:1 174:1 201:1 214:1 226:1 292:1 296:1 302:1 304:1 314:1 318:1 385:1 396:1 425:1 466:1 701:1 705:1 761:1 1063:1 1087:1 2064:1 3198:1 3509:1 3703:1 6584:1 6585:1 6586:1 6587:1 
0.005826906771980174 10:1 16:1 26:1 78:1 81:1 150:1 155:1 190:1 222:1 238:1 386:1 418:1 547:1 595:1 625:1 626:1 677:1 705:1 731:1 790:1 847:1 943:1 1193:1 1668:1 2419:1 2542:1 2673:1 2734:1 2777:1 3198:1 3545:1 3629:1 4461:1 6074:1 6257:1 6612:1 6613:1 6614:1 6615:1 6616:1 6617:1 6618:1 6619:1 6620:1 6621:1 
0.03134501277296417 4:1 23:1 24:1 26:1 48:1 56:1 135:1 189:1 198:1 212:1 218:1 258:1 295:1 306:1 308:1 579:1 626:1 1076:1 1193:1 1500:1 1780:1 1782:1 1799:1 1877:1 2734:1 2852:1 3089:1 3585:1 4141:1 4356:1 4677:1 5046:1 5368:1 6630:1 6631:1 6632:1 6633:1 6634:1 6635:1 6636:1 
0.0906425491400857 178:1 228:1 299:1 1183:1 5693:1 6650:1 6651:1 
0.0007617598377347781 1579:1 6652:1 6653:1 6654:1 6655:1 6656:1 
0.06757347154897028 26:1 145:1 148:1 155:1 165:1 166:1 272:1 280:1 289:1 298:1 371:1 467:1 548:1 625:1 741:1 849:1 862:1 1365:1 1421:1 1785:1 1977:1 2193:1 2281:1 2954:1 3238:1 3409:1 4125:1 6696:1 6697:1 6698:1 6699:1 6700:1 6701:1 6702:1 6703:1 
0.1251381391406989 10:1 163:1 166:1 208:1 238:1 240:1 255:1 288:1 334:1 591:1 664:1 832:1 867:1 1107:1 1475:1 2700:1 3066:1 3107:1 3191:1 3687:1 3786:1 4486:1 4792:1 5211:1 6027:1 6434:1 6710:1 6711:1 6712:1 6713:1 6714:1 6715:1 6716:1 6717:1 6718:1 6719:1 6720:1 6721:1 6722:1 6723:1 6724:1 6725:1 6726:1 6727:1 6728:1 6729:1 6730:1 6731:1 6732:1 6733:1 6734:1 6735:1 6736:1 6737:1 6738:1 
4 165:1 208:1 270:1 271:1 
0.01458532410596417 4:1 161:1 166:1 195:1 208:1 214:1 254:1 518:1 1173:1 1710:1 2015:1 2773:1 3616:1 4766:1 6759:1 6760:1 6761:1 
0.06878164152463365 5:1 14:1 166:1 368:1 391:1 741:1 1009:1 1024:1 1922:1 2069:1 2764:1 2830:1 2997:1 3237:1 3526:1 3852:1 5519:1 6585:1 6773:1 6774:1 6775:1 6776:1 6777:1 6778:1 6779:1 6780:1 6781:1 
0.03254419710731955 4:1 18:1 30:1 98:1 189:1 222:1 295:1 308:1 319:1 323:1 334:1 361:1 375:1 406:1 677:1 875:1 881:1 911:1 1160:1 1732:1 3529:1 3825:1 4329:1 5459:1 6801:1 6802:1 6803:1 6804:1 6805:1 6806:1 6807:1 
0.3033384748044068 0:1 4:1 16:1 23:1 166:1 368:1 387:1 443:1 558:1 626:1 1056:1 1224:1 2006:1 2583:1 3239:1 3578:1 4460:1 5166:1 5188:1 5659:1 6838:1 6839:1 6840:1 
0.1611938232278134 232:1 360:1 449:1 715:1 759:1 823:1 1183:1 3330:1 6899:1 6900:1 6901:1 6902:1 6903:1 6904:1 6905:1 6906:1 
0.1160007124441232 4:1 23:1 63:1 74:1 89:1 142:1 149:1 165:1 236:1 283:1 342:1 395:1 421:1 475:1 830:1 913:1 1244:1 1266:1 1389:1 2175:1 2386:1 2423:1 3689:1 5113:1 5939:1 6925:1 6926:1 
0.03926164456513458 0:1 4:1 5:1 37:1 48:1 58:1 120:1 132:1 148:1 149:1 167:1 270:1 295:1 308:1 368:1 482:1 677:1 678:1 790:1 1172:1 1755:1 2982:1 3738:1 7036:1 7054:1 
0.1144672472958455 0:1 149:1 163:1 165:1 166:1 179:1 189:1 222:1 272:1 342:1 367:1 375:1 407:1 519:1 890:1 1196:1 1933:1 3633:1 3737:1 7063:1 7064:1 7065:1 7066:1 
0.06881682171248636 10:1 15:1 39:1 165:1 190:1 272:1 334:1 443:1 465:1 1459:1 2677:1 3400:1 3846:1 7067:1 
0.02324191102093282 149:1 165:1 494:1 568:1 1364:1 3462:1 3699:1 4725:1 4763:1 7081:1 7082:1 7083:1 7084:1 7085:1 
0.05064472425703431 4:1 21:1 23:1 37:1 56:1 63:1 145:1 167:1 180:1 306:1 391:1 446:1 548:1 561:1 562:1 564:1 671:1 877:1 1522:1 2142:1 2231:1 2678:1 2973:1 5585:1 6380:1 
0.04850683023344615 179:1 190:1 232:1 238:1 334:1 3424:1 3425:1 4808:1 7152:1 7153:1 7154:1 7155:1 
0.1635341881371063 1:1 148:1 198:1 283:1 355:1 379:1 613:1 712:1 715:1 841:1 1199:1 1361:1 1962:1 2203:1 3635:1 4054:1 6770:1 7236:1 7237:1 7238:1 
0.06632919504568249 5:1 30:1 49:1 77:1 98:1 136:1 151:1 223:1 347:1 406:1 441:1 677:1 678:1 695:1 1340:1 1363:1 1721:1 1864:1 2012:1 2118:1 2347:1 2640:1 2845:1 7084:1 7300:1 7301:1 7302:1 
0.09681597526983736 23:1 56:1 74:1 95:1 165:1 232:1 251:1 292:1 494:1 626:1 649:1 686:1 732:1 866:1 1100:1 2058:1 3455:1 4067:1 7378:1 7379:1 
0.08128655087575748 4:1 90:1 92:1 131:1 163:1 166:1 176:1 190:1 201:1 219:1 256:1 289:1 717:1 1306:1 1395:1 1509:1 3055:1 3359:1 3691:1 4914:1 5408:1 5568:1 5570:1 6097:1 6798:1 7384:1 7385:1 7386:1 7387:1 7388:1 7389:1 7390:1 
0.3450371979834149 10:1 21:1 23:1 30:1 41:1 48:1 145:1 255:1 302:1 320:1 375:1 377:1 395:1 491:1 501:1 515:1 597:1 1020:1 1021:1 1022:1 1326:1 1465:1 1474:1 1522:1 1546:1 1647:1 2087:1 2129:1 
0.1204495967260496 23:1 63:1 94:1 102:1 117:1 135:1 142:1 189:1 190:1 195:1 198:1 214:1 219:1 221:1 238:1 255:1 282:1 287:1 359:1 375:1 391:1 428:1 431:1 467:1 495:1 555:1 586:1 591:1 612:1 804:1 887:1 911:1 963:1 1006:1 1152:1 1158:1 1248:1 1390:1 1435:1 1594:1 1782:1 1903:1 1907:1 1914:1 1933:1 1962:1 2159:1 2736:1 3022:1 3071:1 3346:1 3389:1 3470:1 3552:1 3733:1 3796:1 4241:1 4982:1 5820:1 6074:1 7391:1 7392:1 7393:1 7394:1 7395:1 7396:1 7397:1 7398:1 7399:1 7400:1 7401:1 7402:1 7403:1 7404:1 7405:1 7406:1 7407:1 7408:1 7409:1 7410:1 
0.2579442927575396 5:1 21:1 44:1 53:1 91:1 113:1 161:1 178:1 587:1 829:1 851:1 2075:1 5084:1 7435:1 
0.1485933279974835 0:1 56:1 63:1 129:1 166:1 214:1 677:1 806:1 825:1 919:1 940:1 1034:1 1094:1 1151:1 1389:1 2396:1 2660:1 2915:1 2951:1 5121:1 6239:1 7517:1 
0.1039845184609775 4:1 17:1 21:1 23:1 30:1 39:1 44:1 46:1 49:1 51:1 63:1 65:1 74:1 77:1 99:1 102:1 105:1 117:1 130:1 142:1 144:1 155:1 158:1 174:1 189:1 198:1 201:1 206:1 223:1 227:1 255:1 284:1 295:1 296:1 315:1 323:1 342:1 362:1 386:1 387:1 390:1 470:1 484:1 487:1 495:1 548:1 561:1 576:1 580:1 581:1 582:1 613:1 617:1 625:1 649:1 695:1 704:1 708:1 731:1 786:1 787:1 790:1 794:1 799:1 959:1 1005:1 1006:1 1052:1 1069:1 1100:1 1103:1 1221:1 1276:1 1284:1 1291:1 1361:1 1395:1 1475:1 1522:1 1548:1 1593:1 1659:1 1685:1 1721:1 1776:1 1782:1 1797:1 1864:1 1886:1 1905:1 1912:1 1982:1 2029:1 2039:1 2151:1 2185:1 2243:1 2246:1 2250:1 2324:1 2388:1 2641:1 2697:1 2720:1 2742:1 2745:1 2747:1 2848:1 3093:1 3137:1 3349:1 3455:1 3558:1 3709:1 3733:1 3761:1 3783:1 3786:1 3812:1 3865:1 4005:1 4067:1 4182:1 4521:1 4577:1 5025:1 5202:1 5224:1 5426:1 6209:1 6664:1 6690:1 6726:1 6859:1 6885:1 6898:1 7326:1 7485:1 7546:1 7547:1 7548:1 7549:1 7550:1 7551:1 7552:1 7553:1 7554:1 7555:1 7556:1 7557:1 7558:1 7559:1 7560:1 7561:1 7562:1 7563:1 7564:1 7565:1 7566:1 7567:1 7568:1 7569:1 7570:1 7571:1 7572:1 7573:1 7574:1 7575:1 
0.001604657751552771 0:1 26:1 169:1 221:1 225:1 285:1 308:1 323:1 431:1 451:1 550:1 655:1 657:1 808:1 881:1 898:1 959:1 1028:1 1099:1 1107:1 1244:1 1248:1 2042:1 2072:1 2673:1 2779:1 2872:1 3048:1 3733:1 3967:1 4811:1 5627:1 6223:1 6440:1 6454:1 6589:1 6691:1 6759:1 7605:1 7606:1 7607:1 7608:1 7609:1 7610:1 
0.1405327619211152 0:1 2:1 21:1 90:1 178:1 254:1 272:1 396:1 421:1 796:1 799:1 1020:1 1021:1 1022:1 1098:1 1100:1 1318:1 1326:1 1922:1 1962:1 2483:1 7616:1 7617:1 7618:1 7619:1 
0.2840567851606787 142:1 198:1 368:1 399:1 503:1 595:1 1076:1 1204:1 1246:1 1293:1 1337:1 1371:1 1488:1 1647:1 1659:1 2375:1 4359:1 4805:1 6119:1 7243:1 7722:1 7723:1 7724:1 7725:1 7726:1 
0.2538152697045077 0:1 4:1 16:1 74:1 155:1 189:1 219:1 272:1 282:1 386:1 387:1 466:1 548:1 663:1 677:1 695:1 700:1 830:1 858:1 1082:1 1125:1 1526:1 2058:1 7765:1 7766:1 7767:1 
0.04917070197322317 1:1 4:1 10:1 17:1 21:1 30:1 40:1 41:1 47:1 51:1 58:1 63:1 68:1 77:1 90:1 93:1 148:1 166:1 178:1 189:1 190:1 222:1 238:1 246:1 284:1 286:1 295:1 324:1 354:1 358:1 421:1 441:1 446:1 467:1 487:1 501:1 592:1 612:1 627:1 640:1 666:1 771:1 778:1 781:1 782:1 786:1 802:1 810:1 829:1 830:1 889:1 920:1 1038:1 1042:1 1098:1 1118:1 1121:1 1189:1 1306:1 1381:1 1387:1 1390:1 1425:1 1447:1 1454:1 1455:1 1524:1 1533:1 1612:1 1649:1 1676:1 1711:1 1760:1 1806:1 1886:1 1963:1 1989:1 2156:1 2159:1 2209:1 2213:1 2231:1 2250:1 2373:1 2435:1 2497:1 2507:1 2678:1 2777:1 2831:1 2872:1 3031:1 3226:1 3246:1 3386:1 3389:1 3438:1 3439:1 3624:1 3803:1 4030:1 4141:1 4199:1 4314:1 4419:1 4446:1 4637:1 4643:1 5028:1 5095:1 5345:1 5430:1 6108:1 6638:1 7103:1 7771:1 7772:1 7773:1 7774:1 7775:1 7776:1 7777:1 7778:1 7779:1 7780:1 7781:1 7782:1 7783:1 7784:1 7785:1 7786:1 7787:1 7788:1 7789:1 7790:1 7791:1 7792:1 7793:1 7794:1 7795:1 7796:1 7797:1 7798:1 7799:1 7800:1 7801:1 7802:1 7803:1 7804:1 7805:1 7806:1 7807:1 7808:1 7809:1 7810:1 7811:1 7812:1 7813:1 7814:1 7815:1 7816:1 7817:1 7818:1 7819:1 7820:1 7821:1 7822:1 7823:1 7824:1 
0.2079692724121631 21:1 48:1 55:1 58:1 120:1 255:1 280:1 862:1 1489:1 3129:1 3402:1 3585:1 4374:1 4460:1 7825:1 7826:1 
0.1647042423291198 10:1 46:1 51:1 117:1 165:1 166:1 214:1 219:1 222:1 226:1 375:1 377:1 404:1 441:1 688:1 794:1 803:1 879:1 959:1 1035:1 1287:1 1445:1 1520:1 2925:1 3230:1 3856:1 5022:1 7136:1 7908:1 7909:1 7910:1 7911:1 7912:1 7913:1 7914:1 
0.5597165494370722 5:1 358:1 1073:1 1107:1 2945:1 3445:1 4174:1 5236:1 7962:1 7963:1 7964:1 7965:1 
0.06088369777340415 5:1 21:1 37:1 113:1 145:1 378:1 383:1 483:1 548:1 630:1 726:1 796:1 904:1 1659:1 1669:1 1853:1 1886:1 2086:1 2113:1 2351:1 4693:1 4771:1 6559:1 7966:1 7967:1 7968:1 
0.09914250538001618 23:1 46:1 48:1 49:1 69:1 129:1 149:1 162:1 166:1 184:1 232:1 272:1 328:1 386:1 387:1 421:1 457:1 466:1 584:1 799:1 845:1 847:1 875:1 991:1 994:1 1173:1 1280:1 1564:1 1726:1 1766:1 1782:1 1792:1 1868:1 2008:1 2047:1 2185:1 2682:1 2978:1 3329:1 3360:1 3579:1 3764:1 4219:1 4775:1 4872:1 4968:1 6013:1 7095:1 7445:1 7969:1 7970:1 7971:1 7972:1 7973:1 7974:1 
0.02896764759884735 0:1 5:1 49:1 56:1 58:1 92:1 166:1 174:1 178:1 190:1 214:1 323:1 336:1 354:1 550:1 653:1 667:1 677:1 729:1 860:1 1009:1 1183:1 1666:1 1876:1 2365:1 2388:1 2779:1 3662:1 3801:1 3846:1 3881:1 3996:1 5242:1 5787:1 6229:1 7975:1 7976:1 7977:1 7978:1 7979:1 7980:1 7981:1 7982:1 7983:1 7984:1 
0.1278384846139164 18:1 21:1 67:1 90:1 136:1 148:1 272:1 310:1 347:1 428:1 441:1 482:1 541:1 554:1 751:1 841:1 1012:1 1098:1 1118:1 1527:1 2156:1 2351:1 2739:1 5377:1 8037:1 8038:1 8039:1 
0.08056579061364012 120:1 142:1 148:1 151:1 174:1 282:1 406:1 441:1 623:1 829:1 1500:1 1971:1 1972:1 1985:1 3738:1 6278:1 8050:1 
0.4140409338362476 23:1 48:1 155:1 166:1 383:1 482:1 503:1 704:1 804:1 1005:1 1374:1 1646:1 3558:1 5926:1 5927:1 8008:1 8057:1 8058:1 
0.176168831339768 23:1 51:1 56:1 61:1 76:1 135:1 179:1 625:1 849:1 1548:1 1614:1 1946:1 2116:1 2729:1 3558:1 3927:1 4765:1 5190:1 5191:1 5321:1 5443:1 6409:1 8089:1 8090:1 
0.02770808662821412 10:1 17:1 21:1 26:1 46:1 63:1 87:1 94:1 145:1 166:1 178:1 228:1 237:1 255:1 299:1 305:1 310:1 311:1 312:1 313:1 326:1 327:1 328:1 329:1 349:1 368:1 375:1 482:1 528:1 586:1 661:1 729:1 798:1 860:1 917:1 932:1 953:1 1090:1 1293:1 1644:1 1830:1 2017:1 2018:1 2069:1 2086:1 2118:1 2250:1 2708:1 3184:1 3979:1 4314:1 5202:1 5746:1 5898:1 6989:1 7393:1 7894:1 8154:1 8155:1 8156:1 8157:1 8158:1 8159:1 8160:1 8161:1 8162:1 
0.1689023061771532 174:1 181:1 189:1 238:1 295:1 487:1 595:1 625:1 695:1 853:1 1092:1 1575:1 1774:1 2760:1 3035:1 4105:1 5833:1 6061:1 8175:1 8176:1 8177:1 8178:1 8179:1 8180:1 
0.02337001202172947 6:1 10:1 21:1 56:1 98:1 145:1 163:1 165:1 166:1 189:1 222:1 306:1 623:1 880:1 946:1 1207:1 1231:1 1380:1 2047:1 2141:1 2557:1 2864:1 5483:1 6139:1 8192:1 
0.06962891557912079 15:1 49:1 63:1 90:1 292:1 297:1 308:1 356:1 406:1 439:1 494:1 796:1 808:1 928:1 990:1 994:1 1103:1 1647:1 3025:1 3301:1 4298:1 6337:1 6436:1 7063:1 8201:1 8202:1 8203:1 8204:1 8205:1 
0.01885288275878416 21:1 68:1 71:1 142:1 150:1 155:1 166:1 181:1 214:1 255:1 256:1 270:1 282:1 446:1 482:1 491:1 501:1 529:1 586:1 803:1 804:1 866:1 1009:1 1039:1 1113:1 1336:1 1473:1 1550:1 1806:1 1830:1 2281:1 3240:1 3439:1 4465:1 5112:1 8253:1 8254:1 8255:1 8256:1 8257:1 
0.2465760956817007 16:1 39:1 48:1 174:1 189:1 208:1 314:1 383:1 407:1 439:1 487:1 625:1 643:1 677:1 768:1 1614:1 2179:1 2317:1 2365:1 3255:1 3624:1 6594:1 7178:1 8263:1 
0.1256502095052618 71:1 94:1 178:1 223:1 255:1 256:1 272:1 419:1 422:1 441:1 457:1 466:1 1142:1 1782:1 2369:1 2393:1 2500:1 2577:1 3304:1 3384:1 3687:1 5162:1 5767:1 6435:1 8308:1 
0.2289675204660593 40:1 46:1 56:1 63:1 165:1 166:1 180:1 218:1 219:1 222:1 223:1 226:1 356:1 359:1 386:1 387:1 396:1 419:1 431:1 447:1 520:1 561:1 586:1 756:1 808:1 880:1 1009:1 1016:1 1481:1 1912:1 2013:1 2605:1 3113:1 3523:1 3552:1 4496:1 5800:1 6965:1 8309:1 8310:1 8311:1 8312:1 8313:1 
0.009043937778531413 4:1 44:1 48:1 49:1 378:1 379:1 482:1 554:1 556:1 664:1 793:1 848:1 1548:1 1791:1 2158:1 2777:1 3297:1 3330:1 8319:1 8320:1 8321:1 8322:1 
1.243659331142541 10:1 55:1 155:1 227:1 503:1 523:1 572:1 663:1 768:1 847:1 1020:1 1021:1 1022:1 1103:1 1241:1 1326:1 1361:1 1363:1 1561:1 1650:1 2104:1 6625:1 8330:1 8331:1 
0.004512429076123371 4:1 10:1 16:1 33:1 37:1 55:1 82:1 136:1 155:1 163:1 165:1 179:1 183:1 208:1 211:1 225:1 238:1 268:1 270:1 271:1 289:1 320:1 334:1 342:1 354:1 390:1 396:1 421:1 465:1 484:1 499:1 523:1 548:1 592:1 612:1 769:1 778:1 924:1 994:1 997:1 1006:1 1114:1 1185:1 1276:1 1378:1 1410:1 1460:1 1466:1 1475:1 1557:1 1730:1 1797:1 2058:1 2090:1 2097:1 2144:1 2389:1 2604:1 2673:1 2700:1 3040:1 3174:1 3711:1 3819:1 3848:1 3905:1 4182:1 4482:1 4616:1 4778:1 5229:1 5695:1 5800:1 6490:1 6585:1 6687:1 7319:1 8093:1 8361:1 8362:1 8363:1 8364:1 8365:1 8366:1 8367:1 8368:1 8369:1 8370:1 8371:1 8372:1 8373:1 8374:1 8375:1 8376:1 8377:1 8378:1 8379:1 8380:1 8381:1 8382:1 8383:1 8384:1 
0.0707234244715939 22:1 25:1 37:1 55:1 102:1 115:1 232:1 319:1 418:1 428:1 447:1 705:1 845:1 1224:1 1249:1 1435:1 1558:1 2010:1 2033:1 4168:1 7270:1 8408:1 8409:1 8410:1 
0.3794401117937567 358:1 379:1 491:1 612:1 841:1 1166:1 1454:1 1592:1 1623:1 2158:1 2323:1 2569:1 3264:1 8232:1 
0.01757422856871314 0:1 2:1 5:1 166:1 315:1 334:1 361:1 366:1 474:1 499:1 536:1 547:1 613:1 790:1 1147:1 1148:1 1221:1 1277:1 1646:1 1870:1 2120:1 2213:1 2640:1 3055:1 3577:1 4007:1 4262:1 4479:1 4660:1 8488:1 8489:1 8490:1 8491:1 8492:1 8493:1 8494:1 8495:1 8496:1 8497:1 
0.03171120920030747 63:1 135:1 232:1 254:1 393:1 431:1 519:1 578:1 870:1 951:1 1439:1 3536:1 3552:1 3633:1 4543:1 8498:1 8499:1 
0.03611565215277041 163:1 166:1 278:1 334:1 499:1 649:1 677:1 875:1 2291:1 3008:1 5566:1 8395:1 8535:1 8536:1 8537:1 8538:1 8539:1 
0.3141730568988333 327:1 2467:1 
0.1857948903032675 208:1 222:1 228:1 255:1 778:1 786:1 1226:1 1635:1 8563:1 8564:1 8565:1 8566:1 8567:1 
0.289971260568603 0:1 4:1 39:1 53:1 69:1 92:1 99:1 119:1 120:1 142:1 189:1 255:1 324:1 361:1 368:1 395:1 457:1 466:1 483:1 501:1 600:1 613:1 704:1 778:1 786:1 804:1 805:1 829:1 847:1 858:1 1121:1 1259:1 1494:1 1638:1 1649:1 1731:1 2030:1 2061:1 2090:1 2338:1 2530:1 2657:1 2673:1 2735:1 3266:1 3297:1 3322:1 3375:1 3392:1 3633:1 3781:1 4027:1 4123:1 4173:1 4312:1 4804:1 4915:1 7109:1 7449:1 7797:1 8584:1 8585:1 8586:1 8587:1 
0.125482355412954 0:1 40:1 48:1 63:1 65:1 98:1 272:1 334:1 342:1 382:1 495:1 796:1 799:1 803:1 974:1 1291:1 1306:1 1942:1 2118:1 2179:1 2273:1 4514:1 4656:1 4804:1 5647:1 7313:1 8625:1 8626:1 8627:1 8628:1 8629:1 8630:1 8631:1 
0.08581846652675486 91:1 129:1 130:1 135:1 208:1 214:1 256:1 358:1 377:1 399:1 503:1 612:1 751:1 790:1 804:1 827:1 1017:1 1183:1 1365:1 1548:1 2338:1 2827:1 3933:1 4231:1 4240:1 4407:1 5120:1 6044:1 8633:1 8634:1 8635:1 
0.07932393495629297 21:1 53:1 63:1 90:1 148:1 150:1 198:1 237:1 248:1 255:1 295:1 296:1 298:1 348:1 388:1 517:1 652:1 803:1 857:1 860:1 1138:1 1562:1 1621:1 1947:1 2995:1 4735:1 4804:1 4849:1 6159:1 7595:1 8663:1 
0.5624844845942752 17:1 90:1 123:1 189:1 368:1 425:1 466:1 513:1 558:1 805:1 1279:1 2090:1 5015:1 7789:1 8088:1 8664:1 8665:1 
0.1404640964673186 37:1 63:1 163:1 295:1 378:1 441:1 546:1 751:1 1281:1 1578:1 2978:1 3991:1 3996:1 6157:1 8693:1 8694:1 
0.1252880831811775 23:1 63:1 102:1 189:1 199:1 256:1 375:1 587:1 799:1 846:1 858:1 1084:1 1123:1 1548:1 1728:1 2735:1 2779:1 3439:1 4123:1 5237:1 5264:1 6761:1 8715:1 8716:1 8717:1 8718:1 8719:1 
0.3678097557247047 4:1 21:1 25:1 91:1 135:1 165:1 190:1 272:1 284:1 407:1 487:1 499:1 625:1 649:1 875:1 1020:1 1021:1 1022:1 1023:1 1224:1 2058:1 3025:1 3417:1 3523:1 5358:1 5423:1 6589:1 7381:1 8815:1 8816:1 
0.01308407540845784 163:1 165:1 166:1 222:1 226:1 271:1 421:1 778:1 806:1 1651:1 1739:1 1871:1 1983:1 2423:1 3133:1 3579:1 3689:1 5216:1 8504:1 8851:1 8852:1 8853:1 
0.6636090198827184 65:1 120:1 237:1 375:1 400:1 446:1 795:1 803:1 841:1 1020:1 1021:1 1022:1 1207:1 1208:1 1326:1 2034:1 2069:1 2676:1 3353:1 3837:1 4013:1 5427:1 6278:1 
0.05170254407822835 117:1 179:1 238:1 391:1 594:1 737:1 799:1 1062:1 1115:1 1551:1 1877:1 2779:1 3113:1 6606:1 8979:1 8980:1 8981:1 
0.05314164512976741 38:1 165:1 208:1 223:1 334:1 345:1 483:1 756:1 778:1 1230:1 1277:1 1955:1 3219:1 6381:1 8985:1 8986:1 8987:1 8988:1 
0.03914552335469931 0:1 39:1 44:1 142:1 148:1 153:1 158:1 165:1 166:1 180:1 198:1 219:1 272:1 306:1 355:1 368:1 446:1 483:1 484:1 519:1 613:1 660:1 686:1 787:1 789:1 796:1 841:1 866:1 1266:1 1364:1 1453:1 1670:1 1738:1 1962:1 2015:1 2070:1 2228:1 2321:1 2546:1 2593:1 2925:1 3293:1 3516:1 3742:1 3760:1 3924:1 3933:1 4359:1 5610:1 6434:1 7520:1 8525:1 8810:1 9056:1 9057:1 9058:1 9059:1 9060:1 9061:1 9062:1 9063:1 9064:1 9065:1 9066:1 9067:1 9068:1 9069:1 
0.3587702498911141 21:1 165:1 166:1 265:1 319:1 499:1 778:1 1373:1 1388:1 1389:1 1669:1 2822:1 4106:1 7704:1 9092:1 
0.03783295341465787 0:1 16:1 39:1 102:1 190:1 295:1 568:1 605:1 612:1 705:1 990:1 997:1 3396:1 3519:1 3738:1 3868:1 4054:1 5259:1 5665:1 5912:1 6071:1 6447:1 6567:1 9123:1 
0.1233854342252786 2:1 10:1 16:1 23:1 26:1 208:1 232:1 334:1 406:1 417:1 499:1 612:1 789:1 796:1 923:1 1166:1 1170:1 1380:1 1454:1 1638:1 1661:1 1771:1 2140:1 2411:1 2787:1 3350:1 3633:1 4097:1 7234:1 8573:1 9161:1 9162:1 9163:1 9164:1 9165:1 9166:1 9167:1 
0.1641863865644216 0:1 74:1 98:1 102:1 117:1 148:1 165:1 179:1 268:1 292:1 400:1 431:1 484:1 487:1 494:1 497:1 745:1 1137:1 1207:1 1472:1 2012:1 2058:1 2507:1 3025:1 3514:1 5475:1 9212:1 9213:1 
0.3303644547189413 189:1 226:1 382:1 383:1 2027:1 9214:1 9215:1 9216:1 
0.2058450933965004 0:1 1:1 2:1 10:1 37:1 55:1 63:1 179:1 193:1 223:1 238:1 255:1 342:1 345:1 362:1 396:1 422:1 548:1 587:1 612:1 688:1 715:1 778:1 789:1 849:1 902:1 1013:1 1103:1 1277:1 1301:1 1341:1 1454:1 1747:1 1953:1 2089:1 3031:1 3327:1 3453:1 4223:1 4248:1 4460:1 4729:1 5583:1 9259:1 9260:1 9261:1 9262:1 9263:1 9264:1 9265:1 9266:1 9267:1 
0.01438963205622045 4:1 23:1 25:1 63:1 67:1 179:1 211:1 214:1 222:1 291:1 379:1 457:1 518:1 627:1 649:1 1084:1 1087:1 1137:1 1481:1 1576:1 1785:1 1863:1 1883:1 1933:1 1962:1 1967:1 1968:1 2083:1 2507:1 2951:1 3105:1 3113:1 3227:1 3557:1 3643:1 3760:1 3770:1 3795:1 4465:1 5455:1 5476:1 9272:1 9273:1 9274:1 9275:1 9276:1 9277:1 9278:1 9279:1 9280:1 9281:1 9282:1 9283:1 9284:1 9285:1 9286:1 
0.2225294094040479 41:1 90:1 119:1 120:1 129:1 148:1 180:1 189:1 237:1 390:1 439:1 446:1 803:1 841:1 870:1 1522:1 1623:1 1670:1 4746:1 5476:1 6446:1 9443:1 
0.1024594355597279 2:1 135:1 428:1 748:1 836:1 1156:1 3107:1 4694:1 5112:1 7466:1 9444:1 9445:1 9446:1 
0.1218415488924022 0:1 44:1 526:1 626:1 677:1 759:1 766:1 1034:1 1533:1 2016:1 2978:1 3282:1 3918:1 4140:1 9450:1 9451:1 
0.1050245571961447 0:1 17:1 21:1 23:1 27:1 48:1 94:1 98:1 136:1 144:1 255:1 314:1 354:1 385:1 407:1 428:1 453:1 603:1 731:1 860:1 928:1 1005:1 1150:1 1214:1 1218:1 1734:1 2018:1 2677:1 3300:1 5736:1 6756:1 8031:1 9117:1 9464:1 9465:1 9466:1 9467:1 9468:1 
0.07437955916967748 0:1 4:1 10:1 21:1 23:1 37:1 41:1 77:1 112:1 120:1 179:1 201:1 208:1 302:1 304:1 306:1 349:1 377:1 395:1 475:1 645:1 677:1 732:1 768:1 829:1 881:1 1035:1 1047:1 1306:1 1475:1 1721:1 1963:1 2030:1 2347:1 2611:1 3930:1 4171:1 4493:1 8316:1 9489:1 9490:1 9491:1 9492:1 9493:1 
0.02676450096970038 2:1 21:1 48:1 56:1 145:1 179:1 386:1 404:1 428:1 446:1 775:1 1594:1 2723:1 3988:1 5070:1 5110:1 7208:1 9514:1 9515:1 9516:1 9517:1 9518:1 
0.152644180266011 23:1 35:1 65:1 79:1 120:1 174:1 214:1 359:1 391:1 396:1 457:1 485:1 555:1 581:1 768:1 920:1 1017:1 1117:1 2192:1 2217:1 3534:1 4132:1 5013:1 5896:1 6047:1 6511:1 7092:1 7169:1 8797:1 9531:1 9532:1 9533:1 9534:1 9535:1 
0.1157701229838335 0:1 16:1 61:1 63:1 65:1 165:1 166:1 180:1 255:1 256:1 441:1 677:1 774:1 803:1 1034:1 1435:1 1668:1 2054:1 2090:1 2182:1 3275:1 3513:1 3742:1 4415:1 7616:1 9569:1 9570:1 9571:1 
0.1910671651221746 55:1 135:1 166:1 254:1 466:1 592:1 645:1 717:1 992:1 1020:1 1021:1 1022:1 1326:1 2822:1 3509:1 4767:1 8051:1 9621:1 9622:1 9623:1 9624:1 
0.01339743216906988 0:1 23:1 26:1 39:1 165:1 166:1 256:1 277:1 323:1 649:1 732:1 1250:1 1341:1 2580:1 3622:1 3933:1 4767:1 4872:1 4900:1 4901:1 5120:1 5326:1 7041:1 9628:1 9629:1 9630:1 9631:1 
0.03505215012194027 15:1 18:1 67:1 120:1 295:1 338:1 789:1 807:1 829:1 848:1 937:1 1006:1 1147:1 1277:1 1328:1 1414:1 1646:1 1825:1 3429:1 4692:1 4804:1 7087:1 7099:1 9462:1 9642:1 9643:1 9644:1 9645:1 9646:1 9647:1 9648:1 9649:1 9650:1 9651:1 9652:1 9653:1 9654:1 9655:1 9656:1 
0.03849662897548672 129:1 166:1 178:1 223:1 334:1 677:1 695:1 734:1 1034:1 1214:1 1218:1 2101:1 2663:1 3675:1 4140:1 9664:1 9665:1 
0.2451358612764874 16:1 166:1 179:1 272:1 314:1 318:1 323:1 349:1 390:1 395:1 396:1 434:1 439:1 538:1 546:1 701:1 880:1 937:1 1138:1 1173:1 1799:1 1868:1 1983:1 2042:1 2370:1 2906:1 3903:1 4150:1 4219:1 4712:1 9687:1 9688:1 9689:1 9690:1 9691:1 9692:1 
0.02360522320436985 0:1 4:1 44:1 63:1 68:1 117:1 121:1 208:1 308:1 358:1 443:1 446:1 466:1 499:1 520:1 630:1 796:1 2122:1 2566:1 7045:1 7789:1 8892:1 9715:1 9716:1 9717:1 9718:1 
0.245681022863334 30:1 44:1 144:1 145:1 189:1 207:1 218:1 227:1 237:1 274:1 275:1 295:1 325:1 378:1 383:1 385:1 386:1 396:1 428:1 437:1 475:1 543:1 625:1 630:1 677:1 959:1 1037:1 1548:1 1741:1 1804:1 1877:1 2196:1 2283:1 2391:1 2798:1 2956:1 4219:1 5282:1 5690:1 6159:1 7387:1 7721:1 9727:1 9728:1 9729:1 9730:1 
0.1452509998324646 155:1 163:1 272:1 282:1 295:1 334:1 501:1 825:1 1453:1 1729:1 1903:1 2234:1 2423:1 2500:1 3322:1 4830:1 4831:1 5534:1 5772:1 8535:1 9771:1 9772:1 9773:1 9774:1 
0.1528380847270736 41:1 56:1 129:1 165:1 821:1 1084:1 1167:1 1318:1 7095:1 8725:1 9820:1 9821:1 
0.1638657892364618 3:1 18:1 24:1 51:1 63:1 132:1 155:1 255:1 383:1 403:1 446:1 677:1 695:1 698:1 731:1 829:1 904:1 1408:1 1462:1 1853:1 3417:1 5059:1 9858:1 9859:1 9860:1 
0.02555000607347855 5:1 6:1 10:1 16:1 18:1 37:1 40:1 46:1 49:1 98:1 123:1 129:1 165:1 178:1 222:1 228:1 242:1 299:1 305:1 308:1 310:1 311:1 312:1 313:1 326:1 327:1 328:1 329:1 427:1 443:1 482:1 483:1 626:1 643:1 664:1 677:1 787:1 825:1 880:1 1075:1 1376:1 2330:1 2611:1 2779:1 2849:1 2917:1 4329:1 4471:1 5162:1 6878:1 9874:1 9875:1 9876:1 9877:1 9878:1 9879:1 9880:1 9881:1 9882:1 9883:1 9884:1 
0.313587458940138 0:1 11:1 40:1 44:1 63:1 189:1 190:1 268:1 334:1 344:1 419:1 783:1 1062:1 1230:1 1521:1 1686:1 1952:1 2069:1 2522:1 2640:1 3396:1 5095:1 5486:1 9335:1 9894:1 9895:1 9896:1 
0.06637957454181041 58:1 119:1 120:1 358:1 421:1 431:1 441:1 781:1 834:1 904:1 1313:1 2328:1 3275:1 5162:1 7046:1 9943:1 9944:1 9945:1 9946:1 9947:1 
0.7555550459470309 23:1 26:1 48:1 55:1 65:1 179:1 208:1 209:1 302:1 304:1 515:1 1500:1 2061:1 2677:1 6288:1 9592:1 9952:1 9953:1 
0.05085379088980753 1:1 2:1 4:1 23:1 40:1 74:1 116:1 117:1 120:1 149:1 150:1 158:1 166:1 179:1 209:1 212:1 238:1 255:1 256:1 342:1 370:1 383:1 391:1 447:1 470:1 495:1 580:1 605:1 677:1 715:1 729:1 796:1 804:1 827:1 836:1 959:1 1118:1 1294:1 1297:1 1726:1 1905:1 2058:1 2660:1 3274:1 3514:1 3577:1 5324:1 5365:1 6259:1 6450:1 6863:1 9959:1 9960:1 9961:1 9962:1 9963:1 
0.009037496920879514 18:1 190:1 222:1 232:1 349:1 370:1 407:1 484:1 665:1 677:1 678:1 897:1 1325:1 1933:1 2877:1 3330:1 3439:1 4229:1 4693:1 5341:1 7801:1 8331:1 9418:1 9721:1 9965:1 9966:1 9967:1 9968:1 9969:1 9970:1 9971:1 9972:1 9973:1 9974:1 9975:1 
0.07196756666731628 11:1 98:1 129:1 136:1 145:1 151:1 180:1 186:1 189:1 236:1 317:1 322:1 368:1 383:1 425:1 446:1 466:1 778:1 825:1 1014:1 1069:1 1279:1 1533:1 1755:1 1987:1 2069:1 3354:1 3473:1 5486:1 5516:1 6452:1 6639:1 7861:1 9976:1 9977:1 9978:1 9979:1 9980:1 9981:1 
0.08537584895524036 2:1 10:1 129:1 135:1 148:1 166:1 190:1 288:1 319:1 428:1 529:1 530:1 841:1 962:1 989:1 1039:1 1084:1 1155:1 1429:1 1435:1 1505:1 1537:1 1555:1 1980:1 2204:1 2347:1 2530:1 2569:1 2604:1 2726:1 2760:1 2814:1 3731:1 3946:1 4880:1 5928:1 5960:1 6306:1 7905:1 8054:1 9987:1 9988:1 9989:1 9990:1 9991:1 9992:1 9993:1 
0.0452898896751876 56:1 71:1 85:1 148:1 155:1 189:1 238:1 246:1 280:1 292:1 497:1 521:1 529:1 1103:1 1622:1 1906:1 1929:1 2028:1 2989:1 3332:1 4692:1 4758:1 9853:1 9994:1 
0.2600747944756014 4:1 26:1 44:1 63:1 126:1 323:1 328:1 349:1 418:1 577:1 655:1 659:1 668:1 704:1 705:1 751:1 847:1 924:1 971:1 1365:1 1564:1 1806:1 1857:1 1867:1 1940:1 1961:1 2183:1 3455:1 10018:1 10019:1 
0.4315963795642539 156:1 166:1 256:1 383:1 482:1 653:1 1227:1 1240:1 1647:1 1853:1 3689:1 7109:1 7528:1 10027:1 
0.00620422464124712 0:1 4:1 24:1 37:1 39:1 41:1 56:1 74:1 78:1 81:1 100:1 109:1 111:1 120:1 136:1 158:1 174:1 178:1 180:1 201:1 226:1 240:1 245:1 257:1 289:1 310:1 315:1 341:1 358:1 368:1 390:1 419:1 428:1 473:1 475:1 487:1 497:1 499:1 544:1 550:1 572:1 577:1 579:1 580:1 677:1 678:1 688:1 695:1 735:1 794:1 845:1 862:1 904:1 911:1 994:1 1016:1 1030:1 1038:1 1054:1 1069:1 1115:1 1182:1 1193:1 1218:1 1241:1 1247:1 1287:1 1354:1 1389:1 1390:1 1414:1 1460:1 1465:1 1514:1 1548:1 1554:1 1557:1 1688:1 1848:1 1877:1 2015:1 2070:1 2098:1 2099:1 2129:1 2151:1 2189:1 2209:1 2388:1 2411:1 2500:1 2603:1 2648:1 2713:1 2719:1 2734:1 2742:1 2764:1 2777:1 2798:1 2808:1 2822:1 2830:1 2847:1 2875:1 2910:1 2978:1 3100:1 3105:1 3279:1 3587:1 3675:1 3754:1 3786:1 3819:1 3848:1 3867:1 3964:1 4014:1 4074:1 4144:1 4256:1 4329:1 4356:1 4459:1 4493:1 4533:1 4593:1 4734:1 4903:1 4904:1 4945:1 5147:1 5283:1 5368:1 5405:1 5491:1 5566:1 5665:1 5800:1 5846:1 6037:1 6252:1 6326:1 6595:1 6725:1 6812:1 6930:1 7281:1 7368:1 7654:1 7722:1 7749:1 7792:1 7847:1 8017:1 8500:1 8744:1 8754:1 8766:1 8831:1 9105:1 9218:1 9866:1 10035:1 10036:1 10037:1 10038:1 10039:1 10040:1 10041:1 10042:1 10043:1 10044:1 10045:1 10046:1 10047:1 10048:1 10049:1 10050:1 10051:1 10052:1 10053:1 10054:1 10055:1 10056:1 10057:1 10058:1 10059:1 10060:1 10061:1 10062:1 10063:1 10064:1 10065:1 10066:1 10067:1 10068:1 10069:1 10070:1 10071:1 10072:1 10073:1 10074:1 10075:1 10076:1 10077:1 10078:1 10079:1 10080:1 10081:1 10082:1 10083:1 10084:1 10085:1 10086:1 10087:1 10088:1 10089:1 10090:1 10091:1 10092:1 10093:1 10094:1 10095:1 10096:1 10097:1 10098:1 10099:1 10100:1 10101:1 10102:1 10103:1 10104:1 10105:1 10106:1 10107:1 10108:1 10109:1 10110:1 10111:1 10112:1 10113:1 10114:1 10115:1 10116:1 10117:1 10118:1 10119:1 10120:1 10121:1 10122:1 10123:1 10124:1 10125:1 10126:1 10127:1 10128:1 10129:1 10130:1 10131:1 10132:1 10133:1 10134:1 10135:1 10136:1 10137:1 10138:1 10139:1 10140:1 10141:1 10142:1 10143:1 10144:1 10145:1 10146:1 10147:1 10148:1 10149:1 10150:1 10151:1 10152:1 10153:1 10154:1 10155:1 
0.2285235116998105 17:1 92:1 119:1 120:1 222:1 499:1 572:1 630:1 807:1 1225:1 1303:1 1354:1 1363:1 1555:1 3803:1 4199:1 5004:1 5055:1 5610:1 7464:1 10160:1 10161:1 10162:1 10163:1 10164:1 10165:1 10166:1 10167:1 
0.01628208430996492 21:1 166:1 256:1 377:1 501:1 726:1 1020:1 1021:1 1022:1 1046:1 1326:1 1647:1 1891:1 2091:1 2158:1 2393:1 2500:1 3212:1 10168:1 10169:1 
0.03163521499686145 10:1 46:1 148:1 166:1 228:1 272:1 305:1 310:1 311:1 312:1 313:1 318:1 326:1 327:1 328:1 329:1 467:1 677:1 786:1 1069:1 1455:1 3631:1 5650:1 6870:1 10183:1 10184:1 10185:1 10186:1 10187:1 10188:1 10189:1 
0.1235853741375707 4:1 16:1 23:1 48:1 89:1 136:1 165:1 166:1 167:1 180:1 189:1 190:1 237:1 334:1 344:1 346:1 391:1 521:1 548:1 586:1 645:1 745:1 805:1 830:1 860:1 970:1 1014:1 1118:1 1365:1 1522:1 1647:1 1782:1 2183:1 2584:1 2678:1 3742:1 3760:1 5171:1 5814:1 10190:1 10191:1 10192:1 10193:1 10194:1 
0.0131255023647233 149:1 150:1 160:1 238:1 663:1 718:1 940:1 1020:1 1021:1 1022:1 1323:1 1326:1 1539:1 1721:1 1734:1 1797:1 2008:1 2037:1 2777:1 2951:1 2978:1 3359:1 6385:1 6403:1 10201:1 10202:1 10203:1 10204:1 10205:1 10206:1 
0.09078001436607644 43:1 135:1 254:1 257:1 496:1 959:1 1042:1 1089:1 1100:1 2246:1 2899:1 2969:1 3062:1 3675:1 4097:1 4199:1 7087:1 9648:1 10239:1 10240:1 10241:1 10242:1 10243:1 10244:1 
0.05230579942016546 16:1 18:1 95:1 148:1 163:1 166:1 238:1 272:1 428:1 465:1 484:1 677:1 841:1 1160:1 1228:1 1332:1 1359:1 1412:1 1877:1 1933:1 2058:1 2347:1 3199:1 5237:1 6839:1 10271:1 10272:1 10273:1 10274:1 
2.034116830380459e-05 85:1 142:1 165:1 226:1 251:1 256:1 295:1 383:1 396:1 1016:1 1046:1 1099:1 1100:1 1556:1 1730:1 2483:1 6393:1 7721:1 9080:1 9857:1 
0.07369113059688898 0:1 7:1 26:1 37:1 178:1 201:1 275:1 336:1 406:1 431:1 550:1 677:1 695:1 804:1 1092:1 1453:1 1613:1 2605:1 2635:1 2735:1 4235:1 7387:1 7543:1 10324:1 10325:1 10326:1 10327:1 10328:1 10329:1 10330:1 10331:1 10332:1 10333:1 10334:1 10335:1 10336:1 10337:1 10338:1 10339:1 10340:1 10341:1 10342:1 
0.0182438326264595 21:1 33:1 37:1 48:1 174:1 209:1 255:1 257:1 363:1 374:1 386:1 535:1 756:1 1009:1 1459:1 1647:1 1902:1 1922:1 2179:1 2287:1 2289:1 2305:1 2777:1 2800:1 2850:1 3228:1 3392:1 3558:1 3983:1 4256:1 4359:1 4785:1 4824:1 4825:1 5160:1 5935:1 6500:1 6821:1 8054:1 9006:1 9370:1 9391:1 9619:1 10187:1 10343:1 10344:1 10345:1 10346:1 10347:1 10348:1 10349:1 10350:1 10351:1 10352:1 10353:1 10354:1 10355:1 10356:1 10357:1 10358:1 10359:1 
0.03736142238032215 10:1 23:1 154:1 166:1 219:1 231:1 334:1 335:1 385:1 446:1 453:1 457:1 520:1 662:1 708:1 741:1 768:1 1183:1 2903:1 4262:1 4263:1 5845:1 7325:1 9018:1 10198:1 10369:1 
0.1111592420791588 1:1 37:1 65:1 155:1 171:1 359:1 862:1 896:1 1082:1 1193:1 1216:1 1440:1 1502:1 1646:1 1797:1 2338:1 2734:1 2779:1 2938:1 3069:1 3246:1 3774:1 4814:1 5621:1 5717:1 5737:1 10370:1 10371:1 10372:1 
0.06206536692786097 963:1 1087:1 1579:1 2411:1 6652:1 6654:1 6655:1 10373:1 10374:1 
0.2216069463035157 0:1 23:1 37:1 55:1 148:1 149:1 165:1 482:1 597:1 962:1 1006:1 1062:1 1367:1 1373:1 1806:1 2047:1 2070:1 2764:1 6097:1 9164:1 
0.2455458817995377 0:1 5:1 26:1 46:1 166:1 183:1 189:1 219:1 221:1 226:1 359:1 439:1 653:1 1099:1 1522:1 2093:1 2108:1 3016:1 3265:1 3547:1 3716:1 3893:1 10409:1 
0.1168245279512914 0:1 55:1 142:1 158:1 165:1 189:1 195:1 228:1 272:1 317:1 342:1 396:1 470:1 577:1 579:1 591:1 645:1 773:1 796:1 910:1 1143:1 1414:1 2251:1 2254:1 2787:1 3267:1 3561:1 3747:1 3764:1 5654:1 6158:1 6278:1 7035:1 7108:1 7615:1 7769:1 7890:1 8366:1 10410:1 10411:1 10412:1 10413:1 10414:1 10415:1 
0.01481179192758892 4:1 16:1 18:1 71:1 74:1 99:1 123:1 222:1 254:1 348:1 354:1 367:1 395:1 578:1 649:1 654:1 705:1 868:1 997:1 1365:1 1505:1 1940:1 2070:1 4851:1 8166:1 10212:1 10486:1 10487:1 10488:1 10489:1 
1.092235911539373 4:1 56:1 63:1 65:1 255:1 375:1 441:1 630:1 796:1 828:1 905:1 1225:1 1278:1 1502:1 2061:1 9014:1 
0.2074374098181659 123:1 135:1 166:1 171:1 437:1 446:1 497:1 519:1 677:1 803:1 908:1 1219:1 1435:1 1622:1 2123:1 3742:1 3876:1 3996:1 5566:1 8134:1 10615:1 
0.0007435471929620311 0:1 44:1 48:1 63:1 102:1 166:1 227:1 342:1 367:1 383:1 419:1 481:1 610:1 673:1 677:1 695:1 762:1 796:1 835:1 849:1 879:1 935:1 1076:1 1240:1 1277:1 1361:1 1562:1 1991:1 2058:1 2090:1 2798:1 3372:1 3375:1 3496:1 3650:1 4660:1 5309:1 5484:1 5967:1 6775:1 7790:1 9440:1 10646:1 
0.0992043333040703 127:1 165:1 208:1 238:1 255:1 256:1 295:1 334:1 466:1 1046:1 2293:1 2889:1 3006:1 3398:1 4507:1 5470:1 10438:1 10649:1 10650:1 
0.002157136131791097 0:1 117:1 166:1 271:1 431:1 503:1 663:1 1032:1 1439:1 10671:1 10672:1 10673:1 10674:1 10675:1 10676:1 10677:1 10678:1 
0.2814013824368768 2:1 17:1 149:1 158:1 191:1 308:1 677:1 1232:1 1883:1 2242:1 10790:1 10791:1 10792:1 10793:1 10794:1 
0.2354062103168322 212:1 308:1 329:1 348:1 446:1 496:1 786:1 870:1 1225:1 1782:1 2203:1 2229:1 2321:1 6518:1 6878:1 9731:1 10807:1 
0.1269760834466774 178:1 183:1 225:1 255:1 256:1 342:1 391:1 657:1 870:1 994:1 1318:1 2328:1 2445:1 2872:1 6727:1 8118:1 10822:1 10823:1 10824:1 10825:1 10826:1 10827:1 
0.1194600342672924 4:1 18:1 58:1 63:1 129:1 195:1 311:1 336:1 439:1 626:1 701:1 940:1 1210:1 1323:1 1324:1 1644:1 2426:1 3392:1 5205:1 5302:1 8161:1 
0.0725544204299757 0:1 118:1 148:1 151:1 235:1 238:1 366:1 428:1 576:1 1147:1 2652:1 10877:1 10878:1 10879:1 10880:1 
0.4394137367270463 0:1 21:1 123:1 145:1 155:1 167:1 255:1 282:1 499:1 705:1 860:1 874:1 1341:1 1361:1 1462:1 1883:1 2134:1 3848:1 5599:1 8918:1 10914:1 
0.3081389077836544 142:1 155:1 190:1 193:1 391:1 612:1 660:1 849:1 1016:1 1123:1 1684:1 1806:1 2569:1 2638:1 2640:1 2777:1 2856:1 3579:1 8002:1 10403:1 10949:1 10950:1 
0.3423590857388198 5:1 145:1 166:1 219:1 386:1 387:1 396:1 406:1 482:1 486:1 487:1 494:1 603:1 667:1 677:1 793:1 1273:1 1734:1 2282:1 2323:1 2445:1 3101:1 3633:1 3738:1 4804:1 6166:1 7310:1 10951:1 
0.128811320514026 61:1 118:1 165:1 166:1 167:1 238:1 664:1 733:1 1576:1 1776:1 2085:1 2777:1 3510:1 3545:1 3765:1 4306:1 4880:1 10985:1 10986:1 10987:1 10988:1 10989:1 
0.05915430889725798 5:1 21:1 23:1 26:1 37:1 58:1 90:1 102:1 105:1 136:1 148:1 149:1 155:1 178:1 190:1 198:1 368:1 375:1 396:1 400:1 465:1 482:1 503:1 568:1 647:1 688:1 850:1 1047:1 1142:1 1224:1 1241:1 1402:1 1410:1 1594:1 1812:1 2226:1 2245:1 2250:1 2417:1 2423:1 2925:1 3004:1 3386:1 3493:1 3584:1 3594:1 3970:1 3993:1 4744:1 4976:1 6745:1 7445:1 7923:1 8089:1 10990:1 10991:1 10992:1 10993:1 10994:1 10995:1 10996:1 10997:1 
0.1220845086863434 166:1 232:1 238:1 695:1 804:1 1009:1 1149:1 1218:1 1228:1 1877:1 1987:1 7019:1 7708:1 9136:1 9904:1 11045:1 11046:1 11047:1 
0.1821301981148297 6:1 163:1 306:1 623:1 768:1 821:1 1252:1 1937:1 4459:1 5342:1 7576:1 11098:1 11099:1 11100:1 11101:1 
0.05120596759904019 98:1 166:1 280:1 290:1 334:1 366:1 446:1 555:1 817:1 862:1 1301:1 1354:1 1727:1 3140:1 3815:1 4260:1 8139:1 8210:1 11113:1 11114:1 
0.05188520186833463 2:1 4:1 40:1 46:1 55:1 56:1 74:1 145:1 165:1 166:1 189:1 219:1 271:1 272:1 323:1 368:1 385:1 443:1 463:1 482:1 499:1 586:1 1037:1 1340:1 2142:1 2684:1 2745:1 2747:1 2764:1 2872:1 3201:1 3747:1 4038:1 4195:1 5466:1 11115:1 11116:1 11117:1 11118:1 11119:1 11120:1 11121:1 11122:1 11123:1 11124:1 11125:1 11126:1 11127:1 11128:1 
0.1251864214574642 0:1 1:1 5:1 48:1 150:1 190:1 206:1 282:1 305:1 400:1 428:1 482:1 824:1 829:1 1259:1 1950:1 2954:1 4030:1 8601:1 11131:1 11132:1 11133:1 
0.09032379584129721 0:1 2:1 26:1 41:1 46:1 77:1 135:1 166:1 189:1 219:1 268:1 278:1 298:1 325:1 368:1 396:1 421:1 428:1 465:1 722:1 796:1 994:1 1390:1 1411:1 1430:1 1438:1 1453:1 1594:1 1621:1 1647:1 1782:1 1861:1 2177:1 2234:1 2318:1 2323:1 2432:1 3049:1 3586:1 4267:1 4406:1 5014:1 5095:1 5108:1 6276:1 7043:1 7095:1 7096:1 8991:1 9121:1 9164:1 9828:1 10633:1 10889:1 11160:1 11161:1 11162:1 11163:1 11164:1 11165:1 11166:1 11167:1 11168:1 11169:1 11170:1 11171:1 
0.05364358792909828 4:1 5:1 14:1 17:1 37:1 62:1 65:1 113:1 137:1 155:1 164:1 165:1 238:1 255:1 271:1 272:1 282:1 310:1 340:1 406:1 428:1 457:1 581:1 799:1 962:1 2641:1 3781:1 6994:1 7163:1 11175:1 11176:1 
0.2773069743314452 16:1 44:1 166:1 295:1 342:1 592:1 645:1 911:1 967:1 1077:1 1668:1 2583:1 2959:1 3673:1 5077:1 5131:1 11204:1 11205:1 11206:1 
0.05844307187436976 166:1 180:1 189:1 315:1 612:1 649:1 715:1 839:1 1014:1 1522:1 2159:1 6666:1 10012:1 11213:1 11214:1 
0.14363626170903 4:1 55:1 78:1 81:1 163:1 216:1 222:1 386:1 645:1 699:1 728:1 790:1 803:1 1063:1 1434:1 1618:1 1983:1 2551:1 2649:1 2844:1 3306:1 3524:1 3581:1 3774:1 3972:1 4316:1 4631:1 5602:1 5682:1 6371:1 9414:1 11215:1 11216:1 11217:1 11218:1 11219:1 11220:1 11221:1 11222:1 11223:1 11224:1 11225:1 11226:1 11227:1 11228:1 11229:1 11230:1 
0.007877685134824917 55:1 63:1 166:1 189:1 354:1 355:1 494:1 613:1 630:1 904:1 944:1 1267:1 1729:1 1736:1 1821:1 1891:1 2640:1 2760:1 3031:1 5106:1 5511:1 6229:1 8660:1 11237:1 11238:1 11239:1 11240:1 11241:1 11242:1 11243:1 
0.2000907642988692 63:1 99:1 178:1 294:1 375:1 672:1 677:1 729:1 731:1 1077:1 1210:1 1358:1 1462:1 1500:1 1627:1 1758:1 1776:1 2245:1 7801:1 9027:1 11244:1 11245:1 11246:1 
0.03197510695811904 0:1 26:1 113:1 174:1 256:1 310:1 482:1 688:1 994:1 1204:1 1266:1 1434:1 1891:1 2018:1 8797:1 11279:1 11280:1 11281:1 11282:1 
0.2533485069931309 4:1 16:1 18:1 65:1 133:1 135:1 266:1 269:1 280:1 314:1 370:1 391:1 431:1 465:1 818:1 925:1 1270:1 1466:1 1797:1 1883:1 1933:1 2718:1 3389:1 3552:1 4872:1 5222:1 5769:1 9781:1 11289:1 
0.2521243327520351 56:1 74:1 166:1 190:1 201:1 226:1 232:1 354:1 385:1 419:1 990:1 1522:1 1738:1 1748:1 1864:1 2483:1 2577:1 2787:1 3023:1 3102:1 7343:1 
0.04591810365110013 0:1 30:1 63:1 98:1 99:1 148:1 163:1 165:1 210:1 256:1 272:1 292:1 308:1 319:1 349:1 386:1 395:1 469:1 482:1 595:1 881:1 917:1 1016:1 1451:1 1533:1 2323:1 3943:1 4851:1 5081:1 6589:1 7928:1 11305:1 11306:1 11307:1 11308:1 11309:1 11310:1 
0.7480261682000868 23:1 25:1 166:1 481:1 768:1 1782:1 11311:1 11312:1 
1.360722836826477 37:1 119:1 120:1 256:1 315:1 451:1 481:1 732:1 3768:1 
0.05304552204324561 11:1 48:1 68:1 195:1 368:1 853:1 867:1 1107:1 2034:1 6901:1 11359:1 
0.6471837556948629 4:1 46:1 74:1 99:1 141:1 166:1 189:1 208:1 218:1 219:1 265:1 271:1 302:1 304:1 323:1 463:1 675:1 790:1 889:1 1278:1 1361:1 1544:1 1863:1 1877:1 2641:1 8337:1 9011:1 10973:1 11347:1 11365:1 
0.007789445128195609 0:1 2:1 63:1 77:1 102:1 166:1 185:1 197:1 204:1 271:1 282:1 284:1 302:1 320:1 365:1 660:1 760:1 796:1 1330:1 1459:1 1983:1 2131:1 2601:1 3347:1 5693:1 6625:1 9585:1 9590:1 11018:1 11376:1 11377:1 11378:1 11379:1 11380:1 
0.4943964749843159 21:1 144:1 145:1 149:1 150:1 181:1 341:1 359:1 591:1 2736:1 2787:1 11421:1 11422:1 
0.1098064125952139 21:1 41:1 51:1 119:1 120:1 198:1 295:1 335:1 336:1 345:1 489:1 643:1 805:1 1009:1 1211:1 1277:1 1279:1 1364:1 1505:1 1548:1 3569:1 4614:1 5946:1 6095:1 6608:1 9627:1 11059:1 11285:1 11516:1 11517:1 11518:1 11519:1 
0.04965297930856528 0:1 2:1 48:1 76:1 158:1 166:1 222:1 255:1 306:1 421:1 494:1 522:1 796:1 1196:1 1259:1 1267:1 1269:1 1555:1 1891:1 2760:1 
0.1350278479021409 117:1 136:1 163:1 166:1 255:1 482:1 483:1 625:1 631:1 994:1 1715:1 2023:1 2034:1 2698:1 2760:1 3314:1 4584:1 5368:1 8881:1 11525:1 11526:1 11527:1 11528:1 
0.105673606117298 37:1 48:1 163:1 175:1 256:1 551:1 1068:1 1121:1 2683:1 3450:1 3475:1 11529:1 11530:1 
0.1202860792377474 0:1 4:1 135:1 136:1 138:1 165:1 186:1 189:1 190:1 237:1 254:1 255:1 600:1 605:1 810:1 874:1 974:1 1018:1 1076:1 1458:1 1521:1 2325:1 2516:1 2648:1 5461:1 6246:1 6624:1 6700:1 7294:1 9057:1 10214:1 11322:1 11531:1 11532:1 11533:1 11534:1 11535:1 11536:1 11537:1 11538:1 
0.08547224254846197 26:1 41:1 166:1 222:1 308:1 443:1 446:1 457:1 465:1 466:1 592:1 821:1 1200:1 1427:1 1692:1 2393:1 2500:1 2723:1 2849:1 2850:1 4486:1 4577:1 8069:1 11566:1 11567:1 11568:1 11569:1 11570:1 
0.1633986895653072 21:1 23:1 41:1 48:1 61:1 95:1 104:1 120:1 129:1 145:1 155:1 166:1 189:1 190:1 194:1 198:1 208:1 222:1 238:1 255:1 265:1 268:1 323:1 358:1 366:1 375:1 396:1 434:1 447:1 467:1 485:1 495:1 531:1 558:1 595:1 612:1 778:1 790:1 830:1 836:1 860:1 880:1 924:1 959:1 997:1 1113:1 1248:1 1282:1 1306:1 1361:1 1365:1 1373:1 1387:1 1444:1 1448:1 1548:1 1579:1 1729:1 1782:1 1907:1 1963:1 2134:1 2208:1 2209:1 2232:1 2240:1 2498:1 3396:1 3711:1 4089:1 5242:1 5394:1 5610:1 7222:1 7281:1 7443:1 9618:1 11588:1 11589:1 11590:1 11591:1 11592:1 11593:1 11594:1 11595:1 11596:1 11597:1 11598:1 11599:1 11600:1 11601:1 11602:1 11603:1 11604:1 11605:1 11606:1 
0.57839588993762 11:1 248:1 325:1 421:1 425:1 875:1 1378:1 1533:1 1612:1 3455:1 5798:1 6194:1 7330:1 11675:1 11676:1 11677:1 
0.02878089073155127 23:1 39:1 48:1 49:1 61:1 155:1 166:1 174:1 237:1 238:1 295:1 361:1 419:1 421:1 475:1 577:1 612:1 756:1 808:1 847:1 881:1 908:1 1009:1 1097:1 1416:1 1462:1 1625:1 1647:1 1742:1 2111:1 2208:1 2209:1 2375:1 2604:1 2830:1 3332:1 3848:1 4736:1 4792:1 5353:1 5739:1 6700:1 7605:1 11016:1 11696:1 11697:1 11698:1 11699:1 11700:1 11701:1 11702:1 
0.06462956489342428 5:1 26:1 77:1 99:1 166:1 256:1 294:1 386:1 490:1 534:1 592:1 695:1 962:1 1087:1 1224:1 1278:1 1291:1 1799:1 1858:1 2132:1 2422:1 2698:1 3458:1 3609:1 4778:1 6278:1 10280:1 11703:1 11704:1 11705:1 
0.1112509888414771 0:1 74:1 94:1 145:1 174:1 446:1 484:1 503:1 529:1 603:1 645:1 1389:1 1522:1 2438:1 2872:1 3434:1 5809:1 5939:1 5981:1 6931:1 6952:1 11710:1 
0.06446372801554279 4:1 46:1 178:1 179:1 190:1 211:1 219:1 222:1 236:1 237:1 256:1 291:1 323:1 325:1 342:1 345:1 355:1 359:1 365:1 406:1 438:1 465:1 475:1 497:1 651:1 675:1 688:1 867:1 881:1 913:1 997:1 1224:1 1297:1 1365:1 1427:1 1458:1 1521:1 1548:1 1578:1 1579:1 1656:1 1774:1 1933:1 2221:1 2246:1 2322:1 2344:1 2681:1 2705:1 2889:1 3020:1 3023:1 3107:1 3191:1 3220:1 3738:1 3933:1 4219:1 4408:1 4679:1 4731:1 5187:1 5188:1 5351:1 5652:1 5655:1 5814:1 6607:1 6914:1 7328:1 7490:1 7618:1 9434:1 10054:1 10306:1 10310:1 10803:1 10866:1 10949:1 11718:1 11719:1 11720:1 11721:1 11722:1 11723:1 11724:1 11725:1 11726:1 11727:1 11728:1 11729:1 11730:1 11731:1 11732:1 11733:1 11734:1 11735:1 
0.004340618118838553 26:1 47:1 48:1 55:1 58:1 100:1 102:1 189:1 256:1 282:1 375:1 386:1 441:1 584:1 613:1 756:1 846:1 870:1 875:1 1099:1 1154:1 1374:1 1555:1 1574:1 1594:1 1973:1 2075:1 2245:1 3047:1 4014:1 4199:1 5013:1 5088:1 5688:1 5967:1 6594:1 6924:1 7580:1 8803:1 10270:1 11285:1 11754:1 11755:1 11756:1 
0.119492332974548 0:1 4:1 23:1 44:1 92:1 123:1 133:1 145:1 178:1 190:1 211:1 256:1 265:1 368:1 446:1 503:1 664:1 677:1 803:1 932:1 1014:1 1201:1 1734:1 1782:1 1905:1 2089:1 2179:1 2205:1 2242:1 2273:1 2278:1 2777:1 3498:1 3624:1 5070:1 5298:1 6463:1 7293:1 9084:1 11757:1 11758:1 11759:1 11760:1 11761:1 11762:1 
0.09076710747934159 2:1 44:1 48:1 76:1 129:1 145:1 151:1 162:1 174:1 178:1 198:1 209:1 254:1 295:1 308:1 323:1 348:1 355:1 358:1 375:1 406:1 554:1 662:1 771:1 796:1 846:1 1121:1 1337:1 1578:1 1720:1 1956:1 1963:1 2012:1 2018:1 2165:1 2607:1 3047:1 3054:1 4078:1 4141:1 4199:1 5095:1 5898:1 7949:1 9255:1 9538:1 11799:1 11800:1 11801:1 
0.4565063712126946 43:1 98:1 123:1 142:1 161:1 219:1 238:1 756:1 786:1 3306:1 3355:1 3794:1 9387:1 11806:1 11807:1 
0.08814008593508317 4:1 16:1 23:1 30:1 148:1 149:1 151:1 166:1 178:1 180:1 189:1 248:1 406:1 428:1 605:1 612:1 643:1 664:1 705:1 1137:1 1248:1 1870:1 1970:1 2327:1 2329:1 2369:1 2698:1 2718:1 2773:1 2896:1 2941:1 3302:1 3332:1 3689:1 6055:1 7014:1 7763:1 8232:1 11818:1 11819:1 11820:1 11821:1 11822:1 11823:1 
0.006819714024150432 0:1 63:1 65:1 90:1 238:1 255:1 443:1 446:1 519:1 581:1 695:1 1219:1 1380:1 1440:1 1488:1 1721:1 2215:1 3500:1 4392:1 11841:1 11842:1 11843:1 11844:1 
0.1751041167439669 48:1 155:1 189:1 271:1 556:1 882:1 1017:1 1078:1 1379:1 2012:1 2612:1 3413:1 3927:1 8860:1 11874:1 11875:1 11876:1 11877:1 
0.4712509667994224 142:1 178:1 3051:1 4379:1 6011:1 11901:1 
0.1600595474198805 165:1 166:1 179:1 334:1 342:1 443:1 446:1 474:1 503:1 1388:1 1594:1 1646:1 1665:1 1814:1 2258:1 3786:1 6302:1 6664:1 6781:1 10538:1 11289:1 11840:1 11904:1 11905:1 11906:1 11907:1 
0.420509039732652 44:1 77:1 102:1 166:1 189:1 190:1 208:1 235:1 238:1 613:1 786:1 1073:1 1113:1 1732:1 1953:1 2971:1 4446:1 6999:1 8579:1 11913:1 11914:1 11915:1 
0.2453787659636725 23:1 160:1 388:1 399:1 527:1 644:1 984:1 989:1 1659:1 1813:1 1886:1 1922:1 1963:1 2059:1 3332:1 3462:1 4384:1 4385:1 5730:1 7469:1 11266:1 11918:1 11919:1 11920:1 11921:1 11922:1 
0.05698956566014043 98:1 166:1 174:1 238:1 334:1 342:1 385:1 546:1 700:1 997:1 2847:1 3691:1 4464:1 5118:1 5917:1 11923:1 11924:1 11925:1 
0.1951305357623918 0:1 4:1 16:1 21:1 23:1 48:1 58:1 98:1 129:1 166:1 178:1 183:1 189:1 208:1 226:1 227:1 238:1 255:1 280:1 379:1 390:1 484:1 487:1 499:1 518:1 548:1 613:1 625:1 653:1 677:1 688:1 778:1 796:1 830:1 1159:1 1183:1 1396:1 1505:1 1776:1 1936:1 1960:1 1973:1 1978:1 2085:1 2192:1 2228:1 3266:1 3657:1 3845:1 3873:1 4306:1 4314:1 4320:1 4441:1 5476:1 5806:1 8561:1 8836:1 9063:1 9663:1 11941:1 11942:1 11943:1 11944:1 
0.06543525587342992 4:1 30:1 56:1 63:1 155:1 166:1 189:1 201:1 238:1 272:1 295:1 348:1 406:1 427:1 704:1 705:1 731:1 778:1 789:1 867:1 868:1 877:1 991:1 1358:1 1538:1 1896:1 1940:1 1968:1 1977:1 2012:1 2033:1 2369:1 2750:1 3343:1 3350:1 3379:1 3380:1 3389:1 3479:1 3621:1 4001:1 5003:1 5197:1 5202:1 7694:1 8836:1 10216:1 11819:1 11959:1 11960:1 11961:1 11962:1 11963:1 11964:1 11965:1 11966:1 
0.2707218990369872 21:1 92:1 255:1 348:1 496:1 577:1 911:1 1306:1 1742:1 1912:1 3016:1 7262:1 11986:1 11987:1 
0.8078494739773771 4:1 23:1 26:1 41:1 142:1 189:1 256:1 406:1 510:1 847:1 1533:1 2008:1 2682:1 3255:1 3372:1 3434:1 3738:1 4597:1 4771:1 5772:1 
0.1052934938214434 4:1 7:1 21:1 135:1 145:1 166:1 211:1 391:1 434:1 554:1 708:1 1092:1 1685:1 1905:1 2422:1 2635:1 3027:1 3399:1 4656:1 5950:1 6806:1 7609:1 8480:1 11956:1 12000:1 12001:1 12002:1 12003:1 12004:1 12005:1 12006:1 12007:1 12008:1 
0.08631587844135757 2:1 44:1 102:1 150:1 190:1 438:1 466:1 806:1 3113:1 3227:1 3237:1 3420:1 4333:1 4351:1 5706:1 6814:1 6907:1 7192:1 7921:1 10390:1 11022:1 12171:1 12172:1 12173:1 
0.07032631481995294 2:1 56:1 63:1 67:1 123:1 238:1 256:1 268:1 428:1 441:1 446:1 975:1 2061:1 2090:1 2093:1 2978:1 3161:1 3275:1 5356:1 6867:1 7733:1 12177:1 12178:1 12179:1 12180:1 
0.02331224346858197 0:1 21:1 37:1 77:1 120:1 179:1 189:1 272:1 282:1 308:1 347:1 407:1 490:1 548:1 688:1 695:1 756:1 795:1 990:1 1612:1 1721:1 2909:1 3633:1 4593:1 5078:1 6040:1 9146:1 11109:1 11858:1 
0.3146830066255354 0:1 189:1 256:1 528:1 548:1 626:1 633:1 803:1 1005:1 7609:1 10587:1 12238:1 12239:1 12240:1 
0.4746090984460541 0:1 155:1 268:1 400:1 441:1 482:1 587:1 778:1 825:1 1621:1 1625:1 1865:1 1989:1 2069:1 4935:1 5117:1 6681:1 8140:1 9601:1 
0.2572418033595959 1:1 23:1 55:1 68:1 119:1 120:1 129:1 130:1 148:1 166:1 189:1 198:1 207:1 271:1 375:1 483:1 526:1 647:1 786:1 808:1 870:1 879:1 1230:1 1502:1 1741:1 1990:1 2236:1 2870:1 4312:1 4693:1 7578:1 12261:1 12262:1 
0.2187245929780816 104:1 149:1 160:1 161:1 189:1 308:1 503:1 577:1 786:1 825:1 846:1 1009:1 1225:1 1371:1 1424:1 1425:1 1524:1 1554:1 2075:1 3044:1 3112:1 3551:1 5123:1 5183:1 5184:1 5993:1 12265:1 
0.2164179915878982 0:1 5:1 26:1 117:1 135:1 142:1 166:1 207:1 208:1 209:1 211:1 300:1 323:1 418:1 447:1 565:1 729:1 731:1 762:1 768:1 778:1 1173:1 1224:1 1231:1 1327:1 1803:1 2914:1 3579:1 4084:1 4116:1 4184:1 5250:1 8858:1 10923:1 11661:1 12314:1 12315:1 
0.1413026477309758 0:1 4:1 284:1 366:1 418:1 441:1 457:1 466:1 475:1 535:1 1087:1 1173:1 1691:1 2739:1 3239:1 3489:1 4477:1 10629:1 12316:1 12317:1 12318:1 12319:1 12320:1 
0.5696020847062641 21:1 23:1 145:1 207:1 227:1 246:1 385:1 847:1 1078:1 1103:1 1166:1 1327:1 1373:1 1861:1 3230:1 3370:1 6607:1 6622:1 
0.0007664140704773578 1579:1 6652:1 6654:1 6655:1 6656:1 12346:1 
0.2587198403096571 10:1 48:1 118:1 142:1 166:1 207:1 222:1 498:1 718:1 821:1 1012:1 1079:1 1137:1 1222:1 1259:1 1301:1 2373:1 2569:1 3389:1 3497:1 3817:1 4199:1 5324:1 5835:1 10456:1 11262:1 12358:1 12359:1 12360:1 
0.5798823061038132 18:1 26:1 39:1 41:1 46:1 55:1 67:1 68:1 155:1 165:1 166:1 189:1 238:1 612:1 735:1 830:1 937:1 1210:1 1297:1 1424:1 2377:1 2640:1 2735:1 3524:1 3545:1 4195:1 4313:1 4574:1 4894:1 5237:1 7017:1 7404:1 7922:1 12379:1 12380:1 12381:1 12382:1 12383:1 12384:1 12385:1 
0.01813223180281813 4:1 27:1 91:1 155:1 165:1 272:1 282:1 396:1 422:1 1819:1 3036:1 3100:1 3819:1 3898:1 4923:1 5825:1 9022:1 12423:1 12424:1 12425:1 12426:1 
0.02086904215227065 0:1 4:1 23:1 37:1 46:1 56:1 142:1 166:1 195:1 211:1 227:1 238:1 282:1 308:1 317:1 481:1 645:1 657:1 786:1 1009:1 1017:1 1116:1 1193:1 1306:1 1323:1 1440:1 1441:1 1556:1 1776:1 1958:1 1982:1 2042:1 2121:1 2151:1 2179:1 2734:1 3196:1 3248:1 3432:1 3514:1 3529:1 3587:1 4915:1 5244:1 7769:1 9544:1 10464:1 12513:1 12514:1 12515:1 12516:1 12517:1 12518:1 12519:1 12520:1 12521:1 12522:1 12523:1 12524:1 12525:1 
0.336482628199634 40:1 46:1 65:1 104:1 129:1 150:1 166:1 190:1 242:1 271:1 272:1 519:1 612:1 789:1 830:1 1760:1 2091:1 2380:1 2423:1 2874:1 2913:1 4971:1 6085:1 9302:1 12582:1 
0.3282521905182862 23:1 43:1 120:1 160:1 179:1 198:1 219:1 238:1 268:1 297:1 482:1 486:1 1013:1 1147:1 2389:1 4316:1 12325:1 12585:1 
0.04658171508116257 63:1 67:1 142:1 245:1 270:1 424:1 441:1 481:1 586:1 1097:1 1373:1 1533:1 1853:1 2423:1 3743:1 12596:1 12597:1 
0.02622188871400319 0:1 55:1 74:1 113:1 120:1 135:1 139:1 145:1 165:1 179:1 271:1 315:1 358:1 406:1 425:1 482:1 507:1 523:1 625:1 649:1 654:1 657:1 704:1 717:1 786:1 834:1 858:1 925:1 1005:1 1039:1 1224:1 1465:1 1475:1 1621:1 1622:1 1669:1 1978:1 2033:1 2105:1 2181:1 2360:1 2709:1 2966:1 3000:1 3201:1 3230:1 3293:1 3423:1 3558:1 3635:1 3743:1 3764:1 4888:1 6027:1 8516:1 8712:1 10012:1 11382:1 12629:1 12630:1 
0.1566959524682869 0:1 4:1 74:1 102:1 181:1 209:1 237:1 411:1 416:1 419:1 484:1 787:1 1453:1 1684:1 2564:1 2589:1 2590:1 2925:1 3423:1 6756:1 7821:1 9664:1 12641:1 12642:1 12643:1 12644:1 
0.1788225985598575 56:1 193:1 226:1 320:1 362:1 379:1 386:1 555:1 841:1 1572:1 1576:1 1870:1 1905:1 12654:1 12655:1 
0.2462502753327576 48:1 49:1 135:1 320:1 387:1 395:1 422:1 443:1 465:1 501:1 613:1 1087:1 1089:1 1345:1 2308:1 2500:1 3238:1 4555:1 5676:1 6286:1 11566:1 12394:1 12670:1 
0.2893878814496527 33:1 441:1 3036:1 3230:1 4208:1 4282:1 4477:1 6948:1 11072:1 12726:1 
0.6350374010591701 0:1 2:1 90:1 226:1 283:1 284:1 292:1 406:1 712:1 803:1 1156:1 1978:1 5396:1 5422:1 
0.5058162447866501 49:1 120:1 178:1 388:1 439:1 778:1 803:1 1173:1 1297:1 2035:1 4013:1 9757:1 
0.2749041880142516 117:1 158:1 166:1 190:1 325:1 334:1 366:1 483:1 491:1 796:1 957:1 1039:1 2139:1 6717:1 8887:1 9191:1 12847:1 
0.4069694595412283 23:1 48:1 165:1 166:1 308:1 368:1 503:1 522:1 704:1 833:1 865:1 1408:1 2061:1 2355:1 2899:1 3240:1 3242:1 4785:1 4968:1 5211:1 12172:1 12869:1 
0.3015608519188023 55:1 68:1 208:1 377:1 481:1 499:1 519:1 715:1 1172:1 1891:1 5089:1 9298:1 12887:1 12888:1 12889:1 
0.6106630630771007 43:1 46:1 48:1 49:1 237:1 265:1 421:1 482:1 590:1 1206:1 1259:1 1303:1 1389:1 4384:1 4855:1 5123:1 12898:1 12899:1 
0.05106965626375866 4:1 21:1 55:1 78:1 81:1 102:1 103:1 120:1 142:1 145:1 178:1 236:1 255:1 256:1 289:1 308:1 318:1 320:1 342:1 349:1 385:1 434:1 474:1 509:1 535:1 677:1 728:1 784:1 860:1 951:1 967:1 994:1 1077:1 1087:1 1160:1 1277:1 1312:1 1354:1 1365:1 1435:1 1604:1 1730:1 1825:1 2006:1 2043:1 2044:1 2176:1 2273:1 2516:1 2611:1 2780:1 2822:1 2830:1 2994:1 3238:1 3239:1 3501:1 3526:1 4055:1 4329:1 4379:1 4674:1 4744:1 5486:1 5659:1 6947:1 7188:1 7627:1 8781:1 11212:1 12930:1 12931:1 12932:1 12933:1 12934:1 12935:1 12936:1 12937:1 12938:1 12939:1 12940:1 12941:1 12942:1 12943:1 12944:1 12945:1 
0.1013625012696498 5:1 23:1 56:1 166:1 226:1 370:1 484:1 677:1 678:1 806:1 866:1 1125:1 1742:1 1808:1 2845:1 7084:1 12953:1 
0.4829722173326148 21:1 51:1 123:1 186:1 222:1 284:1 483:1 490:1 701:1 851:1 2777:1 3314:1 4712:1 6000:1 12985:1 12986:1 
0.5245397676161496 23:1 55:1 68:1 227:1 316:1 428:1 625:1 1238:1 1905:1 2179:1 7090:1 13000:1 
0.1121692183545075 4:1 56:1 63:1 85:1 144:1 166:1 195:1 236:1 295:1 357:1 406:1 441:1 527:1 598:1 620:1 653:1 677:1 731:1 735:1 786:1 1013:1 1183:1 1278:1 1562:1 1614:1 1650:1 1722:1 1744:1 1782:1 1808:1 1899:1 1946:1 2012:1 2640:1 2779:1 2925:1 3208:1 3810:1 4359:1 4550:1 4632:1 5113:1 5239:1 6137:1 6290:1 6407:1 6736:1 6758:1 9905:1 11297:1 13035:1 13036:1 13037:1 13038:1 13039:1 13040:1 
0.4505257906614073 21:1 23:1 44:1 48:1 67:1 145:1 237:1 255:1 446:1 482:1 519:1 1012:1 1364:1 1373:1 1462:1 1594:1 1659:1 2985:1 3743:1 8465:1 
0.1712897632678717 10:1 21:1 43:1 55:1 56:1 67:1 166:1 256:1 383:1 419:1 446:1 1269:1 1396:1 1475:1 1729:1 1853:1 1973:1 2483:1 2604:1 2798:1 3054:1 3267:1 3594:1 3878:1 3995:1 4880:1 13055:1 13056:1 13057:1 13058:1 
0.1528882328117728 165:1 238:1 462:1 990:1 1167:1 1187:1 1814:1 2500:1 2564:1 3846:1 11711:1 13062:1 13063:1 13064:1 13065:1 13066:1 
0.01833563668582983 434:1 533:1 1516:1 1832:1 1834:1 2472:1 3074:1 3077:1 3203:1 4378:1 4492:1 5840:1 5846:1 5853:1 5860:1 7740:1 8290:1 8296:1 8654:1 9564:1 9723:1 10982:1 13083:1 13084:1 13085:1 13086:1 13087:1 13088:1 13089:1 13090:1 13091:1 13092:1 13093:1 13094:1 13095:1 13096:1 13097:1 13098:1 13099:1 13100:1 13101:1 13102:1 13103:1 13104:1 13105:1 13106:1 13107:1 13108:1 13109:1 13110:1 13111:1 13112:1 13113:1 13114:1 13115:1 13116:1 13117:1 13118:1 13119:1 13120:1 13121:1 13122:1 13123:1 13124:1 
0.4350410111351287 21:1 30:1 149:1 161:1 166:1 180:1 255:1 284:1 295:1 306:1 385:1 443:1 625:1 715:1 731:1 803:1 1522:1 2041:1 3558:1 3854:1 5322:1 6920:1 7225:1 10445:1 
0.2213709404830228 33:1 162:1 190:1 449:1 1087:1 1738:1 1806:1 2209:1 2287:1 3901:1 4069:1 6520:1 6903:1 13176:1 13177:1 13178:1 13179:1 
0.425146525209969 0:1 30:1 48:1 117:1 123:1 125:1 163:1 179:1 218:1 238:1 323:1 342:1 378:1 406:1 441:1 482:1 483:1 515:1 561:1 751:1 771:1 786:1 1005:1 1016:1 1276:1 1534:1 1564:1 1594:1 1729:1 1863:1 1896:1 2008:1 2041:1 2091:1 2126:1 2812:1 2989:1 3255:1 7246:1 7720:1 8007:1 9298:1 12326:1 12328:1 13249:1 13250:1 13251:1 
0.2273274842058047 77:1 102:1 218:1 238:1 256:1 268:1 302:1 304:1 306:1 381:1 482:1 537:1 695:1 870:1 881:1 1166:1 1172:1 1365:1 1623:1 1647:1 1895:1 2021:1 3396:1 5259:1 8327:1 10172:1 13252:1 
0.04905496905177983 44:1 123:1 165:1 179:1 255:1 334:1 338:1 431:1 487:1 625:1 729:1 798:1 1907:1 2026:1 4693:1 5190:1 5191:1 6289:1 7014:1 10964:1 12361:1 13266:1 
0.1998896186990144 189:1 190:1 258:1 292:1 317:1 327:1 346:1 349:1 566:1 584:1 675:1 712:1 729:1 770:1 917:1 923:1 1259:1 1755:1 1953:1 2251:1 2323:1 2329:1 2467:1 2475:1 2476:1 2978:1 3174:1 3862:1 4867:1 5065:1 5195:1 5939:1 9253:1 11893:1 13267:1 13268:1 
0.2023216850206477 158:1 223:1 404:1 497:1 544:1 796:1 1711:1 2313:1 4145:1 4461:1 8441:1 12145:1 12955:1 13291:1 13292:1 13293:1 13294:1 13295:1 13296:1 
0.08024142724449507 44:1 211:1 222:1 232:1 238:1 361:1 457:1 460:1 487:1 592:1 708:1 1003:1 1046:1 1170:1 1495:1 4349:1 5637:1 7253:1 9717:1 12043:1 13309:1 13310:1 
0.02356661137685488 0:1 63:1 95:1 165:1 219:1 222:1 266:1 269:1 386:1 399:1 404:1 428:1 437:1 463:1 487:1 547:1 625:1 762:1 845:1 1006:1 1435:1 1739:1 1742:1 1744:1 2058:1 2396:1 2780:1 3680:1 3764:1 4001:1 4778:1 4874:1 5108:1 5227:1 6460:1 8144:1 8357:1 9456:1 10784:1 13311:1 13312:1 13313:1 13314:1 13315:1 13316:1 13317:1 13318:1 
0.1365253361258887 44:1 55:1 98:1 129:1 180:1 350:1 548:1 587:1 827:1 1221:1 1521:1 2047:1 2240:1 3191:1 3508:1 5959:1 7861:1 8236:1 8987:1 13322:1 13323:1 
0.3535251209318352 0:1 23:1 37:1 55:1 67:1 68:1 104:1 129:1 148:1 155:1 236:1 482:1 530:1 612:1 851:1 1079:1 1298:1 1732:1 1755:1 2058:1 2530:1 2643:1 3083:1 8170:1 9213:1 
0.6424544239963828 90:1 142:1 149:1 308:1 378:1 383:1 400:1 406:1 434:1 487:1 504:1 571:1 661:1 756:1 808:1 1013:1 1014:1 1240:1 1242:1 1369:1 1371:1 1488:1 1522:1 1533:1 1548:1 1905:1 2012:1 2028:1 2069:1 2644:1 2880:1 2973:1 3338:1 3689:1 4422:1 5086:1 6432:1 7445:1 7728:1 8554:1 8998:1 9137:1 12257:1 13354:1 13355:1 13356:1 13357:1 
0.08763293187980536 44:1 119:1 120:1 238:1 354:1 391:1 439:1 499:1 643:1 677:1 1216:1 1923:1 2660:1 3011:1 3355:1 3558:1 3930:1 4581:1 6577:1 10331:1 13361:1 13362:1 13363:1 13364:1 13365:1 13366:1 13367:1 
0.08369682739698081 44:1 98:1 124:1 129:1 141:1 165:1 255:1 323:1 334:1 342:1 718:1 1435:1 2564:1 2988:1 7133:1 7175:1 13431:1 13432:1 13433:1 13434:1 13435:1 13436:1 
0.07117666228164297 117:1 145:1 166:1 178:1 189:1 211:1 237:1 255:1 272:1 306:1 310:1 319:1 385:1 398:1 419:1 441:1 494:1 527:1 529:1 733:1 858:1 877:1 1276:1 1491:1 1510:1 1791:1 2090:1 2144:1 2423:1 2598:1 3031:1 3523:1 4894:1 6012:1 9021:1 13444:1 
0.1415569650642318 0:1 4:1 23:1 74:1 163:1 166:1 179:1 190:1 208:1 218:1 256:1 323:1 334:1 342:1 695:1 787:1 830:1 951:1 1092:1 1173:1 1434:1 1721:1 1863:1 3738:1 5680:1 5859:1 5908:1 6958:1 11653:1 11719:1 13445:1 13446:1 13447:1 13448:1 13449:1 
0.05027980133607735 44:1 63:1 166:1 167:1 334:1 419:1 602:1 643:1 705:1 1056:1 1249:1 1435:1 9826:1 13479:1 13480:1 13481:1 13482:1 
0.1352182045794204 4:1 11:1 129:1 148:1 155:1 190:1 208:1 222:1 227:1 237:1 365:1 396:1 409:1 438:1 528:1 592:1 627:1 649:1 787:1 829:1 880:1 1069:1 1173:1 1422:1 1726:1 2058:1 2954:1 3330:1 4692:1 4746:1 5458:1 5710:1 5941:1 6011:1 6121:1 8204:1 13504:1 
0.0347011249642992 4:1 21:1 74:1 98:1 163:1 166:1 255:1 256:1 315:1 334:1 368:1 385:1 406:1 425:1 506:1 515:1 756:1 1475:1 1505:1 1521:1 1732:1 3250:1 4750:1 4767:1 5665:1 5797:1 7381:1 7742:1 8516:1 12942:1 13044:1 13606:1 
0.064378070096096 0:1 37:1 91:1 190:1 272:1 368:1 393:1 406:1 407:1 715:1 932:1 1020:1 1021:1 1022:1 1326:1 1522:1 2091:1 2784:1 4307:1 4840:1 5028:1 6517:1 6518:1 7808:1 8859:1 12722:1 13247:1 13607:1 13608:1 13609:1 
0.002675285202121856 77:1 166:1 179:1 190:1 232:1 247:1 371:1 391:1 804:1 841:1 1373:1 2183:1 3626:1 3662:1 5958:1 6647:1 9019:1 9777:1 13244:1 
0.5140357826632316 0:1 4:1 23:1 52:1 91:1 163:1 166:1 171:1 174:1 179:1 236:1 314:1 431:1 434:1 595:1 649:1 805:1 873:1 888:1 2611:1 2893:1 4682:1 9010:1 13620:1 
0.2230722340588195 4:1 23:1 37:1 48:1 115:1 148:1 163:1 189:1 237:1 238:1 271:1 446:1 482:1 499:1 778:1 796:1 1414:1 2941:1 3937:1 4102:1 4558:1 13623:1 
0.03819829222872389 16:1 18:1 23:1 27:1 61:1 165:1 226:1 272:1 280:1 421:1 446:1 494:1 548:1 612:1 677:1 774:1 946:1 1063:1 1156:1 1201:1 1244:1 1641:1 1917:1 3409:1 4112:1 4344:1 4406:1 5213:1 5307:1 5566:1 5577:1 6351:1 7779:1 8724:1 12182:1 13210:1 13702:1 13703:1 13704:1 13705:1 13706:1 13707:1 13708:1 
0.02990169444260102 30:1 55:1 104:1 116:1 141:1 148:1 165:1 166:1 189:1 219:1 238:1 255:1 431:1 439:1 839:1 897:1 1358:1 1562:1 2012:1 2208:1 2641:1 3069:1 3848:1 4804:1 5208:1 5786:1 6288:1 8114:1 12610:1 13709:1 13710:1 13711:1 13712:1 13713:1 13714:1 
0.004063739281129732 5:1 23:1 51:1 166:1 226:1 428:1 439:1 494:1 859:1 1475:1 1734:1 1883:1 1952:1 2387:1 2445:1 2557:1 4306:1 6663:1 7352:1 13746:1 13747:1 
0.4086953941269531 1:1 41:1 78:1 81:1 268:1 592:1 762:1 879:1 1154:1 1291:1 1306:1 1896:1 2721:1 2917:1 3523:1 3596:1 4677:1 4969:1 6064:1 7513:1 7817:1 12529:1 13755:1 13756:1 13757:1 13758:1 13759:1 13760:1 13761:1 13762:1 
0.2688747497999301 63:1 163:1 165:1 166:1 238:1 284:1 441:1 503:1 521:1 889:1 953:1 1514:1 2911:1 2966:1 3249:1 3623:1 4888:1 5061:1 8596:1 11741:1 13421:1 13768:1 
0.07818110476675667 63:1 135:1 155:1 232:1 286:1 365:1 419:1 439:1 496:1 497:1 572:1 830:1 996:1 1378:1 1521:1 1659:1 1696:1 1962:1 1965:1 2870:1 2908:1 4785:1 6264:1 12177:1 13771:1 13772:1 
0.4458991382940828 21:1 23:1 25:1 46:1 63:1 145:1 150:1 222:1 223:1 255:1 256:1 270:1 368:1 481:1 660:1 717:1 768:1 796:1 1005:1 1114:1 1266:1 1522:1 3452:1 7169:1 7170:1 
0.01100936718333384 18:1 51:1 69:1 71:1 77:1 117:1 120:1 151:1 174:1 222:1 248:1 315:1 368:1 425:1 595:1 829:1 1038:1 1075:1 1351:1 1454:1 1593:1 1755:1 1963:1 2153:1 2351:1 2604:1 2989:1 3267:1 4512:1 4880:1 5113:1 6596:1 7141:1 8988:1 11567:1 13815:1 13816:1 13817:1 13818:1 
0.2410106364275207 23:1 61:1 78:1 81:1 119:1 120:1 222:1 427:1 441:1 715:1 803:1 867:1 1076:1 1113:1 2435:1 3108:1 3619:1 3817:1 5712:1 5772:1 8586:1 13933:1 13934:1 13935:1 
0.03631351369310166 18:1 26:1 63:1 77:1 119:1 120:1 151:1 166:1 189:1 208:1 222:1 238:1 256:1 470:1 485:1 550:1 677:1 704:1 718:1 1005:1 1052:1 1147:1 1361:1 1362:1 1617:1 1634:1 1797:1 1916:1 2244:1 2593:1 2937:1 4116:1 4839:1 6589:1 13936:1 13937:1 13938:1 13939:1 13940:1 13941:1 13942:1 
0.1932735838031211 5:1 33:1 212:1 237:1 421:1 443:1 612:1 804:1 841:1 914:1 1193:1 1247:1 1411:1 1462:1 2058:1 2162:1 2287:1 2816:1 2951:1 3368:1 4122:1 4593:1 5637:1 6835:1 7521:1 13785:1 13944:1 13945:1 13946:1 
0.08191878873308871 10:1 61:1 163:1 169:1 201:1 226:1 304:1 406:1 434:1 535:1 932:1 1075:1 1113:1 1340:1 1453:1 1963:1 2183:1 2280:1 2621:1 5098:1 8459:1 13958:1 13959:1 
0.04698588688738587 4:1 16:1 21:1 24:1 51:1 74:1 155:1 167:1 189:1 211:1 212:1 222:1 227:1 237:1 238:1 242:1 255:1 292:1 306:1 342:1 466:1 483:1 484:1 489:1 577:1 580:1 581:1 582:1 586:1 649:1 708:1 732:1 735:1 801:1 851:1 881:1 1006:1 1103:1 1374:1 1739:1 1780:1 1895:1 1947:1 1953:1 2008:1 2395:1 2921:1 3781:1 5237:1 7348:1 9135:1 12969:1 13963:1 13964:1 13965:1 13966:1 
0.4079293084102085 44:1 189:1 786:1 847:1 1012:1 1210:1 3640:1 6850:1 9413:1 10229:1 13970:1 13971:1 13972:1 13973:1 
0.03049570238109197 0:1 4:1 23:1 27:1 37:1 39:1 55:1 63:1 129:1 135:1 148:1 158:1 167:1 189:1 195:1 204:1 270:1 271:1 284:1 295:1 318:1 386:1 431:1 446:1 528:1 790:1 971:1 1033:1 1137:1 1170:1 1670:1 1782:1 1883:1 1922:1 2618:1 2988:1 3130:1 3230:1 3238:1 3239:1 4890:1 5113:1 6460:1 7617:1 8683:1 10438:1 10665:1 14003:1 14004:1 14005:1 14006:1 14007:1 
0.005462147745199984 2:1 44:1 165:1 180:1 238:1 430:1 1522:1 1721:1 3928:1 5606:1 14042:1 14043:1 14044:1 14045:1 
0.09434037259391467 1:1 2:1 17:1 23:1 40:1 141:1 142:1 148:1 189:1 190:1 207:1 218:1 248:1 255:1 286:1 360:1 361:1 399:1 639:1 870:1 963:1 1273:1 1760:1 2728:1 2842:1 3829:1 3892:1 5028:1 5242:1 6019:1 7464:1 8554:1 9618:1 14069:1 14070:1 14071:1 14072:1 14073:1 
0.3178753815873764 4:1 26:1 166:1 189:1 211:1 223:1 235:1 265:1 288:1 323:1 354:1 421:1 595:1 605:1 625:1 631:1 821:1 911:1 981:1 1137:1 1389:1 1889:1 2234:1 2787:1 3036:1 3345:1 3453:1 3722:1 4874:1 5307:1 6571:1 14099:1 14100:1 
0.08092737107614849 0:1 26:1 40:1 55:1 82:1 161:1 190:1 222:1 232:1 317:1 323:1 348:1 431:1 582:1 662:1 732:1 860:1 1054:1 1113:1 1114:1 1462:1 1514:1 1782:1 2001:1 2258:1 2694:1 3054:1 3174:1 3892:1 4291:1 8507:1 8508:1 8512:1 8535:1 9154:1 9492:1 9682:1 12899:1 14114:1 14115:1 14116:1 14117:1 14118:1 14119:1 14120:1 14121:1 
0.3306111671471814 1:1 55:1 89:1 90:1 120:1 151:1 155:1 158:1 159:1 166:1 212:1 219:1 406:1 470:1 613:1 839:1 1032:1 1113:1 1241:1 1248:1 1462:1 1527:1 1548:1 1578:1 1647:1 2020:1 2656:1 3179:1 3246:1 3301:1 3633:1 3783:1 3828:1 4782:1 4792:1 4969:1 5028:1 5115:1 7471:1 8130:1 10816:1 11227:1 14146:1 14147:1 14148:1 14149:1 14150:1 
0.1668071621013863 48:1 55:1 56:1 58:1 63:1 120:1 151:1 165:1 226:1 333:1 407:1 774:1 870:1 909:1 917:1 1084:1 1284:1 1612:1 1732:1 1962:1 2158:1 2250:1 2432:1 2693:1 2909:1 3478:1 4505:1 4709:1 5967:1 7243:1 7401:1 7578:1 8165:1 9253:1 9420:1 11528:1 14203:1 14204:1 14205:1 14206:1 14207:1 
0.3238500075136274 1118:1 1276:1 1578:1 2438:1 4232:1 14218:1 14219:1 14220:1 14221:1 14222:1 14223:1 14224:1 14225:1 
0.1498999836268556 26:1 44:1 63:1 99:1 148:1 169:1 176:1 190:1 237:1 238:1 271:1 323:1 592:1 625:1 796:1 847:1 959:1 1182:1 1323:1 1358:1 1453:1 1782:1 1886:1 1939:1 2126:1 3450:1 3579:1 4581:1 7733:1 7903:1 10466:1 11365:1 13882:1 14231:1 14232:1 14233:1 14234:1 
0.0840031895282797 0:1 23:1 26:1 39:1 65:1 67:1 68:1 117:1 132:1 165:1 180:1 189:1 190:1 306:1 317:1 385:1 418:1 482:1 553:1 717:1 778:1 830:1 1014:1 1266:1 2058:1 2072:1 2546:1 2698:1 3512:1 4729:1 5486:1 5610:1 6029:1 9950:1 10349:1 12566:1 14251:1 14252:1 14253:1 14254:1 14255:1 14256:1 14257:1 14258:1 
0.4133537466534519 21:1 26:1 44:1 63:1 104:1 189:1 227:1 308:1 406:1 499:1 695:1 726:1 1247:1 1298:1 1306:1 1323:1 1371:1 1424:1 1520:1 1521:1 1522:1 1726:1 2070:1 2450:1 2651:1 2921:1 3025:1 5191:1 5778:1 6700:1 7225:1 9834:1 11136:1 14045:1 14272:1 14273:1 
0.1118285021200851 10:1 16:1 18:1 48:1 51:1 56:1 174:1 377:1 392:1 457:1 494:1 499:1 761:1 901:1 990:1 1204:1 1365:1 1378:1 1521:1 1736:1 2017:1 2789:1 2828:1 2889:1 3401:1 3702:1 3996:1 5188:1 5532:1 5647:1 5767:1 14285:1 14286:1 14287:1 14288:1 14289:1 14290:1 14291:1 14292:1 
0.1583861570918014 0:1 2:1 15:1 48:1 49:1 56:1 222:1 434:1 499:1 515:1 596:1 677:1 700:1 1076:1 1207:1 1440:1 1526:1 3230:1 3392:1 3443:1 4701:1 8480:1 14321:1 14322:1 14323:1 
0.1683183860378653 0:1 37:1 62:1 92:1 102:1 137:1 149:1 163:1 167:1 190:1 222:1 256:1 306:1 308:1 309:1 319:1 323:1 790:1 8378:1 11156:1 14334:1 
0.3618378144512666 21:1 42:1 44:1 68:1 120:1 158:1 284:1 361:1 441:1 751:1 1047:1 1167:1 1425:1 3023:1 3383:1 3768:1 4034:1 4104:1 5405:1 6252:1 7789:1 7795:1 14371:1 14372:1 
0.2662332673512198 0:1 4:1 55:1 71:1 90:1 151:1 256:1 421:1 482:1 550:1 579:1 580:1 796:1 1962:1 2234:1 3336:1 3368:1 4199:1 4861:1 14393:1 
0.04441383376162519 21:1 165:1 166:1 179:1 189:1 190:1 238:1 248:1 443:1 457:1 495:1 774:1 940:1 988:1 1009:1 1886:1 1896:1 2951:1 3239:1 3665:1 3846:1 4273:1 5358:1 6681:1 8700:1 10668:1 14402:1 14403:1 14404:1 14405:1 
0.06524665403666295 2:1 27:1 30:1 74:1 90:1 98:1 166:1 202:1 237:1 251:1 254:1 255:1 270:1 271:1 302:1 304:1 308:1 319:1 323:1 335:1 385:1 396:1 419:1 457:1 487:1 501:1 510:1 625:1 626:1 696:1 773:1 790:1 801:1 806:1 911:1 935:1 959:1 1089:1 1214:1 1218:1 1466:1 1688:1 2037:1 2423:1 2483:1 2500:1 2577:1 2648:1 3579:1 3675:1 3979:1 4692:1 8810:1 10658:1 10693:1 14409:1 14410:1 14411:1 14412:1 14413:1 14414:1 14415:1 14416:1 14417:1 
0.2012173296748228 5:1 14:1 65:1 151:1 256:1 418:1 705:1 1378:1 1466:1 1569:1 2351:1 2760:1 4927:1 6460:1 8146:1 9019:1 14305:1 14385:1 14420:1 14421:1 
0.1472917981244178 27:1 63:1 166:1 178:1 222:1 238:1 256:1 264:1 295:1 357:1 418:1 832:1 1137:1 1173:1 1776:1 1781:1 2673:1 3394:1 3731:1 5585:1 5922:1 6965:1 8788:1 14431:1 14432:1 14433:1 14434:1 
0.282735069704499 0:1 4:1 37:1 223:1 242:1 254:1 289:1 323:1 418:1 422:1 465:1 482:1 605:1 804:1 905:1 1009:1 1063:1 1225:1 1367:1 1409:1 1465:1 1475:1 1886:1 2257:1 2354:1 2684:1 2913:1 2925:1 3289:1 4393:1 5554:1 6112:1 9349:1 13206:1 13274:1 14435:1 14436:1 14437:1 14438:1 
0.5559785507640425 23:1 42:1 51:1 148:1 162:1 169:1 189:1 226:1 256:1 325:1 368:1 407:1 421:1 482:1 499:1 520:1 793:1 800:1 841:1 860:1 1739:1 1779:1 1781:1 2151:1 2648:1 4693:1 6016:1 11938:1 
0.1372512762321086 222:1 1978:1 2726:1 3054:1 3069:1 3184:1 3938:1 4627:1 5074:1 6611:1 7050:1 7543:1 9271:1 9619:1 11200:1 14493:1 14494:1 14495:1 14496:1 14497:1 14498:1 14499:1 14500:1 14501:1 14502:1 14503:1 14504:1 14505:1 14506:1 14507:1 14508:1 14509:1 14510:1 14511:1 14512:1 14513:1 14514:1 14515:1 14516:1 14517:1 14518:1 14519:1 
0.0756486126028018 48:1 63:1 65:1 113:1 195:1 256:1 257:1 295:1 322:1 375:1 421:1 499:1 751:1 804:1 805:1 847:1 863:1 1624:1 1652:1 1891:1 2033:1 2086:1 2553:1 3368:1 3386:1 9159:1 
0.03585254684554248 0:1 4:1 21:1 46:1 56:1 166:1 178:1 219:1 222:1 238:1 255:1 265:1 302:1 318:1 333:1 368:1 387:1 391:1 431:1 434:1 467:1 476:1 499:1 531:1 533:1 600:1 645:1 666:1 733:1 832:1 880:1 1087:1 1104:1 1147:1 1280:1 1351:1 1431:1 1432:1 1455:1 1571:1 1703:1 1874:1 1962:1 1983:1 2209:1 2498:1 2679:1 2951:1 3087:1 3238:1 3332:1 3497:1 3738:1 3795:1 3931:1 4219:1 4415:1 5151:1 5345:1 5655:1 6059:1 6663:1 7141:1 7609:1 7748:1 7772:1 8781:1 10187:1 10750:1 10949:1 12365:1 14161:1 14527:1 14528:1 14529:1 14530:1 14531:1 14532:1 14533:1 14534:1 14535:1 14536:1 14537:1 14538:1 14539:1 14540:1 14541:1 14542:1 14543:1 14544:1 14545:1 14546:1 14547:1 14548:1 
0.1246942741852078 21:1 53:1 149:1 195:1 323:1 342:1 367:1 418:1 558:1 1389:1 3163:1 4071:1 5570:1 12507:1 14552:1 14553:1 
0.2406238167616602 2:1 21:1 23:1 46:1 63:1 132:1 256:1 378:1 551:1 1285:1 3579:1 5199:1 8285:1 14563:1 
0.3035914759989223 23:1 39:1 142:1 208:1 222:1 256:1 265:1 400:1 434:1 475:1 519:1 520:1 535:1 548:1 612:1 630:1 803:1 851:1 1299:1 1336:1 1548:1 1755:1 1782:1 4013:1 4088:1 4182:1 4664:1 14586:1 14587:1 14588:1 14589:1 
0.01697422582094758 4:1 21:1 103:1 113:1 375:1 396:1 422:1 974:1 1883:1 2016:1 2245:1 2314:1 3020:1 3282:1 5833:1 5884:1 6647:1 11991:1 14592:1 14593:1 
0.4443468462997411 4:1 21:1 48:1 98:1 142:1 255:1 284:1 487:1 577:1 590:1 790:1 1103:1 1210:1 1508:1 1728:1 3726:1 12922:1 
0.007222783594608815 30:1 129:1 165:1 189:1 255:1 334:1 371:1 385:1 447:1 483:1 546:1 612:1 718:1 1005:1 1118:1 2517:1 3023:1 5717:1 13339:1 14708:1 14709:1 14710:1 
0.07242477006928887 165:1 166:1 183:1 232:1 1210:1 2091:1 2093:1 4770:1 6328:1 14718:1 
0.03828508487350347 26:1 43:1 44:1 63:1 67:1 71:1 117:1 151:1 155:1 167:1 180:1 238:1 272:1 274:1 282:1 378:1 419:1 446:1 482:1 501:1 564:1 586:1 631:1 667:1 677:1 732:1 778:1 834:1 908:1 972:1 1147:1 1170:1 1279:1 1331:1 1332:1 1460:1 1782:1 1962:1 2398:1 2576:1 2816:1 2925:1 3272:1 3604:1 3655:1 4693:1 5647:1 5844:1 5922:1 5977:1 
0.00731444723376333 55:1 135:1 315:1 595:1 1148:1 1390:1 1454:1 1475:1 1479:1 1734:1 2605:1 3395:1 7326:1 8054:1 8660:1 8711:1 9670:1 13498:1 14801:1 14802:1 
0.08411830100517938 90:1 189:1 198:1 212:1 342:1 496:1 595:1 666:1 686:1 688:1 789:1 877:1 881:1 953:1 1462:1 1806:1 1899:1 1941:1 2713:1 3016:1 3113:1 3302:1 3389:1 3635:1 3640:1 4631:1 4749:1 5392:1 7262:1 7930:1 8663:1 14826:1 14827:1 
0.1160937865693188 37:1 46:1 61:1 68:1 141:1 214:1 265:1 284:1 466:1 501:1 784:1 1042:1 1088:1 2124:1 2389:1 4223:1 6785:1 8349:1 8654:1 9157:1 14872:1 14873:1 14874:1 
0.1255854713898807 18:1 237:1 366:1 548:1 897:1 996:1 1013:1 1623:1 2877:1 2966:1 3332:1 3349:1 3625:1 4123:1 6267:1 7536:1 8115:1 14883:1 
0.1917339525100194 4:1 26:1 65:1 95:1 135:1 238:1 272:1 534:1 592:1 677:1 896:1 1193:1 1244:1 1533:1 1722:1 1808:1 2075:1 2734:1 3732:1 3742:1 4631:1 4793:1 5326:1 6215:1 6234:1 14914:1 
0.02161886670920436 0:1 16:1 23:1 165:1 166:1 179:1 208:1 222:1 238:1 407:1 550:1 667:1 701:1 729:1 798:1 1617:1 2072:1 2126:1 2127:1 2605:1 4441:1 14966:1 14967:1 
0.01867931044391001 26:1 55:1 63:1 166:1 178:1 232:1 238:1 247:1 256:1 272:1 368:1 428:1 457:1 520:1 548:1 594:1 959:1 2021:1 2583:1 2779:1 3424:1 3425:1 3426:1 3427:1 4758:1 4808:1 5163:1 5278:1 5452:1 7152:1 7588:1 11722:1 11772:1 14973:1 14974:1 
0.1671726961510618 0:1 95:1 135:1 136:1 155:1 165:1 320:1 482:1 499:1 535:1 881:1 1005:1 1276:1 1509:1 1896:1 2656:1 2698:1 2708:1 3158:1 3764:1 4274:1 7892:1 14978:1 
0.1498548991085348 166:1 1516:1 4376:1 5839:1 5840:1 5853:1 5856:1 8189:1 14986:1 14987:1 14988:1 14989:1 14990:1 14991:1 14992:1 14993:1 14994:1 
0.013364136405983 0:1 37:1 129:1 470:1 577:1 613:1 657:1 658:1 677:1 688:1 1020:1 1021:1 1022:1 1326:1 1358:1 1776:1 2072:1 2419:1 2989:1 5267:1 8180:1 14995:1 
0.05395525350698879 0:1 16:1 37:1 39:1 56:1 165:1 238:1 342:1 404:1 520:1 538:1 594:1 626:1 705:1 1020:1 1021:1 1022:1 1326:1 1411:1 1883:1 2151:1 3332:1 6080:1 6258:1 6343:1 10234:1 14996:1 14997:1 14998:1 
0.603211846631043 5:1 37:1 48:1 56:1 71:1 136:1 150:1 180:1 226:1 418:1 438:1 584:1 677:1 1020:1 1021:1 1022:1 1326:1 1728:1 2061:1 2090:1 2760:1 2896:1 6594:1 6806:1 15018:1 
0.4705045733603083 1:1 37:1 46:1 102:1 150:1 155:1 161:1 190:1 222:1 268:1 282:1 361:1 388:1 439:1 521:1 554:1 590:1 796:1 841:1 1013:1 1098:1 1103:1 1115:1 1247:1 1259:1 1505:1 1647:1 1659:1 1715:1 1797:1 2239:1 2641:1 2745:1 2747:1 3579:1 4092:1 4792:1 5013:1 5239:1 15026:1 15027:1 
0.01800351300189324 2:1 190:1 208:1 421:1 778:1 798:1 1232:1 1797:1 3025:1 7425:1 8031:1 8938:1 13960:1 15028:1 15029:1 15030:1 
0.0998055464094245 4:1 23:1 26:1 39:1 41:1 44:1 74:1 87:1 95:1 117:1 119:1 165:1 166:1 178:1 238:1 256:1 283:1 284:1 289:1 294:1 318:1 323:1 377:1 427:1 497:1 515:1 592:1 612:1 703:1 733:1 907:1 911:1 981:1 1601:1 1686:1 1701:1 1948:1 2648:1 3191:1 3770:1 4328:1 4574:1 4750:1 4812:1 5194:1 6349:1 7354:1 7533:1 8491:1 9993:1 11978:1 15031:1 15032:1 15033:1 15034:1 15035:1 
0.3670611961669368 30:1 41:1 49:1 142:1 145:1 148:1 158:1 186:1 237:1 295:1 308:1 361:1 482:1 572:1 796:1 1454:1 1688:1 1711:1 1899:1 1943:1 2033:1 2208:1 2245:1 2417:1 2421:1 2732:1 2899:1 3044:1 4205:1 4521:1 7780:1 10888:1 15067:1 15068:1 15069:1 15070:1 15071:1 15072:1 15073:1 15074:1 
0.1356917834082678 0:1 23:1 26:1 44:1 63:1 127:1 148:1 155:1 180:1 256:1 306:1 391:1 804:1 1152:1 1361:1 1987:1 1990:1 2058:1 2236:1 2978:1 3118:1 3453:1 6957:1 15075:1 15076:1 
0.2874066719291175 1:1 4:1 11:1 40:1 55:1 421:1 688:1 715:1 804:1 849:1 1301:1 1647:1 1743:1 1760:1 2159:1 2208:1 2917:1 3493:1 3781:1 4145:1 6248:1 6429:1 14624:1 15085:1 
0.02719208686543395 0:1 4:1 10:1 21:1 44:1 54:1 55:1 68:1 129:1 130:1 135:1 155:1 158:1 165:1 189:1 222:1 255:1 348:1 359:1 382:1 395:1 400:1 401:1 428:1 446:1 466:1 497:1 541:1 564:1 565:1 581:1 612:1 865:1 879:1 1016:1 1137:1 1273:1 1291:1 1306:1 1323:1 1339:1 1351:1 1374:1 1410:1 1414:1 1659:1 1677:1 1832:1 1853:1 2090:1 2099:1 2183:1 2206:1 2246:1 2265:1 2338:1 2396:1 2423:1 2902:1 3191:1 3523:1 3594:1 3628:1 4102:1 4246:1 4758:1 4785:1 5387:1 5643:1 7489:1 7615:1 8167:1 9989:1 10251:1 11079:1 15108:1 15109:1 15110:1 15111:1 15112:1 15113:1 15114:1 15115:1 15116:1 
0.04239237245674914 30:1 43:1 49:1 63:1 90:1 98:1 99:1 117:1 120:1 128:1 165:1 166:1 208:1 212:1 218:1 222:1 232:1 237:1 255:1 280:1 284:1 296:1 298:1 308:1 317:1 322:1 323:1 338:1 349:1 361:1 367:1 395:1 434:1 457:1 482:1 580:1 582:1 584:1 605:1 645:1 657:1 675:1 688:1 761:1 768:1 771:1 790:1 796:1 808:1 832:1 858:1 868:1 879:1 905:1 923:1 1173:1 1183:1 1361:1 1416:1 1435:1 1460:1 1462:1 1559:1 1669:1 1710:1 1729:1 1877:1 1922:1 1950:1 1960:1 2058:1 2251:1 2419:1 3336:1 3425:1 3509:1 3512:1 3558:1 3587:1 3628:1 3640:1 3752:1 4701:1 4867:1 5939:1 6726:1 7055:1 7831:1 8370:1 8750:1 8803:1 10159:1 10800:1 10824:1 15132:1 15133:1 15134:1 15135:1 15136:1 15137:1 15138:1 15139:1 15140:1 15141:1 15142:1 15143:1 15144:1 
0.04759724672955531 0:1 21:1 67:1 98:1 136:1 222:1 288:1 425:1 605:1 829:1 990:1 1005:1 1092:1 1265:1 1278:1 1963:1 2000:1 2329:1 2593:1 3572:1 4267:1 5110:1 5358:1 11845:1 11895:1 15149:1 15150:1 15151:1 
0.1834974549369348 1:1 5:1 23:1 39:1 58:1 77:1 166:1 189:1 431:1 434:1 441:1 629:1 701:1 748:1 778:1 786:1 881:1 889:1 1152:1 1218:1 1302:1 1336:1 1465:1 1474:1 1475:1 1609:1 1828:1 3794:1 4574:1 5943:1 7598:1 15158:1 15159:1 15160:1 15161:1 15162:1 15163:1 
0.08350655417199605 21:1 237:1 271:1 368:1 425:1 803:1 959:1 1279:1 1915:1 2047:1 2683:1 2982:1 5797:1 10409:1 
